SVM-light Version V6.02
0 # kernel type
3 # kernel parameter -d 
1 # kernel parameter -g 
1 # kernel parameter -s 
1 # kernel parameter -r 
empty# kernel parameter -u 
29328 # highest feature index 
1000 # number of training documents 
692 # number of support vectors plus 1 
0.69832307 # threshold b, each following line is a SV (starting with alpha*y)
-11.655504473777293 1:0.481125 4:0.30242199 5:0.054986 11:0.31616801 15:0.137464 17:0.247436 21:0.013746 22:0.013746 24:0.027493 33:0.247436 34:0.013746 39:0.041239001 40:0.041239001 43:0.068732001 60:0.082479 62:0.31616801 63:0.013746 64:0.013746 66:0.027493 73:0.013746 76:0.096225001 78:0.013746 90:0.013746 95:0.082479 96:0.013746 98:0.27492899 102:0.109971 105:0.027493 107:0.013746 110:0.013746 111:0.027493 114:0.013746 115:0.17870399 120:0.013746 130:0.013746 133:0.013746 139:0.013746 144:0.013746 145:0.013746 148:0.082479 149:0.082479 151:0.013746 156:0.013746 163:0.013746 167:0.041239001 173:0.013746 175:0.013746 176:0.027493 177:0.054986 178:0.041239001 194:0.041239001 196:0.013746 197:0.068732001 200:0.013746 201:0.013746 202:0.013746 203:0.027493 208:0.013746 212:0.027493 221:0.027493 225:0.013746 227:0.054986 231:0.013746 236:0.013746 241:0.013746 243:0.082479 244:0.041239001 266:0.013746 270:0.013746 272:0.013746 282:0.013746 290:0.027493 294:0.013746 296:0.027493 301:0.068732001 319:0.027493 321:0.027493 337:0.013746 338:0.027493 345:0.013746 349:0.013746 354:0.082479 367:0.013746 369:0.013746 377:0.054986 384:0.013746 394:0.027493 405:0.068732001 406:0.013746 423:0.013746 426:0.041239001 435:0.013746 439:0.027493 450:0.013746 454:0.013746 492:0.013746 494:0.013746 507:0.013746 509:0.013746 516:0.013746 542:0.013746 543:0.013746 548:0.041239001 555:0.027493 556:0.013746 557:0.041239001 558:0.013746 570:0.013746 580:0.013746 582:0.013746 611:0.013746 614:0.013746 636:0.013746 645:0.013746 647:0.013746 683:0.027493 689:0.013746 747:0.027493 754:0.013746 785:0.013746 787:0.013746 796:0.013746 803:0.013746 826:0.027493 833:0.013746 849:0.013746 869:0.013746 875:0.013746 891:0.054986 892:0.013746 896:0.013746 903:0.013746 905:0.013746 906:0.013746 907:0.027493 908:0.013746 945:0.013746 962:0.013746 965:0.013746 973:0.027493 981:0.013746 996:0.013746 998:0.013746 1007:0.013746 1013:0.013746 1017:0.013746 1029:0.013746 1042:0.013746 1043:0.013746 1047:0.013746 1054:0.013746 1058:0.027493 1090:0.013746 1095:0.013746 1122:0.013746 1124:0.013746 1138:0.013746 1149:0.027493 1153:0.013746 1246:0.013746 1265:0.013746 1328:0.013746 1478:0.013746 1488:0.013746 1530:0.013746 1547:0.013746 1653:0.013746 1688:0.013746 1691:0.013746 1731:0.013746 1757:0.013746 1769:0.013746 1783:0.013746 1800:0.013746 1824:0.013746 1826:0.013746 1828:0.013746 1835:0.013746 1915:0.013746 1931:0.013746 1938:0.013746 1963:0.013746 1985:0.013746 1995:0.013746 2044:0.013746 2064:0.013746 2065:0.013746 2093:0.013746 2102:0.027493 2117:0.013746 2162:0.013746 2188:0.013746 2221:0.013746 2222:0.027493 2225:0.013746 2357:0.013746 2394:0.013746 2420:0.013746 2450:0.013746 2455:0.013746 2456:0.013746 2471:0.013746 2598:0.013746 2621:0.013746 2635:0.013746 2708:0.013746 2748:0.013746 2754:0.013746 2761:0.013746 2808:0.013746 2853:0.013746 2871:0.013746 2901:0.013746 2936:0.013746 2961:0.027493 2972:0.013746 2981:0.013746 3017:0.013746 3025:0.013746 3051:0.013746 3074:0.013746 3149:0.013746 3173:0.013746 3177:0.013746 3235:0.013746 3322:0.013746 3330:0.013746 3352:0.013746 3411:0.013746 3415:0.013746 3437:0.013746 3449:0.013746 3510:0.013746 3513:0.013746 3575:0.013746 3720:0.013746 3780:0.013746 3807:0.013746 3825:0.013746 3845:0.013746 3846:0.013746 3872:0.013746 3876:0.027493 3877:0.013746 3912:0.027493 3960:0.013746 4016:0.013746 4140:0.013746 4153:0.013746 4162:0.013746 4175:0.013746 4253:0.013746 4301:0.013746 4311:0.013746 4607:0.013746 4647:0.013746 4688:0.013746 4830:0.013746 4915:0.013746 4973:0.013746 5047:0.013746 5182:0.013746 5228:0.013746 5231:0.013746 5258:0.013746 5306:0.013746 5517:0.013746 5604:0.027493 5624:0.013746 5660:0.013746 5760:0.013746 5775:0.013746 5821:0.013746 5897:0.013746 5900:0.013746 5963:0.013746 5971:0.013746 5988:0.013746 6042:0.013746 6156:0.013746 6230:0.013746 6272:0.013746 6389:0.013746 6525:0.013746 6576:0.013746 6788:0.027493 6814:0.013746 6835:0.013746 6836:0.013746 6875:0.013746 6886:0.013746 6953:0.013746 7084:0.013746 7350:0.013746 7379:0.027493 7411:0.027493 7567:0.013746 7644:0.013746 7671:0.013746 7719:0.013746 8015:0.013746 8020:0.013746 8110:0.013746 8186:0.013746 8395:0.013746 8564:0.013746 8680:0.013746 8852:0.013746 8902:0.013746 8928:0.013746 8989:0.013746 9310:0.013746 9311:0.013746 9338:0.013746 9553:0.013746 9615:0.013746 9737:0.013746 9786:0.041239001 9851:0.013746 9862:0.013746 9873:0.013746 9968:0.013746 10104:0.013746 10142:0.013746 10297:0.013746 10796:0.013746 10816:0.013746 11043:0.013746 11186:0.013746 11747:0.013746 12049:0.013746 12367:0.013746 12602:0.013746 12630:0.013746 13067:0.013746 13329:0.013746 13707:0.013746 14309:0.013746 14408:0.041239001 14859:0.013746 15042:0.013746 15057:0.013746 15619:0.013746 15636:0.013746 15904:0.013746 16749:0.027493 16759:0.013746 16840:0.013746 17323:0.013746 17885:0.013746 18285:0.013746 18914:0.013746 19497:0.013746 19822:0.013746 20065:0.013746 20332:0.054986 20683:0.013746 21895:0.027493 21896:0.013746 21897:0.013746 21898:0.013746 21899:0.15121099 21900:0.041239001 21901:0.013746 21902:0.013746 21903:0.013746 21904:0.027493 21905:0.013746 21906:0.013746 21907:0.013746 21908:0.013746 21909:0.013746 21910:0.013746 21911:0.013746 21912:0.013746 21913:0.013746 21914:0.013746 21915:0.013746 21916:0.013746 21917:0.013746 21918:0.013746 21919:0.013746 21920:0.013746 21921:0.013746 21922:0.013746 21923:0.027493 #
-7.5094118935256571 1:0.61290801 4:0.32059801 5:0.056575999 8:0.0094290003 11:0.28288001 15:0.22630399 17:0.066004999 19:0.0094290003 20:0.0094290003 21:0.028287999 24:0.018859001 25:0.028287999 27:0.0094290003 29:0.0094290003 31:0.018859001 33:0.188587 39:0.037717 40:0.018859001 43:0.094292998 44:0.028287999 46:0.028287999 58:0.0094290003 60:0.018859001 61:0.0094290003 62:0.273451 63:0.0094290003 64:0.028287999 66:0.047146998 73:0.056575999 76:0.037717 78:0.018859001 95:0.056575999 96:0.018859001 97:0.028287999 98:0.103723 99:0.0094290003 102:0.084863998 103:0.028287999 104:0.0094290003 106:0.028287999 110:0.0094290003 111:0.037717 114:0.028287999 115:0.179158 120:0.047146998 136:0.0094290003 140:0.018859001 144:0.037717 148:0.066004999 149:0.160299 150:0.0094290003 151:0.018859001 156:0.0094290003 167:0.047146998 170:0.0094290003 172:0.0094290003 173:0.0094290003 176:0.0094290003 177:0.037717 180:0.028287999 193:0.0094290003 194:0.037717 196:0.018859001 197:0.056575999 199:0.018859001 200:0.0094290003 202:0.0094290003 203:0.018859001 204:0.0094290003 211:0.018859001 218:0.0094290003 221:0.0094290003 227:0.028287999 231:0.037717 236:0.018859001 238:0.075434998 240:0.0094290003 243:0.037717 254:0.018859001 268:0.0094290003 270:0.0094290003 274:0.0094290003 281:0.0094290003 285:0.0094290003 290:0.0094290003 292:0.0094290003 294:0.018859001 296:0.018859001 299:0.0094290003 301:0.0094290003 306:0.0094290003 311:0.0094290003 319:0.028287999 325:0.0094290003 331:0.028287999 332:0.0094290003 337:0.0094290003 339:0.0094290003 347:0.0094290003 348:0.0094290003 354:0.056575999 358:0.0094290003 361:0.047146998 363:0.0094290003 366:0.0094290003 368:0.018859001 371:0.0094290003 376:0.094292998 377:0.018859001 380:0.0094290003 381:0.0094290003 388:0.0094290003 392:0.056575999 394:0.066004999 400:0.0094290003 405:0.0094290003 406:0.028287999 408:0.018859001 409:0.0094290003 411:0.018859001 421:0.0094290003 423:0.018859001 426:0.066004999 433:0.0094290003 439:0.028287999 450:0.0094290003 493:0.028287999 501:0.0094290003 505:0.0094290003 509:0.0094290003 516:0.028287999 542:0.0094290003 548:0.047146998 553:0.0094290003 557:0.018859001 565:0.0094290003 573:0.0094290003 574:0.018859001 579:0.018859001 580:0.0094290003 582:0.037717 588:0.0094290003 589:0.0094290003 591:0.0094290003 598:0.028287999 619:0.0094290003 634:0.0094290003 635:0.0094290003 640:0.028287999 645:0.0094290003 647:0.0094290003 648:0.018859001 653:0.0094290003 684:0.0094290003 685:0.0094290003 692:0.0094290003 696:0.0094290003 702:0.018859001 712:0.0094290003 730:0.0094290003 745:0.0094290003 748:0.018859001 753:0.028287999 754:0.028287999 784:0.0094290003 785:0.047146998 787:0.018859001 789:0.0094290003 822:0.0094290003 826:0.037717 833:0.018859001 834:0.0094290003 848:0.0094290003 849:0.0094290003 891:0.028287999 896:0.018859001 908:0.0094290003 911:0.0094290003 915:0.0094290003 917:0.0094290003 932:0.018859001 955:0.0094290003 959:0.0094290003 972:0.018859001 998:0.0094290003 1004:0.0094290003 1008:0.018859001 1014:0.0094290003 1027:0.0094290003 1033:0.0094290003 1038:0.0094290003 1066:0.018859001 1074:0.0094290003 1079:0.0094290003 1086:0.0094290003 1090:0.0094290003 1095:0.0094290003 1107:0.0094290003 1134:0.0094290003 1135:0.0094290003 1151:0.0094290003 1152:0.018859001 1160:0.018859001 1163:0.0094290003 1172:0.0094290003 1257:0.0094290003 1285:0.0094290003 1307:0.056575999 1318:0.0094290003 1320:0.0094290003 1409:0.018859001 1415:0.0094290003 1421:0.0094290003 1429:0.0094290003 1472:0.018859001 1502:0.0094290003 1518:0.0094290003 1642:0.0094290003 1651:0.018859001 1667:0.0094290003 1680:0.0094290003 1768:0.0094290003 1775:0.0094290003 1781:0.0094290003 1814:0.018859001 1825:0.0094290003 1829:0.0094290003 1863:0.0094290003 1873:0.018859001 1918:0.028287999 1972:0.0094290003 1988:0.0094290003 2031:0.018859001 2079:0.0094290003 2149:0.0094290003 2162:0.0094290003 2170:0.0094290003 2202:0.0094290003 2207:0.0094290003 2219:0.0094290003 2220:0.0094290003 2236:0.0094290003 2281:0.018859001 2282:0.028287999 2308:0.0094290003 2313:0.0094290003 2318:0.0094290003 2329:0.0094290003 2332:0.0094290003 2357:0.0094290003 2360:0.018859001 2381:0.0094290003 2395:0.0094290003 2406:0.0094290003 2429:0.0094290003 2433:0.0094290003 2455:0.0094290003 2457:0.0094290003 2590:0.0094290003 2595:0.0094290003 2605:0.0094290003 2611:0.0094290003 2624:0.0094290003 2668:0.018859001 2712:0.0094290003 2732:0.0094290003 2752:0.018859001 2801:0.0094290003 2815:0.0094290003 2858:0.0094290003 2860:0.0094290003 2922:0.0094290003 2937:0.0094290003 2954:0.0094290003 2961:0.0094290003 2970:0.0094290003 2972:0.0094290003 2984:0.0094290003 3145:0.0094290003 3211:0.0094290003 3219:0.0094290003 3244:0.0094290003 3256:0.018859001 3266:0.0094290003 3297:0.0094290003 3425:0.0094290003 3438:0.0094290003 3505:0.0094290003 3551:0.0094290003 3574:0.0094290003 3617:0.0094290003 3641:0.018859001 3655:0.0094290003 3717:0.0094290003 3738:0.0094290003 3751:0.0094290003 4001:0.0094290003 4016:0.018859001 4103:0.0094290003 4146:0.0094290003 4162:0.0094290003 4238:0.0094290003 4263:0.0094290003 4291:0.0094290003 4306:0.0094290003 4327:0.018859001 4329:0.0094290003 4347:0.0094290003 4401:0.0094290003 4410:0.0094290003 4423:0.0094290003 4427:0.0094290003 4482:0.0094290003 4608:0.0094290003 4633:0.0094290003 4665:0.0094290003 4669:0.0094290003 4739:0.0094290003 4830:0.018859001 4908:0.0094290003 4912:0.0094290003 4953:0.0094290003 4960:0.0094290003 4962:0.0094290003 5067:0.0094290003 5109:0.0094290003 5163:0.0094290003 5191:0.0094290003 5256:0.0094290003 5289:0.018859001 5316:0.0094290003 5317:0.0094290003 5331:0.0094290003 5423:0.0094290003 5435:0.0094290003 5764:0.0094290003 5793:0.0094290003 5890:0.0094290003 6003:0.0094290003 6151:0.0094290003 6164:0.0094290003 6278:0.0094290003 6305:0.0094290003 6324:0.018859001 6449:0.0094290003 6471:0.0094290003 6575:0.0094290003 6770:0.0094290003 6776:0.0094290003 6799:0.0094290003 6920:0.0094290003 7014:0.0094290003 7150:0.0094290003 7436:0.0094290003 7516:0.0094290003 7561:0.018859001 7681:0.0094290003 7689:0.018859001 7832:0.0094290003 7894:0.0094290003 8172:0.0094290003 8269:0.0094290003 8387:0.0094290003 8469:0.0094290003 8582:0.0094290003 8636:0.0094290003 8647:0.0094290003 8696:0.0094290003 8789:0.0094290003 8831:0.0094290003 9129:0.0094290003 9200:0.0094290003 9203:0.0094290003 9352:0.0094290003 9396:0.0094290003 9830:0.0094290003 9874:0.0094290003 10048:0.0094290003 10234:0.0094290003 10362:0.0094290003 10439:0.0094290003 10479:0.0094290003 10608:0.0094290003 10650:0.018859001 10713:0.0094290003 10955:0.028287999 10956:0.179158 10961:0.0094290003 10989:0.056575999 10991:0.0094290003 11053:0.066004999 11840:0.0094290003 12103:0.0094290003 12181:0.0094290003 12465:0.0094290003 13364:0.0094290003 13510:0.018859001 13511:0.018859001 13516:0.0094290003 13666:0.0094290003 13699:0.0094290003 13740:0.0094290003 14160:0.0094290003 14538:0.0094290003 14571:0.0094290003 14573:0.0094290003 15080:0.0094290003 15153:0.0094290003 15287:0.0094290003 15361:0.0094290003 15934:0.0094290003 16283:0.018859001 16315:0.0094290003 16329:0.0094290003 16330:0.0094290003 16349:0.0094290003 16780:0.0094290003 17006:0.018859001 17101:0.0094290003 17504:0.0094290003 17961:0.0094290003 18129:0.0094290003 18147:0.0094290003 18467:0.0094290003 18584:0.0094290003 18758:0.0094290003 19082:0.0094290003 19085:0.0094290003 19242:0.0094290003 20149:0.0094290003 21264:0.018859001 21429:0.0094290003 21736:0.0094290003 22521:0.0094290003 22837:0.0094290003 23312:0.0094290003 23402:0.0094290003 23541:0.0094290003 23703:0.0094290003 23850:0.0094290003 24259:0.0094290003 24260:0.0094290003 24261:0.028287999 24262:0.0094290003 24263:0.0094290003 24264:0.0094290003 24265:0.0094290003 24266:0.0094290003 24267:0.0094290003 24268:0.0094290003 24269:0.0094290003 24270:0.0094290003 24271:0.0094290003 24272:0.0094290003 24273:0.018859001 24274:0.018859001 24275:0.0094290003 24276:0.0094290003 24277:0.0094290003 24278:0.0094290003 24279:0.0094290003 24280:0.0094290003 24281:0.0094290003 24282:0.0094290003 24283:0.0094290003 24284:0.0094290003 24285:0.0094290003 24286:0.018859001 24287:0.0094290003 24288:0.0094290003 24289:0.0094290003 24290:0.0094290003 #
-2.937440314193549 1:0.58982098 4:0.18767001 5:0.053619999 11:0.30831501 15:0.29491001 17:0.120645 19:0.013405 20:0.080430001 21:0.02681 32:0.013405 33:0.040215001 35:0.013405 37:0.013405 39:0.120645 40:0.040215001 43:0.14745501 44:0.040215001 46:0.013405 60:0.080430001 62:0.201075 64:0.013405 65:0.013405 66:0.067024998 68:0.02681 73:0.040215001 76:0.13405 78:0.040215001 90:0.02681 95:0.067024998 96:0.053619999 98:0.120645 99:0.013405 102:0.10724 103:0.013405 105:0.013405 106:0.067024998 111:0.013405 115:0.22788499 120:0.02681 129:0.040215001 136:0.02681 139:0.040215001 140:0.02681 144:0.013405 148:0.040215001 149:0.093835004 151:0.013405 161:0.013405 167:0.10724 172:0.013405 173:0.013405 175:0.013405 177:0.053619999 193:0.02681 194:0.053619999 196:0.02681 197:0.013405 199:0.013405 201:0.013405 202:0.013405 203:0.02681 206:0.013405 209:0.013405 210:0.013405 221:0.02681 227:0.013405 231:0.02681 236:0.013405 241:0.013405 243:0.040215001 244:0.013405 281:0.040215001 290:0.013405 296:0.013405 299:0.013405 301:0.13405 304:0.013405 305:0.013405 309:0.013405 323:0.013405 326:0.013405 331:0.013405 332:0.013405 334:0.013405 339:0.013405 354:0.02681 361:0.040215001 374:0.013405 377:0.013405 392:0.02681 394:0.040215001 406:0.02681 411:0.02681 421:0.013405 422:0.013405 439:0.02681 457:0.013405 475:0.013405 478:0.013405 494:0.02681 495:0.013405 496:0.013405 497:0.013405 508:0.013405 532:0.013405 543:0.040215001 548:0.040215001 559:0.02681 582:0.013405 619:0.013405 640:0.013405 647:0.013405 653:0.013405 700:0.013405 705:0.013405 742:0.013405 754:0.013405 769:0.013405 780:0.013405 785:0.053619999 820:0.013405 821:0.013405 826:0.02681 831:0.013405 833:0.02681 848:0.013405 849:0.013405 867:0.040215001 873:0.013405 874:0.013405 878:0.02681 891:0.02681 905:0.013405 955:0.013405 962:0.013405 1007:0.02681 1027:0.013405 1038:0.013405 1042:0.013405 1044:0.013405 1049:0.02681 1054:0.040215001 1102:0.013405 1107:0.013405 1119:0.013405 1152:0.013405 1168:0.013405 1208:0.013405 1220:0.040215001 1240:0.013405 1251:0.013405 1255:0.013405 1287:0.013405 1307:0.02681 1314:0.013405 1323:0.013405 1332:0.013405 1368:0.013405 1386:0.013405 1389:0.013405 1467:0.02681 1489:0.013405 1502:0.013405 1596:0.013405 1609:0.02681 1621:0.013405 1665:0.02681 1677:0.02681 1690:0.013405 1695:0.013405 1700:0.013405 1775:0.013405 1855:0.013405 1869:0.013405 1884:0.013405 1890:0.02681 1918:0.013405 2117:0.013405 2186:0.013405 2223:0.013405 2313:0.02681 2360:0.013405 2385:0.013405 2429:0.02681 2447:0.013405 2494:0.013405 2595:0.013405 2693:0.013405 2786:0.013405 2791:0.013405 2836:0.013405 2862:0.013405 2898:0.013405 2922:0.013405 2961:0.013405 2983:0.013405 2984:0.013405 2986:0.013405 3180:0.013405 3190:0.080430001 3306:0.013405 3387:0.02681 3394:0.013405 3422:0.013405 3429:0.013405 3438:0.013405 3499:0.013405 3551:0.013405 3553:0.013405 3563:0.013405 3588:0.013405 3592:0.013405 3595:0.013405 3601:0.02681 3720:0.013405 3732:0.013405 3787:0.013405 3876:0.013405 3973:0.013405 4024:0.013405 4106:0.013405 4222:0.013405 4245:0.013405 4250:0.02681 4251:0.013405 4301:0.013405 4313:0.013405 4330:0.013405 4422:0.013405 4450:0.013405 4503:0.013405 4713:0.040215001 4726:0.013405 4804:0.013405 4891:0.013405 4974:0.013405 5035:0.013405 5062:0.013405 5075:0.013405 5117:0.013405 5163:0.013405 5290:0.013405 5323:0.013405 5383:0.013405 5602:0.013405 5635:0.013405 5729:0.013405 5745:0.013405 5842:0.013405 5870:0.013405 5946:0.013405 6091:0.013405 6313:0.013405 6422:0.013405 6449:0.013405 6458:0.013405 6576:0.013405 6718:0.040215001 6787:0.013405 7059:0.013405 7085:0.013405 7100:0.013405 7150:0.013405 7274:0.013405 7287:0.013405 7586:0.013405 7634:0.013405 7644:0.013405 8017:0.013405 8050:0.013405 8139:0.013405 8435:0.013405 8520:0.013405 8676:0.013405 8753:0.013405 8835:0.013405 8988:0.013405 9271:0.013405 9338:0.013405 9654:0.013405 9809:0.013405 10071:0.013405 10333:0.013405 10550:0.093835004 10713:0.013405 10939:0.013405 11516:0.013405 11936:0.013405 12041:0.013405 12081:0.013405 12372:0.013405 12420:0.013405 12426:0.013405 12666:0.013405 12785:0.013405 15430:0.013405 16060:0.013405 17297:0.013405 17300:0.013405 17951:0.013405 19237:0.013405 19501:0.013405 19594:0.013405 19889:0.013405 20357:0.013405 20939:0.013405 21941:0.013405 21942:0.013405 21943:0.013405 21944:0.013405 21945:0.174265 21946:0.013405 21947:0.013405 21948:0.053619999 21949:0.013405 21950:0.13405 21951:0.013405 21952:0.013405 21953:0.013405 21954:0.013405 21955:0.013405 21956:0.013405 21957:0.040215001 21958:0.013405 21959:0.013405 21960:0.013405 21961:0.013405 21962:0.013405 21963:0.013405 21964:0.013405 21965:0.013405 21966:0.013405 21967:0.013405 #
1.1071070201214839 1:0.52000099 4:0.28888899 5:0.057778001 11:0.231111 15:0.19259299 17:0.077036999 21:0.038518999 25:0.038518999 33:0.231111 39:0.13481501 40:0.019259 43:0.077036999 44:0.057778001 60:0.057778001 62:0.25037101 66:0.115556 76:0.077036999 78:0.096295998 95:0.019259 96:0.038518999 98:0.173334 99:0.019259 101:0.019259 102:0.057778001 103:0.019259 104:0.019259 107:0.077036999 110:0.019259 111:0.019259 115:0.231111 120:0.019259 128:0.019259 136:0.019259 139:0.038518999 144:0.038518999 148:0.13481501 149:0.096295998 156:0.019259 167:0.057778001 169:0.038518999 173:0.057778001 175:0.019259 178:0.038518999 188:0.038518999 194:0.115556 196:0.019259 197:0.038518999 199:0.019259 202:0.019259 203:0.057778001 221:0.019259 227:0.096295998 238:0.019259 239:0.019259 243:0.057778001 290:0.019259 292:0.019259 293:0.019259 301:0.096295998 303:0.019259 305:0.038518999 306:0.038518999 321:0.019259 337:0.019259 338:0.019259 344:0.038518999 354:0.019259 358:0.019259 377:0.019259 394:0.019259 405:0.019259 406:0.038518999 423:0.019259 439:0.038518999 454:0.019259 492:0.019259 497:0.019259 516:0.019259 544:0.019259 548:0.038518999 555:0.038518999 557:0.038518999 573:0.019259 582:0.057778001 603:0.019259 619:0.019259 625:0.019259 629:0.019259 632:0.019259 634:0.019259 637:0.019259 683:0.077036999 706:0.019259 712:0.019259 723:0.019259 737:0.019259 742:0.019259 745:0.019259 746:0.038518999 754:0.019259 760:0.019259 761:0.019259 766:0.038518999 784:0.038518999 785:0.057778001 824:0.019259 826:0.038518999 831:0.154074 840:0.019259 849:0.038518999 854:0.019259 878:0.038518999 891:0.077036999 917:0.019259 932:0.019259 935:0.019259 952:0.019259 955:0.019259 964:0.019259 970:0.019259 974:0.019259 1004:0.019259 1008:0.038518999 1013:0.019259 1014:0.019259 1026:0.038518999 1033:0.019259 1038:0.019259 1039:0.019259 1042:0.019259 1119:0.019259 1135:0.019259 1137:0.019259 1149:0.019259 1152:0.038518999 1172:0.019259 1265:0.019259 1276:0.019259 1343:0.019259 1364:0.019259 1428:0.038518999 1432:0.019259 1468:0.038518999 1558:0.019259 1654:0.019259 1756:0.019259 1768:0.019259 1783:0.019259 1800:0.019259 1803:0.019259 1871:0.019259 1891:0.019259 1918:0.019259 1923:0.019259 1995:0.019259 2102:0.019259 2130:0.019259 2210:0.019259 2296:0.019259 2309:0.019259 2353:0.019259 2401:0.019259 2454:0.019259 2467:0.038518999 2484:0.019259 2621:0.019259 2630:0.019259 2752:0.019259 2772:0.038518999 2999:0.019259 3101:0.019259 3115:0.019259 3155:0.019259 3168:0.019259 3276:0.019259 3307:0.038518999 3343:0.211852 3344:0.038518999 3345:0.019259 3346:0.038518999 3352:0.019259 3375:0.019259 3397:0.038518999 3416:0.019259 3579:0.038518999 3776:0.019259 3823:0.019259 3858:0.019259 4034:0.019259 4203:0.019259 4211:0.019259 4262:0.019259 4394:0.019259 4447:0.019259 4565:0.019259 4590:0.019259 4647:0.019259 5072:0.019259 5622:0.019259 5629:0.019259 5863:0.019259 6026:0.038518999 6326:0.019259 6723:0.019259 6831:0.019259 6835:0.019259 6836:0.019259 6903:0.019259 7537:0.019259 7595:0.019259 7626:0.019259 7889:0.019259 7939:0.019259 8243:0.019259 8269:0.019259 8415:0.019259 8587:0.019259 9737:0.019259 9851:0.019259 10519:0.019259 10552:0.019259 10646:0.019259 11146:0.019259 11851:0.019259 12133:0.019259 12411:0.019259 12627:0.019259 12779:0.019259 12815:0.019259 13381:0.019259 14977:0.019259 15458:0.019259 16181:0.019259 16182:0.019259 16183:0.019259 16184:0.019259 16185:0.019259 16186:0.019259 16187:0.019259 16188:0.019259 16189:0.019259 16190:0.019259 16191:0.019259 16192:0.019259 16193:0.019259 #
0.60331619270646508 1:0.60993898 4:0.32996699 5:0.059994001 11:0.339966 15:0.239976 17:0.069992997 20:0.029997 21:0.049995001 24:0.0099989995 31:0.029997 33:0.15998399 39:0.019997999 40:0.0099989995 43:0.049995001 44:0.029997 50:0.0099989995 56:0.0099989995 60:0.069992997 62:0.129987 64:0.029997 66:0.069992997 73:0.0099989995 76:0.059994001 83:0.0099989995 90:0.019997999 95:0.079991996 97:0.119988 98:0.119988 102:0.119988 103:0.029997 105:0.029997 106:0.109989 107:0.089991003 110:0.049995001 111:0.039995998 115:0.189981 120:0.049995001 126:0.0099989995 128:0.0099989995 136:0.0099989995 139:0.0099989995 140:0.0099989995 144:0.019997999 146:0.0099989995 148:0.019997999 149:0.069992997 150:0.049995001 152:0.0099989995 153:0.0099989995 161:0.0099989995 167:0.089991003 169:0.029997 170:0.019997999 173:0.019997999 175:0.0099989995 176:0.0099989995 177:0.029997 178:0.0099989995 180:0.019997999 183:0.0099989995 193:0.059994001 194:0.019997999 196:0.029997 197:0.029997 198:0.0099989995 199:0.019997999 200:0.019997999 202:0.0099989995 203:0.039995998 205:0.0099989995 208:0.0099989995 211:0.0099989995 212:0.019997999 215:0.0099989995 218:0.0099989995 221:0.0099989995 222:0.0099989995 227:0.039995998 231:0.029997 238:0.0099989995 240:0.0099989995 243:0.029997 244:0.049995001 254:0.019997999 274:0.0099989995 281:0.019997999 294:0.019997999 296:0.029997 301:0.029997 305:0.0099989995 321:0.029997 331:0.019997999 332:0.019997999 337:0.0099989995 339:0.0099989995 349:0.019997999 351:0.019997999 354:0.089991003 358:0.0099989995 362:0.0099989995 367:0.0099989995 368:0.019997999 374:0.0099989995 377:0.029997 392:0.0099989995 394:0.049995001 405:0.129987 406:0.029997 423:0.0099989995 432:0.0099989995 433:0.0099989995 439:0.029997 450:0.0099989995 451:0.0099989995 460:0.0099989995 478:0.019997999 492:0.029997 493:0.039995998 497:0.029997 499:0.019997999 516:0.0099989995 522:0.0099989995 542:0.019997999 548:0.029997 556:0.0099989995 562:0.039995998 580:0.0099989995 582:0.019997999 591:0.0099989995 614:0.019997999 617:0.0099989995 619:0.0099989995 621:0.0099989995 625:0.019997999 631:0.019997999 640:0.039995998 644:0.019997999 653:0.0099989995 660:0.019997999 661:0.0099989995 681:0.0099989995 683:0.0099989995 685:0.019997999 693:0.019997999 694:0.0099989995 696:0.0099989995 702:0.019997999 705:0.019997999 712:0.029997 714:0.0099989995 718:0.0099989995 719:0.0099989995 727:0.0099989995 746:0.029997 751:0.0099989995 753:0.0099989995 754:0.019997999 755:0.0099989995 759:0.0099989995 762:0.019997999 764:0.019997999 769:0.029997 772:0.0099989995 777:0.029997 784:0.0099989995 785:0.0099989995 793:0.039995998 806:0.0099989995 813:0.019997999 820:0.019997999 824:0.029997 826:0.019997999 833:0.0099989995 849:0.0099989995 867:0.019997999 878:0.019997999 882:0.0099989995 883:0.0099989995 886:0.0099989995 889:0.0099989995 890:0.0099989995 896:0.019997999 899:0.0099989995 905:0.029997 909:0.0099989995 917:0.029997 965:0.0099989995 966:0.0099989995 972:0.0099989995 989:0.0099989995 1004:0.0099989995 1007:0.0099989995 1008:0.0099989995 1011:0.0099989995 1017:0.0099989995 1030:0.0099989995 1031:0.0099989995 1038:0.039995998 1044:0.0099989995 1076:0.0099989995 1085:0.0099989995 1087:0.0099989995 1089:0.0099989995 1102:0.019997999 1105:0.0099989995 1138:0.019997999 1141:0.0099989995 1149:0.0099989995 1151:0.0099989995 1163:0.0099989995 1172:0.039995998 1173:0.0099989995 1195:0.0099989995 1219:0.0099989995 1226:0.0099989995 1234:0.0099989995 1316:0.0099989995 1365:0.0099989995 1392:0.0099989995 1415:0.0099989995 1459:0.0099989995 1468:0.0099989995 1472:0.0099989995 1500:0.0099989995 1501:0.0099989995 1502:0.0099989995 1505:0.0099989995 1526:0.0099989995 1550:0.019997999 1579:0.0099989995 1593:0.0099989995 1596:0.0099989995 1653:0.0099989995 1673:0.0099989995 1756:0.0099989995 1762:0.019997999 1775:0.019997999 1797:0.0099989995 1803:0.0099989995 1877:0.0099989995 1886:0.0099989995 1918:0.029997 1963:0.0099989995 1985:0.0099989995 1994:0.0099989995 2036:0.0099989995 2049:0.0099989995 2071:0.0099989995 2073:0.0099989995 2080:0.0099989995 2090:0.0099989995 2091:0.0099989995 2102:0.0099989995 2131:0.019997999 2133:0.0099989995 2137:0.0099989995 2147:0.0099989995 2149:0.0099989995 2170:0.0099989995 2180:0.0099989995 2188:0.0099989995 2195:0.0099989995 2206:0.059994001 2251:0.0099989995 2306:0.019997999 2310:0.0099989995 2313:0.019997999 2318:0.0099989995 2321:0.0099989995 2360:0.0099989995 2401:0.0099989995 2456:0.0099989995 2458:0.0099989995 2467:0.019997999 2494:0.0099989995 2499:0.0099989995 2516:0.0099989995 2517:0.019997999 2563:0.0099989995 2576:0.0099989995 2602:0.0099989995 2630:0.019997999 2631:0.0099989995 2635:0.019997999 2644:0.0099989995 2664:0.019997999 2676:0.0099989995 2689:0.0099989995 2769:0.0099989995 2801:0.0099989995 2902:0.0099989995 2961:0.0099989995 3028:0.0099989995 3037:0.0099989995 3060:0.029997 3075:0.0099989995 3099:0.0099989995 3125:0.0099989995 3130:0.0099989995 3154:0.0099989995 3177:0.0099989995 3184:0.0099989995 3241:0.0099989995 3276:0.0099989995 3282:0.049995001 3289:0.0099989995 3304:0.0099989995 3352:0.0099989995 3372:0.0099989995 3382:0.0099989995 3387:0.0099989995 3456:0.0099989995 3469:0.0099989995 3484:0.0099989995 3599:0.0099989995 3704:0.0099989995 3793:0.0099989995 3800:0.0099989995 3882:0.0099989995 3982:0.0099989995 4063:0.0099989995 4067:0.029997 4078:0.0099989995 4130:0.0099989995 4141:0.0099989995 4144:0.0099989995 4159:0.0099989995 4188:0.0099989995 4222:0.0099989995 4270:0.0099989995 4298:0.0099989995 4398:0.0099989995 4446:0.0099989995 4455:0.019997999 4456:0.0099989995 4482:0.0099989995 4513:0.0099989995 4530:0.0099989995 4643:0.0099989995 4742:0.0099989995 4767:0.019997999 4790:0.0099989995 5049:0.049995001 5073:0.0099989995 5105:0.019997999 5248:0.0099989995 5353:0.0099989995 5381:0.0099989995 5592:0.0099989995 5652:0.0099989995 5685:0.0099989995 5822:0.0099989995 5975:0.0099989995 6167:0.0099989995 6175:0.0099989995 6328:0.0099989995 6460:0.019997999 6464:0.0099989995 6712:0.0099989995 6799:0.0099989995 6959:0.0099989995 6974:0.0099989995 7087:0.0099989995 7092:0.0099989995 7109:0.0099989995 7186:0.0099989995 7245:0.019997999 7275:0.0099989995 7312:0.0099989995 7317:0.0099989995 7638:0.0099989995 7639:0.039995998 7685:0.0099989995 7707:0.0099989995 7748:0.0099989995 7751:0.0099989995 7833:0.019997999 7919:0.0099989995 7920:0.019997999 8122:0.019997999 8126:0.0099989995 8139:0.0099989995 8142:0.0099989995 8162:0.019997999 8210:0.0099989995 8232:0.0099989995 8755:0.0099989995 8817:0.0099989995 8835:0.0099989995 9091:0.0099989995 9242:0.0099989995 9288:0.0099989995 9323:0.0099989995 9413:0.0099989995 9459:0.0099989995 9460:0.0099989995 9475:0.0099989995 9588:0.0099989995 9611:0.0099989995 9633:0.0099989995 9720:0.0099989995 9956:0.0099989995 9981:0.0099989995 10032:0.0099989995 10138:0.019997999 10212:0.0099989995 10411:0.0099989995 10579:0.0099989995 10580:0.0099989995 10875:0.0099989995 11007:0.0099989995 11297:0.0099989995 11532:0.0099989995 11533:0.0099989995 11534:0.0099989995 11535:0.0099989995 11536:0.0099989995 11537:0.0099989995 11538:0.0099989995 11539:0.0099989995 11540:0.0099989995 11541:0.0099989995 11542:0.0099989995 11543:0.019997999 11544:0.0099989995 11545:0.019997999 11546:0.0099989995 11547:0.019997999 11548:0.0099989995 11549:0.0099989995 11550:0.0099989995 11551:0.0099989995 11552:0.0099989995 11553:0.0099989995 11554:0.0099989995 11555:0.0099989995 11556:0.059994001 11557:0.019997999 11558:0.019997999 11559:0.0099989995 11560:0.0099989995 11561:0.0099989995 11562:0.0099989995 11563:0.0099989995 11564:0.0099989995 11565:0.019997999 11566:0.0099989995 11567:0.0099989995 11568:0.0099989995 11569:0.0099989995 11570:0.0099989995 11571:0.0099989995 11572:0.0099989995 11573:0.0099989995 11574:0.0099989995 11575:0.0099989995 11576:0.0099989995 11577:0.019997999 11578:0.0099989995 11579:0.0099989995 11580:0.0099989995 11581:0.0099989995 11582:0.0099989995 11583:0.0099989995 11584:0.0099989995 11585:0.0099989995 11586:0.0099989995 #
5.4960828873239524 1:0.36868501 2:0.014747 3:0.014747 4:0.235958 5:0.073737003 6:0.029495001 7:0.029495001 8:0.029495001 9:0.014747 10:0.014747 11:0.42767501 12:0.014747 13:0.044241998 14:0.029495001 15:0.20646399 16:0.014747 17:0.20646399 18:0.014747 19:0.014747 20:0.029495001 21:0.058990002 22:0.014747 23:0.014747 24:0.014747 25:0.014747 26:0.014747 27:0.044241998 28:0.014747 29:0.014747 30:0.014747 31:0.058990002 32:0.058990002 33:0.32444301 34:0.103232 35:0.014747 36:0.044241998 37:0.014747 38:0.014747 39:0.014747 40:0.014747 41:0.014747 42:0.014747 43:0.17696901 44:0.073737003 45:0.014747 46:0.029495001 47:0.014747 48:0.014747 49:0.014747 50:0.014747 51:0.029495001 52:0.029495001 53:0.014747 54:0.014747 55:0.014747 56:0.014747 57:0.014747 58:0.044241998 59:0.014747 60:0.014747 61:0.029495001 62:0.33919001 63:0.029495001 64:0.044241998 65:0.014747 66:0.073737003 67:0.014747 68:0.014747 69:0.014747 70:0.014747 71:0.044241998 72:0.014747 73:0.058990002 74:0.014747 75:0.014747 76:0.117979 77:0.014747 78:0.029495001 79:0.014747 80:0.014747 81:0.029495001 82:0.029495001 83:0.014747 84:0.014747 85:0.014747 86:0.014747 87:0.014747 88:0.044241998 89:0.014747 90:0.014747 91:0.117979 92:0.014747 93:0.044241998 94:0.014747 95:0.029495001 96:0.044241998 97:0.132727 98:0.162221 99:0.014747 100:0.014747 101:0.014747 102:0.103232 103:0.014747 104:0.014747 105:0.014747 106:0.117979 107:0.073737003 108:0.014747 109:0.014747 110:0.014747 111:0.014747 112:0.014747 113:0.014747 114:0.029495001 115:0.058990002 116:0.014747 117:0.014747 118:0.014747 119:0.014747 120:0.029495001 121:0.014747 122:0.014747 123:0.014747 124:0.029495001 125:0.014747 126:0.014747 127:0.029495001 128:0.029495001 129:0.014747 130:0.029495001 131:0.014747 132:0.014747 133:0.073737003 134:0.014747 135:0.014747 136:0.044241998 137:0.014747 138:0.014747 139:0.029495001 140:0.014747 141:0.014747 142:0.014747 143:0.014747 144:0.014747 145:0.029495001 146:0.014747 147:0.014747 148:0.073737003 149:0.073737003 150:0.014747 151:0.029495001 152:0.014747 153:0.029495001 154:0.014747 155:0.014747 156:0.014747 157:0.014747 158:0.014747 159:0.014747 160:0.014747 161:0.014747 162:0.014747 163:0.014747 164:0.014747 165:0.014747 166:0.014747 167:0.044241998 168:0.014747 169:0.029495001 170:0.029495001 171:0.014747 172:0.014747 173:0.014747 174:0.014747 175:0.014747 176:0.014747 177:0.014747 178:0.029495001 179:0.014747 180:0.044241998 181:0.014747 182:0.014747 183:0.014747 184:0.014747 185:0.014747 186:0.014747 187:0.014747 188:0.029495001 189:0.014747 190:0.014747 191:0.014747 192:0.014747 193:0.014747 194:0.014747 195:0.014747 196:0.014747 197:0.014747 198:0.044241998 199:0.044241998 200:0.014747 201:0.014747 202:0.044241998 203:0.044241998 204:0.014747 205:0.014747 206:0.029495001 207:0.014747 208:0.014747 209:0.014747 210:0.014747 211:0.014747 212:0.014747 213:0.014747 214:0.014747 215:0.014747 216:0.014747 217:0.014747 218:0.014747 219:0.014747 220:0.014747 221:0.029495001 222:0.014747 223:0.014747 224:0.014747 225:0.014747 226:0.014747 227:0.044241998 228:0.029495001 229:0.014747 230:0.014747 231:0.044241998 232:0.014747 233:0.029495001 234:0.014747 235:0.014747 236:0.014747 237:0.014747 238:0.014747 239:0.014747 240:0.014747 241:0.014747 242:0.014747 243:0.014747 244:0.029495001 245:0.014747 246:0.014747 247:0.014747 248:0.014747 249:0.014747 250:0.014747 251:0.029495001 252:0.014747 253:0.014747 254:0.014747 255:0.014747 256:0.014747 257:0.029495001 258:0.014747 259:0.014747 260:0.014747 261:0.014747 262:0.014747 263:0.014747 264:0.014747 265:0.014747 266:0.029495001 267:0.044241998 268:0.014747 269:0.014747 270:0.014747 271:0.014747 272:0.014747 273:0.014747 274:0.014747 275:0.014747 276:0.014747 277:0.014747 278:0.014747 279:0.014747 280:0.014747 281:0.014747 282:0.014747 283:0.014747 284:0.014747 285:0.014747 286:0.014747 287:0.014747 288:0.014747 289:0.014747 290:0.014747 291:0.014747 292:0.014747 293:0.014747 294:0.029495001 295:0.014747 296:0.014747 297:0.014747 298:0.014747 299:0.014747 300:0.014747 301:0.014747 302:0.014747 303:0.014747 304:0.014747 305:0.014747 306:0.014747 307:0.014747 308:0.014747 309:0.014747 310:0.014747 311:0.014747 312:0.014747 313:0.014747 314:0.014747 315:0.014747 316:0.014747 317:0.014747 318:0.014747 319:0.014747 320:0.029495001 321:0.014747 322:0.014747 323:0.014747 324:0.014747 325:0.014747 326:0.014747 327:0.014747 328:0.014747 329:0.014747 330:0.014747 331:0.014747 332:0.014747 333:0.014747 334:0.014747 335:0.014747 336:0.014747 337:0.014747 338:0.014747 339:0.014747 340:0.014747 341:0.014747 #
2.46767772488659 1:0.58385599 3:0.030729 4:0.307293 11:0.184376 15:0.184376 17:0.15364601 21:0.061459001 33:0.36875099 43:0.061459001 60:0.030729 62:0.122917 64:0.030729 66:0.122917 76:0.030729 78:0.061459001 98:0.122917 99:0.030729 102:0.061459001 103:0.030729 110:0.030729 115:0.184376 120:0.030729 144:0.061459001 148:0.061459001 149:0.184376 161:0.030729 167:0.061459001 169:0.061459001 172:0.030729 175:0.030729 176:0.030729 177:0.030729 199:0.030729 202:0.061459001 211:0.061459001 212:0.030729 224:0.030729 227:0.030729 244:0.092188001 245:0.030729 270:0.030729 290:0.030729 301:0.030729 305:0.030729 306:0.030729 319:0.030729 321:0.030729 331:0.030729 343:0.030729 352:0.030729 354:0.030729 358:0.030729 361:0.030729 363:0.030729 374:0.061459001 377:0.030729 421:0.030729 435:0.061459001 439:0.030729 478:0.030729 492:0.030729 548:0.030729 582:0.030729 625:0.030729 629:0.030729 644:0.030729 678:0.030729 684:0.030729 693:0.030729 747:0.030729 754:0.061459001 769:0.030729 770:0.030729 784:0.030729 785:0.030729 787:0.030729 793:0.030729 797:0.030729 801:0.030729 806:0.030729 818:0.030729 826:0.030729 849:0.061459001 857:0.030729 869:0.030729 873:0.030729 891:0.030729 903:0.030729 904:0.030729 908:0.030729 917:0.030729 932:0.030729 965:0.030729 972:0.030729 1008:0.030729 1011:0.030729 1013:0.030729 1087:0.030729 1102:0.030729 1127:0.030729 1219:0.030729 1220:0.030729 1302:0.061459001 1369:0.030729 1459:0.030729 1505:0.030729 1546:0.030729 1671:0.030729 1825:0.030729 1849:0.030729 1863:0.030729 1918:0.030729 1991:0.030729 2033:0.030729 2034:0.061459001 2035:0.030729 2036:0.030729 2037:0.030729 2038:0.061459001 2039:0.030729 2040:0.030729 2041:0.061459001 2042:0.030729 2043:0.030729 2044:0.030729 2045:0.061459001 2046:0.030729 2047:0.030729 2048:0.030729 2049:0.030729 2050:0.030729 2051:0.030729 2052:0.030729 2053:0.030729 2054:0.030729 2055:0.030729 2056:0.030729 2057:0.030729 2058:0.030729 2059:0.030729 2060:0.030729 2061:0.030729 2062:0.030729 2063:0.030729 2064:0.030729 2065:0.030729 2066:0.030729 2067:0.030729 2068:0.030729 2069:0.030729 2070:0.030729 2071:0.030729 2072:0.030729 2073:0.030729 2074:0.030729 2075:0.030729 2076:0.030729 2077:0.030729 2078:0.030729 2079:0.030729 2080:0.030729 2081:0.030729 2082:0.030729 2083:0.030729 2084:0.030729 2085:0.030729 2086:0.030729 2087:0.030729 2088:0.030729 2089:0.030729 2090:0.030729 2091:0.030729 2092:0.030729 2093:0.030729 2094:0.030729 2095:0.030729 2096:0.030729 2097:0.030729 2098:0.030729 2099:0.030729 2100:0.030729 2101:0.030729 2102:0.030729 #
5.0632403924057998 1:0.70548099 4:0.217071 5:0.054267999 11:0.16280299 15:0.293046 17:0.043414 20:0.010854 21:0.108535 24:0.021707 25:0.010854 31:0.010854 33:0.195364 35:0.010854 39:0.054267999 40:0.021707 43:0.097681999 48:0.010854 52:0.010854 53:0.010854 58:0.021707 59:0.010854 60:0.065121002 62:0.20621701 64:0.021707 66:0.043414 73:0.010854 75:0.010854 76:0.065121002 95:0.119389 96:0.021707 98:0.021707 99:0.054267999 101:0.010854 102:0.043414 103:0.021707 110:0.043414 111:0.021707 112:0.010854 115:0.108535 120:0.043414 128:0.021707 136:0.065121002 139:0.054267999 141:0.010854 148:0.021707 149:0.075975001 151:0.021707 152:0.010854 159:0.010854 167:0.18450999 170:0.021707 173:0.010854 177:0.010854 178:0.010854 180:0.032561 182:0.010854 193:0.010854 194:0.021707 196:0.010854 197:0.032561 200:0.010854 203:0.010854 211:0.043414 212:0.043414 221:0.032561 227:0.032561 231:0.010854 235:0.010854 236:0.010854 238:0.010854 239:0.010854 243:0.054267999 244:0.032561 246:0.010854 270:0.010854 275:0.010854 281:0.021707 285:0.010854 294:0.010854 301:0.119389 306:0.010854 314:0.010854 319:0.021707 321:0.021707 331:0.010854 332:0.032561 337:0.086828001 338:0.010854 339:0.010854 340:0.021707 347:0.010854 349:0.032561 354:0.010854 359:0.010854 361:0.021707 367:0.010854 377:0.010854 382:0.010854 392:0.021707 394:0.021707 396:0.010854 405:0.065121002 421:0.010854 423:0.010854 433:0.010854 450:0.010854 457:0.010854 473:0.021707 487:0.010854 489:0.010854 492:0.010854 502:0.010854 521:0.021707 536:0.010854 543:0.010854 548:0.010854 557:0.032561 582:0.021707 585:0.010854 605:0.010854 617:0.010854 619:0.032561 621:0.032561 627:0.010854 634:0.043414 637:0.010854 638:0.010854 639:0.010854 640:0.021707 641:0.086828001 642:0.086828001 643:0.010854 644:0.021707 645:0.021707 646:0.010854 647:0.010854 648:0.010854 649:0.010854 650:0.010854 651:0.010854 652:0.010854 653:0.010854 654:0.010854 655:0.010854 656:0.010854 657:0.021707 658:0.010854 659:0.021707 660:0.043414 661:0.010854 662:0.010854 663:0.010854 664:0.010854 665:0.032561 666:0.010854 667:0.010854 668:0.021707 669:0.010854 670:0.032561 671:0.032561 672:0.032561 673:0.021707 674:0.032561 675:0.010854 676:0.010854 677:0.010854 678:0.021707 679:0.010854 680:0.032561 681:0.010854 682:0.010854 683:0.021707 684:0.032561 685:0.010854 686:0.010854 687:0.010854 688:0.010854 689:0.010854 690:0.010854 691:0.054267999 692:0.010854 693:0.010854 694:0.010854 695:0.010854 696:0.021707 697:0.010854 698:0.021707 699:0.010854 700:0.010854 701:0.010854 702:0.010854 703:0.010854 704:0.010854 705:0.010854 706:0.032561 707:0.010854 708:0.010854 709:0.010854 710:0.010854 711:0.010854 712:0.010854 713:0.010854 714:0.021707 715:0.010854 716:0.010854 717:0.010854 718:0.021707 719:0.010854 720:0.010854 721:0.010854 722:0.010854 723:0.021707 724:0.010854 725:0.021707 726:0.010854 727:0.021707 728:0.010854 729:0.010854 730:0.010854 731:0.010854 732:0.010854 733:0.032561 734:0.010854 735:0.021707 736:0.043414 737:0.021707 738:0.010854 739:0.021707 740:0.010854 741:0.010854 742:0.010854 743:0.010854 744:0.010854 745:0.043414 746:0.032561 747:0.010854 748:0.010854 749:0.010854 750:0.010854 751:0.010854 752:0.010854 753:0.010854 754:0.021707 755:0.010854 756:0.010854 757:0.010854 758:0.010854 759:0.010854 760:0.010854 761:0.010854 762:0.021707 763:0.010854 764:0.054267999 765:0.021707 766:0.010854 767:0.010854 768:0.010854 769:0.010854 770:0.010854 771:0.010854 772:0.010854 773:0.010854 774:0.010854 775:0.010854 776:0.010854 777:0.010854 778:0.010854 779:0.010854 780:0.010854 781:0.010854 782:0.010854 783:0.021707 784:0.010854 785:0.021707 786:0.010854 787:0.010854 788:0.010854 789:0.010854 790:0.010854 791:0.010854 792:0.010854 793:0.010854 794:0.021707 795:0.010854 796:0.010854 797:0.010854 798:0.010854 799:0.010854 800:0.010854 801:0.010854 802:0.010854 803:0.010854 804:0.010854 805:0.010854 806:0.010854 807:0.010854 808:0.021707 809:0.010854 810:0.021707 811:0.010854 812:0.010854 813:0.010854 814:0.010854 815:0.010854 816:0.021707 817:0.010854 818:0.010854 819:0.010854 820:0.010854 821:0.010854 822:0.010854 823:0.010854 824:0.010854 825:0.010854 826:0.010854 827:0.010854 828:0.010854 829:0.010854 830:0.010854 831:0.021707 832:0.010854 833:0.010854 834:0.010854 835:0.010854 836:0.010854 837:0.010854 838:0.010854 839:0.010854 840:0.010854 841:0.010854 842:0.010854 843:0.010854 844:0.010854 845:0.010854 846:0.021707 847:0.010854 848:0.021707 849:0.021707 850:0.010854 851:0.010854 852:0.010854 853:0.010854 854:0.010854 855:0.010854 856:0.010854 857:0.010854 858:0.010854 859:0.010854 860:0.010854 861:0.010854 862:0.010854 863:0.010854 864:0.010854 865:0.010854 866:0.010854 867:0.010854 868:0.010854 869:0.010854 870:0.010854 871:0.010854 872:0.010854 873:0.010854 874:0.010854 875:0.010854 876:0.010854 877:0.010854 878:0.010854 879:0.010854 880:0.010854 881:0.010854 882:0.010854 883:0.010854 884:0.010854 885:0.010854 886:0.010854 887:0.010854 888:0.010854 889:0.010854 890:0.010854 891:0.010854 892:0.010854 893:0.010854 894:0.010854 895:0.010854 896:0.010854 897:0.010854 898:0.010854 899:0.010854 900:0.010854 901:0.010854 #
8.9497017785921003 1:0.52576298 4:0.273397 5:0.021031 11:0.25236601 15:0.25236601 17:0.231336 20:0.021031 21:0.042061001 25:0.063092001 33:0.25236601 43:0.021031 44:0.042061001 46:0.021031 60:0.084122002 62:0.273397 63:0.021031 64:0.042061001 66:0.042061001 73:0.021031 76:0.063092001 95:0.042061001 96:0.021031 98:0.084122002 102:0.063092001 103:0.021031 110:0.021031 111:0.021031 114:0.042061001 115:0.084122002 120:0.021031 128:0.021031 136:0.063092001 148:0.021031 149:0.147214 151:0.021031 152:0.021031 167:0.084122002 172:0.021031 176:0.021031 177:0.126183 182:0.021031 193:0.042061001 194:0.063092001 196:0.042061001 197:0.063092001 199:0.126183 203:0.021031 205:0.021031 211:0.021031 221:0.021031 229:0.021031 231:0.042061001 236:0.042061001 238:0.021031 243:0.063092001 244:0.042061001 254:0.021031 290:0.063092001 292:0.021031 294:0.021031 296:0.021031 301:0.063092001 306:0.021031 311:0.021031 319:0.021031 320:0.063092001 321:0.063092001 331:0.021031 332:0.042061001 334:0.021031 339:0.021031 349:0.021031 354:0.084122002 358:0.021031 360:0.021031 367:0.021031 368:0.021031 392:0.042061001 394:0.021031 405:0.042061001 423:0.021031 435:0.021031 489:0.042061001 492:0.021031 493:0.021031 544:0.021031 548:0.021031 562:0.021031 565:0.021031 570:0.021031 580:0.021031 582:0.063092001 605:0.021031 625:0.042061001 631:0.021031 644:0.042061001 645:0.021031 648:0.021031 681:0.021031 685:0.042061001 693:0.021031 694:0.021031 699:0.021031 719:0.021031 754:0.042061001 761:0.021031 780:0.042061001 806:0.084122002 818:0.021031 819:0.084122002 826:0.021031 849:0.021031 852:0.021031 858:0.021031 873:0.021031 891:0.021031 902:0.063092001 903:0.021031 904:0.021031 905:0.042061001 906:0.042061001 907:0.021031 908:0.063092001 909:0.021031 910:0.021031 911:0.021031 912:0.021031 913:0.021031 914:0.021031 915:0.084122002 916:0.021031 917:0.021031 918:0.021031 919:0.084122002 920:0.063092001 921:0.042061001 922:0.042061001 923:0.042061001 924:0.063092001 925:0.021031 926:0.021031 927:0.021031 928:0.021031 929:0.063092001 930:0.021031 931:0.021031 932:0.021031 933:0.042061001 934:0.021031 935:0.021031 936:0.021031 937:0.021031 938:0.063092001 939:0.021031 940:0.021031 941:0.084122002 942:0.042061001 943:0.021031 944:0.021031 945:0.021031 946:0.021031 947:0.021031 948:0.021031 949:0.021031 950:0.021031 951:0.021031 952:0.021031 953:0.021031 954:0.021031 955:0.042061001 956:0.021031 957:0.021031 958:0.021031 959:0.042061001 960:0.021031 961:0.021031 962:0.021031 963:0.021031 964:0.021031 965:0.021031 966:0.021031 967:0.021031 968:0.021031 969:0.021031 970:0.021031 971:0.021031 972:0.021031 973:0.021031 974:0.021031 975:0.021031 976:0.021031 977:0.021031 978:0.021031 979:0.021031 980:0.021031 981:0.021031 982:0.021031 983:0.042061001 984:0.021031 985:0.021031 986:0.021031 987:0.021031 988:0.021031 989:0.021031 990:0.021031 991:0.042061001 992:0.021031 993:0.021031 994:0.021031 995:0.021031 996:0.021031 997:0.021031 998:0.021031 999:0.021031 1000:0.021031 1001:0.021031 1002:0.021031 1003:0.021031 1004:0.021031 1005:0.021031 1006:0.021031 1007:0.021031 1008:0.042061001 1009:0.021031 1010:0.021031 1011:0.021031 1012:0.021031 1013:0.021031 1014:0.042061001 1015:0.021031 1016:0.021031 1017:0.021031 1018:0.021031 1019:0.021031 1020:0.021031 1021:0.021031 1022:0.021031 1023:0.021031 1024:0.021031 1025:0.021031 1026:0.021031 #
5.3749711575858763 1:0.511379 4:0.33436301 5:0.019668 11:0.35403201 15:0.15734699 17:0.137679 22:0.039337002 24:0.019668 27:0.019668 33:0.216353 39:0.019668 40:0.019668 43:0.118011 44:0.059005 60:0.078674003 62:0.236021 64:0.019668 66:0.019668 73:0.019668 76:0.118011 78:0.078674003 95:0.078674003 97:0.019668 98:0.059005 99:0.019668 101:0.019668 102:0.15734699 103:0.019668 106:0.019668 107:0.019668 110:0.039337002 111:0.059005 112:0.019668 114:0.078674003 115:0.098342001 138:0.039337002 139:0.039337002 146:0.019668 148:0.078674003 149:0.078674003 152:0.019668 156:0.019668 157:0.019668 161:0.019668 167:0.137679 172:0.039337002 173:0.059005 175:0.019668 176:0.039337002 177:0.078674003 194:0.039337002 200:0.019668 202:0.019668 205:0.019668 212:0.019668 221:0.019668 227:0.019668 243:0.098342001 244:0.019668 246:0.019668 265:0.039337002 270:0.019668 281:0.039337002 294:0.078674003 299:0.019668 301:0.078674003 332:0.019668 337:0.019668 338:0.019668 339:0.019668 349:0.019668 350:0.019668 354:0.118011 361:0.019668 368:0.039337002 374:0.019668 381:0.019668 384:0.019668 394:0.019668 405:0.039337002 411:0.019668 421:0.019668 423:0.039337002 449:0.019668 475:0.019668 492:0.019668 493:0.019668 497:0.019668 507:0.019668 516:0.039337002 521:0.019668 525:0.019668 532:0.019668 543:0.019668 548:0.078674003 556:0.019668 557:0.039337002 574:0.019668 582:0.039337002 611:0.019668 619:0.019668 627:0.019668 635:0.039337002 659:0.019668 684:0.019668 702:0.039337002 742:0.019668 753:0.019668 754:0.039337002 755:0.019668 762:0.019668 769:0.019668 770:0.019668 784:0.039337002 785:0.019668 786:0.039337002 787:0.019668 820:0.019668 826:0.019668 849:0.019668 867:0.019668 873:0.019668 878:0.019668 891:0.118011 908:0.019668 917:0.019668 935:0.019668 955:0.019668 965:0.019668 1003:0.019668 1008:0.059005 1027:0.039337002 1028:0.019668 1029:0.019668 1030:0.078674003 1031:0.019668 1032:0.039337002 1033:0.039337002 1034:0.019668 1035:0.019668 1036:0.019668 1037:0.019668 1038:0.059005 1039:0.019668 1040:0.019668 1041:0.019668 1042:0.019668 1043:0.078674003 1044:0.019668 1045:0.019668 1046:0.019668 1047:0.019668 1048:0.019668 1049:0.019668 1050:0.019668 1051:0.098342001 1052:0.019668 1053:0.019668 1054:0.039337002 1055:0.059005 1056:0.039337002 1057:0.039337002 1058:0.019668 1059:0.019668 1060:0.019668 1061:0.019668 1062:0.019668 1063:0.019668 1064:0.019668 1065:0.019668 1066:0.059005 1067:0.019668 1068:0.019668 1069:0.019668 1070:0.019668 1071:0.019668 1072:0.059005 1073:0.039337002 1074:0.039337002 1075:0.039337002 1076:0.019668 1077:0.019668 1078:0.019668 1079:0.019668 1080:0.019668 1081:0.019668 1082:0.019668 1083:0.039337002 1084:0.019668 1085:0.019668 1086:0.019668 1087:0.039337002 1088:0.019668 1089:0.019668 1090:0.019668 1091:0.019668 1092:0.019668 1093:0.019668 1094:0.019668 1095:0.059005 1096:0.019668 1097:0.019668 1098:0.019668 1099:0.019668 1100:0.019668 1101:0.019668 1102:0.019668 1103:0.019668 1104:0.019668 1105:0.019668 1106:0.039337002 1107:0.019668 1108:0.019668 1109:0.019668 1110:0.019668 1111:0.019668 1112:0.019668 1113:0.019668 1114:0.019668 1115:0.019668 1116:0.019668 1117:0.019668 1118:0.019668 1119:0.019668 1120:0.019668 1121:0.019668 1122:0.019668 1123:0.019668 1124:0.019668 1125:0.019668 1126:0.019668 1127:0.019668 1128:0.019668 1129:0.019668 1130:0.019668 1131:0.019668 1132:0.019668 1133:0.019668 1134:0.019668 1135:0.019668 1136:0.019668 1137:0.019668 1138:0.019668 1139:0.019668 1140:0.019668 1141:0.019668 #
-6.0360052397452657 1:0.63777798 4:0.25175399 5:0.083917998 11:0.234971 15:0.134269 17:0.167836 20:0.016783999 21:0.050351001 24:0.016783999 25:0.016783999 33:0.167836 39:0.033567 40:0.067134999 43:0.067134999 44:0.050351001 46:0.033567 53:0.016783999 60:0.050351001 62:0.28532201 64:0.016783999 66:0.033567 73:0.016783999 76:0.151053 78:0.016783999 95:0.050351001 96:0.016783999 98:0.25175399 102:0.067134999 105:0.016783999 106:0.033567 113:0.016783999 114:0.016783999 115:0.151053 116:0.050351001 120:0.033567 123:0.033567 128:0.016783999 130:0.016783999 149:0.067134999 151:0.033567 152:0.016783999 158:0.016783999 167:0.050351001 170:0.033567 173:0.050351001 176:0.033567 177:0.067134999 180:0.016783999 194:0.067134999 197:0.016783999 208:0.016783999 209:0.016783999 218:0.016783999 221:0.016783999 227:0.083917998 231:0.016783999 236:0.033567 238:0.033567 243:0.016783999 285:0.016783999 301:0.016783999 319:0.033567 332:0.016783999 349:0.016783999 354:0.033567 361:0.033567 367:0.016783999 369:0.016783999 384:0.016783999 392:0.016783999 394:0.067134999 405:0.033567 421:0.016783999 426:0.016783999 439:0.016783999 445:0.016783999 462:0.016783999 492:0.016783999 493:0.016783999 495:0.016783999 499:0.016783999 525:0.016783999 543:0.016783999 548:0.033567 555:0.016783999 559:0.016783999 579:0.033567 580:0.016783999 647:0.067134999 653:0.016783999 659:0.016783999 702:0.033567 725:0.016783999 727:0.016783999 728:0.016783999 746:0.016783999 747:0.016783999 753:0.016783999 755:0.016783999 760:0.016783999 818:0.016783999 826:0.033567 848:0.033567 862:0.016783999 873:0.016783999 878:0.033567 891:0.050351001 896:0.016783999 903:0.016783999 922:0.016783999 952:0.016783999 962:0.016783999 1008:0.033567 1026:0.016783999 1041:0.016783999 1042:0.033567 1044:0.016783999 1049:0.016783999 1067:0.016783999 1086:0.033567 1089:0.016783999 1095:0.016783999 1102:0.016783999 1118:0.016783999 1119:0.016783999 1134:0.016783999 1180:0.016783999 1302:0.016783999 1328:0.016783999 1402:0.016783999 1409:0.016783999 1445:0.016783999 1453:0.016783999 1459:0.016783999 1516:0.016783999 1539:0.016783999 1584:0.016783999 1677:0.016783999 1678:0.016783999 1688:0.016783999 1706:0.016783999 1727:0.016783999 1775:0.016783999 1821:0.016783999 1855:0.016783999 1873:0.016783999 1908:0.016783999 1918:0.016783999 1935:0.016783999 1937:0.016783999 1948:0.033567 1951:0.016783999 1966:0.016783999 1986:0.016783999 1995:0.016783999 2031:0.016783999 2056:0.016783999 2060:0.016783999 2170:0.033567 2173:0.016783999 2176:0.016783999 2187:0.016783999 2279:0.016783999 2329:0.016783999 2332:0.016783999 2374:0.033567 2387:0.016783999 2401:0.016783999 2428:0.016783999 2447:0.033567 2462:0.016783999 2558:0.016783999 2583:0.016783999 2654:0.016783999 2655:0.016783999 2686:0.016783999 2718:0.016783999 2729:0.016783999 2749:0.016783999 2758:0.016783999 2797:0.016783999 2846:0.033567 2856:0.016783999 2902:0.016783999 2926:0.033567 2943:0.016783999 3118:0.016783999 3119:0.016783999 3187:0.016783999 3207:0.016783999 3254:0.016783999 3333:0.016783999 3397:0.016783999 3404:0.016783999 3562:0.016783999 3764:0.033567 3776:0.016783999 3881:0.016783999 3986:0.016783999 4046:0.016783999 4067:0.016783999 4106:0.016783999 4126:0.033567 4132:0.016783999 4273:0.016783999 4315:0.016783999 4319:0.033567 4320:0.016783999 4334:0.016783999 4372:0.016783999 4545:0.016783999 4565:0.016783999 4591:0.083917998 4657:0.016783999 4661:0.016783999 4669:0.016783999 4851:0.016783999 4871:0.016783999 5037:0.016783999 5187:0.016783999 5207:0.016783999 5218:0.016783999 5299:0.016783999 5323:0.016783999 5419:0.016783999 5439:0.016783999 5532:0.016783999 5655:0.016783999 5688:0.016783999 5792:0.016783999 5933:0.016783999 6193:0.016783999 6285:0.033567 6323:0.050351001 6325:0.083917998 6402:0.016783999 6619:0.033567 6671:0.016783999 6847:0.016783999 6925:0.016783999 6995:0.016783999 7334:0.016783999 7529:0.016783999 7735:0.016783999 7773:0.016783999 7878:0.016783999 8245:0.016783999 8290:0.016783999 8670:0.016783999 8671:0.016783999 8674:0.016783999 9203:0.016783999 9231:0.016783999 9418:0.016783999 9664:0.016783999 10235:0.016783999 10346:0.016783999 10374:0.016783999 10585:0.016783999 10598:0.016783999 10608:0.016783999 10626:0.016783999 10642:0.016783999 10999:0.016783999 11009:0.016783999 11108:0.016783999 11196:0.033567 11506:0.016783999 11507:0.033567 11554:0.016783999 11555:0.016783999 11706:0.016783999 11746:0.016783999 11785:0.016783999 12424:0.016783999 12905:0.016783999 13001:0.033567 13007:0.016783999 13290:0.016783999 13471:0.016783999 13516:0.016783999 13715:0.033567 13716:0.033567 13726:0.016783999 13731:0.016783999 13732:0.100702 13733:0.016783999 14909:0.016783999 15134:0.016783999 16000:0.016783999 16069:0.016783999 16613:0.016783999 17134:0.016783999 18147:0.016783999 18262:0.016783999 20160:0.033567 20548:0.016783999 21273:0.016783999 21988:0.016783999 23867:0.016783999 23868:0.016783999 23869:0.016783999 23870:0.016783999 23871:0.016783999 23872:0.016783999 23873:0.016783999 23874:0.016783999 23875:0.016783999 23876:0.016783999 #
-1.5172649911672929 1:0.565404 4:0.41661301 5:0.029758001 11:0.14879 15:0.357097 17:0.089273997 19:0.014879 21:0.044636998 25:0.014879 29:0.014879 33:0.25294399 39:0.014879 40:0.014879 43:0.044636998 44:0.059516001 46:0.014879 60:0.014879 62:0.16366901 64:0.014879 66:0.089273997 73:0.014879 76:0.044636998 77:0.014879 90:0.014879 95:0.059516001 98:0.014879 102:0.074395001 103:0.044636998 107:0.014879 108:0.029758001 115:0.14879 120:0.044636998 128:0.014879 136:0.014879 140:0.014879 141:0.029758001 144:0.014879 148:0.029758001 149:0.029758001 167:0.044636998 169:0.014879 170:0.014879 173:0.044636998 175:0.014879 177:0.044636998 178:0.029758001 180:0.014879 194:0.044636998 197:0.014879 199:0.044636998 208:0.014879 209:0.014879 212:0.029758001 215:0.029758001 221:0.029758001 222:0.014879 227:0.089273997 231:0.029758001 238:0.119032 243:0.059516001 281:0.014879 285:0.044636998 286:0.014879 290:0.014879 294:0.014879 301:0.044636998 306:0.014879 319:0.044636998 320:0.014879 321:0.044636998 325:0.014879 331:0.059516001 334:0.014879 338:0.029758001 340:0.029758001 349:0.044636998 354:0.029758001 357:0.014879 358:0.014879 361:0.029758001 369:0.014879 392:0.029758001 394:0.074395001 405:0.044636998 406:0.014879 409:0.014879 423:0.014879 433:0.014879 435:0.014879 442:0.014879 449:0.014879 488:0.029758001 493:0.029758001 494:0.014879 507:0.014879 516:0.014879 542:0.014879 548:0.059516001 557:0.014879 559:0.029758001 574:0.059516001 575:0.014879 582:0.014879 614:0.014879 617:0.014879 634:0.014879 635:0.014879 638:0.059516001 653:0.074395001 664:0.014879 683:0.029758001 684:0.029758001 685:0.014879 705:0.044636998 737:0.014879 745:0.014879 755:0.014879 760:0.029758001 764:0.014879 769:0.029758001 785:0.044636998 786:0.014879 787:0.014879 793:0.014879 806:0.044636998 808:0.014879 813:0.014879 826:0.044636998 833:0.029758001 849:0.044636998 853:0.014879 855:0.029758001 858:0.014879 888:0.014879 891:0.044636998 917:0.059516001 932:0.029758001 955:0.014879 965:0.014879 969:0.014879 986:0.014879 1011:0.059516001 1026:0.014879 1033:0.014879 1042:0.014879 1067:0.014879 1089:0.014879 1181:0.014879 1208:0.014879 1257:0.044636998 1302:0.014879 1307:0.014879 1392:0.014879 1393:0.014879 1398:0.014879 1399:0.014879 1409:0.014879 1459:0.014879 1468:0.014879 1489:0.014879 1495:0.014879 1502:0.029758001 1519:0.014879 1523:0.014879 1558:0.029758001 1565:0.014879 1661:0.014879 1688:0.029758001 1711:0.014879 1781:0.014879 1806:0.014879 1847:0.014879 1919:0.014879 2018:0.014879 2019:0.014879 2044:0.014879 2063:0.014879 2117:0.014879 2123:0.014879 2128:0.014879 2208:0.014879 2209:0.014879 2237:0.014879 2313:0.014879 2332:0.014879 2357:0.014879 2394:0.029758001 2489:0.014879 2499:0.014879 2517:0.014879 2526:0.014879 2568:0.014879 2624:0.014879 2648:0.014879 2739:0.014879 2748:0.029758001 2996:0.059516001 3136:0.014879 3148:0.014879 3185:0.014879 3266:0.014879 3373:0.074395001 3396:0.014879 3404:0.014879 3439:0.014879 3614:0.014879 3617:0.029758001 3619:0.014879 3630:0.014879 3631:0.014879 3704:0.014879 3764:0.014879 3825:0.014879 3881:0.059516001 4008:0.014879 4077:0.029758001 4201:0.014879 4327:0.014879 4347:0.014879 4367:0.029758001 4675:0.014879 4721:0.014879 4785:0.014879 5009:0.014879 5111:0.014879 5248:0.014879 5349:0.014879 5411:0.014879 5550:0.029758001 5749:0.014879 5801:0.029758001 5835:0.014879 5908:0.029758001 5963:0.014879 5975:0.014879 6122:0.014879 6187:0.014879 6322:0.014879 6385:0.014879 6623:0.074395001 6634:0.014879 6760:0.029758001 6799:0.014879 6925:0.029758001 7117:0.014879 7288:0.044636998 7298:0.014879 7301:0.044636998 7390:0.014879 7894:0.014879 7972:0.074395001 8117:0.014879 8210:0.014879 8721:0.014879 9379:0.014879 9447:0.014879 9544:0.014879 9691:0.014879 9781:0.014879 10026:0.014879 10027:0.014879 10043:0.014879 10234:0.014879 10346:0.014879 10840:0.014879 11188:0.014879 11279:0.014879 11776:0.014879 11842:0.014879 11880:0.014879 13340:0.014879 15260:0.014879 15305:0.014879 15306:0.029758001 15970:0.029758001 16925:0.014879 16980:0.029758001 17426:0.014879 18382:0.014879 18931:0.014879 19042:0.029758001 19350:0.014879 19685:0.014879 19879:0.014879 20859:0.029758001 21383:0.014879 21387:0.014879 22850:0.014879 23568:0.029758001 25252:0.014879 26814:0.014879 26815:0.014879 26816:0.014879 26817:0.014879 26818:0.014879 26819:0.014879 26820:0.014879 26821:0.014879 26822:0.014879 26823:0.014879 26824:0.014879 #
-17.11355445789102 1:0.62200803 4:0.248803 5:0.013822 11:0.304093 15:0.234981 17:0.110579 19:0.041467 20:0.055289999 21:0.082934 24:0.027644999 25:0.013822 27:0.013822 33:0.29027 40:0.013822 43:0.013822 44:0.013822 58:0.013822 60:0.013822 62:0.248803 66:0.013822 73:0.027644999 76:0.013822 89:0.041467 95:0.027644999 97:0.013822 98:0.027644999 102:0.055289999 103:0.027644999 105:0.013822 106:0.013822 107:0.041467 110:0.041467 111:0.013822 115:0.13822401 120:0.027644999 122:0.013822 127:0.013822 128:0.013822 136:0.013822 139:0.027644999 148:0.082934 149:0.110579 151:0.013822 161:0.013822 167:0.124402 170:0.041467 172:0.013822 173:0.013822 177:0.027644999 179:0.013822 181:0.013822 188:0.013822 193:0.013822 197:0.041467 199:0.027644999 200:0.027644999 201:0.013822 202:0.027644999 203:0.013822 212:0.013822 221:0.013822 227:0.027644999 231:0.013822 234:0.013822 238:0.041467 243:0.082934 265:0.013822 278:0.013822 279:0.013822 281:0.041467 283:0.013822 285:0.069112003 301:0.055289999 321:0.013822 332:0.069112003 336:0.013822 337:0.027644999 347:0.041467 351:0.013822 354:0.055289999 359:0.013822 362:0.082934 367:0.013822 374:0.013822 384:0.041467 392:0.013822 394:0.013822 396:0.013822 405:0.041467 406:0.013822 439:0.013822 460:0.013822 469:0.013822 492:0.013822 497:0.013822 516:0.013822 533:0.013822 536:0.013822 543:0.027644999 548:0.041467 550:0.013822 574:0.013822 577:0.013822 582:0.027644999 588:0.013822 595:0.027644999 611:0.013822 618:0.013822 619:0.013822 627:0.013822 629:0.013822 638:0.013822 641:0.013822 673:0.013822 685:0.041467 696:0.013822 698:0.027644999 705:0.013822 727:0.027644999 730:0.013822 737:0.013822 742:0.013822 748:0.027644999 751:0.013822 753:0.013822 754:0.027644999 767:0.013822 777:0.013822 785:0.027644999 806:0.041467 813:0.013822 824:0.013822 826:0.069112003 832:0.013822 871:0.013822 873:0.027644999 886:0.013822 896:0.013822 965:0.013822 972:0.013822 990:0.069112003 1003:0.013822 1026:0.013822 1032:0.013822 1042:0.013822 1044:0.013822 1064:0.013822 1066:0.027644999 1133:0.013822 1152:0.013822 1181:0.027644999 1185:0.013822 1186:0.013822 1196:0.055289999 1219:0.013822 1279:0.013822 1324:0.013822 1391:0.013822 1408:0.013822 1453:0.041467 1493:0.013822 1604:0.013822 1640:0.013822 1696:0.013822 1774:0.013822 1825:0.013822 1843:0.013822 1855:0.013822 1885:0.096757002 1907:0.013822 1918:0.027644999 1978:0.013822 1985:0.013822 2014:0.027644999 2028:0.013822 2030:0.013822 2032:0.013822 2044:0.013822 2117:0.013822 2146:0.013822 2150:0.013822 2204:0.013822 2208:0.013822 2209:0.013822 2313:0.027644999 2333:0.013822 2398:0.013822 2406:0.013822 2412:0.013822 2492:0.013822 2520:0.013822 2523:0.013822 2574:0.027644999 2595:0.013822 2604:0.013822 2644:0.013822 2656:0.013822 2658:0.013822 2660:0.013822 2730:0.013822 2783:0.013822 2806:0.013822 2810:0.013822 2812:0.013822 2923:0.013822 2926:0.013822 2996:0.013822 3021:0.013822 3023:0.013822 3080:0.013822 3175:0.013822 3177:0.013822 3267:0.027644999 3308:0.027644999 3321:0.027644999 3386:0.013822 3387:0.027644999 3523:0.013822 3607:0.027644999 3647:0.013822 3672:0.013822 3741:0.013822 3800:0.013822 4088:0.013822 4162:0.013822 4192:0.013822 4203:0.013822 4503:0.041467 4576:0.013822 4643:0.013822 4830:0.013822 4881:0.013822 4909:0.027644999 5015:0.013822 5062:0.013822 5068:0.013822 5070:0.013822 5207:0.013822 5252:0.013822 5364:0.013822 5560:0.041467 5570:0.013822 5646:0.013822 5654:0.013822 5729:0.013822 5915:0.013822 6003:0.013822 6011:0.013822 6153:0.013822 6179:0.013822 6471:0.013822 6553:0.013822 6559:0.013822 6836:0.041467 6861:0.055289999 6892:0.013822 6919:0.013822 7069:0.013822 7269:0.013822 7425:0.013822 7475:0.013822 7506:0.013822 7551:0.013822 7627:0.013822 7660:0.013822 7750:0.013822 8252:0.013822 8475:0.013822 8568:0.027644999 8627:0.013822 8796:0.013822 9272:0.013822 9467:0.013822 9576:0.013822 9607:0.013822 9638:0.013822 9649:0.013822 10023:0.013822 10104:0.013822 10174:0.013822 10237:0.013822 10246:0.013822 10608:0.013822 10667:0.013822 11095:0.013822 11288:0.041467 11337:0.013822 11474:0.069112003 11486:0.027644999 11937:0.013822 12172:0.013822 12207:0.013822 12269:0.013822 12551:0.013822 12634:0.013822 13021:0.013822 13226:0.013822 14872:0.013822 15162:0.069112003 15355:0.013822 15821:0.013822 16086:0.013822 16492:0.013822 17015:0.013822 17255:0.013822 17291:0.013822 17370:0.013822 18111:0.013822 18493:0.013822 18717:0.013822 18734:0.013822 19442:0.013822 19521:0.013822 20009:0.013822 20439:0.013822 21061:0.013822 21506:0.013822 21509:0.013822 22104:0.027644999 22105:0.013822 22106:0.013822 22107:0.041467 22108:0.013822 22109:0.013822 22110:0.013822 22111:0.013822 22112:0.027644999 22113:0.013822 22114:0.013822 22115:0.013822 22116:0.013822 22117:0.013822 22118:0.013822 22119:0.013822 22120:0.013822 22121:0.013822 22122:0.013822 22123:0.013822 22124:0.013822 22125:0.013822 22126:0.013822 22127:0.013822 22128:0.013822 22129:0.027644999 22130:0.013822 22131:0.013822 22132:0.013822 22133:0.013822 22134:0.013822 #
-6.3732698838861381 1:0.59768802 4:0.210949 5:0.035158001 11:0.140633 15:0.210949 17:0.175791 21:0.070316002 24:0.070316002 31:0.035158001 33:0.28126499 40:0.035158001 43:0.035158001 46:0.035158001 60:0.070316002 62:0.28126499 66:0.105474 73:0.035158001 76:0.035158001 95:0.140633 98:0.070316002 102:0.070316002 103:0.035158001 111:0.035158001 115:0.035158001 126:0.035158001 136:0.035158001 148:0.035158001 156:0.035158001 167:0.175791 173:0.035158001 194:0.035158001 197:0.070316002 210:0.035158001 211:0.035158001 221:0.035158001 227:0.035158001 231:0.035158001 238:0.105474 243:0.070316002 244:0.070316002 281:0.070316002 285:0.035158001 292:0.035158001 296:0.070316002 331:0.035158001 354:0.070316002 358:0.035158001 368:0.035158001 380:0.035158001 396:0.035158001 405:0.035158001 467:0.035158001 468:0.035158001 497:0.035158001 507:0.035158001 509:0.035158001 516:0.070316002 533:0.035158001 548:0.070316002 557:0.035158001 582:0.035158001 618:0.035158001 622:0.035158001 625:0.035158001 635:0.035158001 685:0.035158001 784:0.035158001 806:0.035158001 823:0.035158001 837:0.035158001 903:0.035158001 945:0.035158001 1022:0.035158001 1047:0.035158001 1182:0.035158001 1303:0.035158001 1341:0.035158001 1398:0.035158001 1412:0.035158001 1436:0.035158001 1454:0.035158001 1493:0.035158001 1502:0.035158001 1505:0.070316002 1536:0.035158001 1644:0.035158001 1655:0.035158001 1775:0.035158001 1886:0.035158001 2038:0.035158001 2059:0.035158001 2070:0.035158001 2115:0.035158001 2136:0.035158001 2378:0.035158001 2423:0.035158001 2449:0.035158001 2466:0.035158001 2564:0.035158001 2690:0.035158001 2806:0.035158001 2922:0.035158001 3310:0.035158001 3410:0.035158001 3484:0.035158001 3593:0.035158001 3666:0.035158001 3735:0.035158001 3928:0.035158001 4245:0.035158001 4959:0.035158001 5299:0.035158001 5349:0.035158001 5571:0.035158001 5933:0.035158001 6770:0.035158001 6878:0.070316002 7665:0.035158001 7735:0.035158001 7737:0.105474 7832:0.035158001 8288:0.035158001 8309:0.035158001 8315:0.140633 8670:0.035158001 8852:0.035158001 9126:0.035158001 9235:0.035158001 9634:0.035158001 10608:0.035158001 11123:0.035158001 11402:0.035158001 12188:0.070316002 12671:0.035158001 13356:0.035158001 13455:0.035158001 13482:0.035158001 14066:0.035158001 14433:0.035158001 16073:0.035158001 16567:0.035158001 17281:0.035158001 17330:0.035158001 17399:0.035158001 17722:0.035158001 21635:0.035158001 22351:0.035158001 22806:0.035158001 23839:0.035158001 24256:0.035158001 24325:0.035158001 24343:0.035158001 24344:0.035158001 24345:0.035158001 24346:0.035158001 24347:0.035158001 24348:0.035158001 24349:0.035158001 24350:0.035158001 24351:0.035158001 #
-10.799430315095236 1:0.56249702 4:0.232758 5:0.019396 11:0.135775 15:0.38792899 17:0.058189001 21:0.077586003 33:0.310343 40:0.058189001 43:0.019396 44:0.038793001 53:0.019396 60:0.135775 62:0.174568 65:0.019396 66:0.058189001 73:0.038793001 76:0.116379 80:0.019396 95:0.058189001 96:0.038793001 97:0.019396 98:0.077586003 102:0.019396 106:0.077586003 115:0.15517201 130:0.019396 136:0.116379 148:0.038793001 149:0.058189001 152:0.019396 158:0.019396 161:0.019396 167:0.135775 177:0.019396 180:0.019396 182:0.019396 192:0.019396 193:0.038793001 194:0.019396 197:0.019396 200:0.019396 207:0.019396 210:0.019396 227:0.096982002 236:0.019396 238:0.058189001 243:0.038793001 276:0.019396 281:0.038793001 294:0.019396 301:0.038793001 305:0.019396 319:0.019396 339:0.019396 345:0.019396 359:0.019396 377:0.019396 394:0.038793001 400:0.019396 405:0.019396 420:0.038793001 423:0.019396 439:0.038793001 445:0.058189001 516:0.019396 525:0.019396 532:0.019396 579:0.019396 592:0.019396 619:0.077586003 621:0.019396 625:0.096982002 657:0.019396 665:0.019396 673:0.038793001 714:0.019396 747:0.019396 748:0.019396 754:0.038793001 769:0.019396 770:0.019396 777:0.019396 787:0.058189001 818:0.019396 826:0.019396 833:0.019396 849:0.019396 858:0.019396 878:0.019396 916:0.019396 932:0.019396 955:0.019396 965:0.019396 986:0.019396 1003:0.019396 1008:0.019396 1011:0.019396 1044:0.038793001 1053:0.019396 1059:0.019396 1083:0.038793001 1102:0.038793001 1133:0.019396 1318:0.019396 1375:0.019396 1393:0.019396 1434:0.019396 1468:0.019396 1493:0.019396 1775:0.038793001 1924:0.019396 1935:0.019396 1938:0.019396 1995:0.019396 2059:0.019396 2082:0.019396 2130:0.019396 2153:0.019396 2205:0.019396 2207:0.019396 2466:0.038793001 2467:0.038793001 2553:0.019396 2595:0.019396 2596:0.019396 2774:0.038793001 2824:0.019396 3130:0.019396 3211:0.019396 3298:0.019396 3382:0.038793001 3414:0.019396 3499:0.019396 3516:0.019396 3578:0.019396 3881:0.019396 3884:0.019396 3890:0.019396 3954:0.019396 3982:0.019396 4035:0.019396 4177:0.038793001 4367:0.038793001 4373:0.019396 4375:0.019396 4455:0.038793001 4669:0.019396 4708:0.019396 4925:0.019396 5215:0.096982002 5306:0.019396 5316:0.019396 5541:0.019396 5951:0.019396 6066:0.019396 6195:0.058189001 6204:0.019396 6209:0.096982002 6226:0.019396 6227:0.038793001 6228:0.038793001 6230:0.038793001 6231:0.038793001 6243:0.038793001 6437:0.019396 6446:0.019396 6464:0.038793001 6829:0.019396 6989:0.019396 7011:0.019396 7034:0.019396 7213:0.019396 7287:0.019396 7344:0.058189001 7351:0.019396 7582:0.019396 7762:0.019396 7781:0.019396 7864:0.019396 8024:0.019396 8068:0.058189001 8170:0.019396 8274:0.038793001 8428:0.019396 8460:0.019396 8504:0.038793001 8680:0.019396 9032:0.019396 9077:0.019396 9097:0.019396 9375:0.019396 9391:0.019396 10643:0.019396 10940:0.019396 11391:0.019396 11398:0.038793001 12356:0.019396 12804:0.019396 13432:0.019396 13527:0.019396 13731:0.019396 14602:0.038793001 14816:0.019396 14840:0.019396 15217:0.019396 15403:0.019396 16682:0.019396 17299:0.019396 17833:0.019396 17937:0.019396 18001:0.058189001 18545:0.019396 18993:0.019396 19165:0.019396 20463:0.019396 21184:0.019396 23073:0.019396 23236:0.019396 23970:0.019396 25331:0.019396 25332:0.135775 25333:0.058189001 25334:0.019396 25335:0.038793001 25336:0.019396 25337:0.038793001 25338:0.038793001 25339:0.038793001 25340:0.019396 25341:0.038793001 25342:0.019396 25343:0.019396 25344:0.019396 25345:0.019396 25346:0.019396 25347:0.019396 25348:0.019396 25349:0.019396 #
12.769645554041164 1:0.463254 4:0.100707 5:0.040282998 11:0.241698 15:0.14099 17:0.181273 20:0.020141 24:0.020141 31:0.020141 33:0.100707 39:0.14099 40:0.040282998 43:0.16113199 44:0.040282998 59:0.020141 60:0.020141 61:0.020141 62:0.32226399 63:0.020141 64:0.020141 66:0.060424 73:0.020141 76:0.020141 78:0.020141 82:0.040282998 95:0.100707 96:0.040282998 98:0.32226399 103:0.040282998 105:0.020141 107:0.060424 113:0.020141 115:0.181273 119:0.020141 120:0.020141 139:0.020141 148:0.080565996 149:0.241698 152:0.020141 160:0.020141 167:0.16113199 169:0.060424 173:0.020141 175:0.020141 176:0.020141 177:0.040282998 178:0.020141 193:0.040282998 194:0.080565996 196:0.020141 199:0.040282998 202:0.020141 203:0.080565996 209:0.040282998 211:0.020141 212:0.020141 218:0.020141 221:0.020141 238:0.040282998 239:0.020141 241:0.020141 243:0.020141 245:0.020141 254:0.020141 257:0.020141 265:0.020141 275:0.020141 299:0.020141 301:0.120849 306:0.040282998 319:0.020141 321:0.040282998 323:0.020141 333:0.040282998 338:0.040282998 339:0.020141 349:0.020141 354:0.060424 374:0.020141 392:0.040282998 405:0.020141 406:0.020141 433:0.040282998 435:0.020141 462:0.040282998 468:0.020141 473:0.020141 491:0.020141 493:0.060424 507:0.040282998 516:0.020141 542:0.020141 543:0.020141 548:0.120849 553:0.020141 555:0.020141 557:0.060424 562:0.020141 570:0.020141 582:0.060424 587:0.020141 619:0.020141 640:0.040282998 683:0.020141 684:0.040282998 705:0.020141 719:0.020141 720:0.020141 753:0.020141 754:0.040282998 764:0.040282998 777:0.020141 785:0.060424 801:0.020141 806:0.020141 810:0.020141 818:0.020141 826:0.080565996 857:0.040282998 878:0.060424 883:0.020141 891:0.100707 906:0.020141 917:0.040282998 944:0.020141 973:0.020141 1004:0.020141 1010:0.020141 1014:0.020141 1024:0.020141 1032:0.020141 1033:0.040282998 1038:0.020141 1042:0.020141 1060:0.040282998 1066:0.020141 1095:0.020141 1133:0.020141 1181:0.020141 1265:0.020141 1307:0.020141 1328:0.040282998 1352:0.040282998 1386:0.040282998 1387:0.020141 1555:0.020141 1564:0.020141 1571:0.020141 1719:0.020141 1800:0.020141 1825:0.020141 1871:0.020141 1874:0.020141 1886:0.020141 1888:0.020141 1992:0.020141 2030:0.020141 2031:0.020141 2058:0.020141 2083:0.020141 2102:0.020141 2103:0.020141 2125:0.020141 2193:0.060424 2210:0.020141 2214:0.020141 2241:0.020141 2247:0.020141 2273:0.080565996 2278:0.020141 2312:0.020141 2313:0.020141 2326:0.020141 2329:0.020141 2373:0.020141 2429:0.020141 2437:0.181273 2590:0.020141 2630:0.020141 2732:0.020141 2764:0.020141 2824:0.020141 2834:0.020141 2957:0.020141 2963:0.020141 3049:0.020141 3154:0.020141 3155:0.020141 3183:0.020141 3214:0.020141 3308:0.020141 3387:0.020141 3404:0.020141 3462:0.020141 3776:0.020141 3884:0.020141 4198:0.020141 4287:0.020141 4415:0.020141 4661:0.040282998 4673:0.020141 4713:0.020141 4968:0.040282998 5037:0.020141 5265:0.020141 5526:0.020141 5627:0.020141 5796:0.020141 5983:0.020141 6014:0.020141 6165:0.020141 6639:0.020141 6651:0.020141 7236:0.020141 7307:0.020141 7326:0.020141 7404:0.020141 8273:0.020141 8344:0.020141 8984:0.040282998 9272:0.020141 9450:0.040282998 10376:0.020141 11474:0.020141 12824:0.020141 13307:0.020141 13813:0.020141 16111:0.020141 16158:0.020141 16177:0.020141 16716:0.020141 17879:0.020141 20662:0.020141 20663:0.080565996 20664:0.020141 20665:0.020141 20666:0.020141 20667:0.020141 20668:0.020141 20669:0.020141 20670:0.020141 #
3.6947471366725568 1:0.29160601 4:0.23328499 5:0.029161001 11:0.204124 15:0.116642 17:0.058320999 21:0.029161001 24:0.029161001 33:0.262445 39:0.087481998 43:0.087481998 44:0.029161001 46:0.029161001 60:0.145803 62:0.204124 63:0.029161001 73:0.029161001 76:0.145803 78:0.058320999 95:0.116642 96:0.058320999 98:0.262445 102:0.087481998 105:0.087481998 115:0.23328499 120:0.058320999 139:0.116642 146:0.029161001 148:0.058320999 149:0.23328499 151:0.029161001 161:0.029161001 167:0.058320999 173:0.029161001 177:0.087481998 180:0.029161001 193:0.029161001 196:0.058320999 202:0.029161001 203:0.116642 212:0.058320999 215:0.029161001 223:0.029161001 227:0.058320999 231:0.029161001 238:0.029161001 244:0.029161001 274:0.029161001 275:0.029161001 278:0.029161001 281:0.029161001 301:0.116642 305:0.029161001 314:0.029161001 319:0.058320999 321:0.145803 331:0.029161001 338:0.087481998 344:0.029161001 354:0.087481998 361:0.029161001 380:0.087481998 386:0.058320999 423:0.029161001 449:0.029161001 458:0.029161001 473:0.029161001 509:0.029161001 536:0.029161001 543:0.029161001 559:0.029161001 574:0.029161001 582:0.058320999 619:0.029161001 640:0.087481998 646:0.029161001 696:0.029161001 718:0.087481998 728:0.029161001 743:0.029161001 754:0.029161001 777:0.029161001 784:0.029161001 785:0.145803 797:0.029161001 801:0.029161001 808:0.029161001 810:0.029161001 820:0.029161001 826:0.029161001 858:0.058320999 869:0.029161001 873:0.087481998 878:0.029161001 886:0.029161001 891:0.174964 896:0.029161001 903:0.029161001 944:0.029161001 952:0.029161001 965:0.029161001 1026:0.058320999 1027:0.029161001 1067:0.029161001 1087:0.029161001 1197:0.029161001 1257:0.029161001 1307:0.029161001 1323:0.029161001 1381:0.029161001 1382:0.029161001 1467:0.029161001 1468:0.029161001 1605:0.029161001 1671:0.029161001 1869:0.029161001 1876:0.029161001 1970:0.029161001 1972:0.029161001 2221:0.029161001 2222:0.029161001 2277:0.029161001 2293:0.029161001 2313:0.058320999 2401:0.058320999 2429:0.029161001 2484:0.029161001 2519:0.029161001 2524:0.029161001 2596:0.029161001 2601:0.029161001 2619:0.029161001 2695:0.029161001 2772:0.029161001 2984:0.058320999 3174:0.029161001 3211:0.029161001 3246:0.029161001 3396:0.029161001 3535:0.029161001 3536:0.029161001 3825:0.029161001 4067:0.029161001 4122:0.029161001 4183:0.029161001 4238:0.029161001 4342:0.029161001 4343:0.029161001 4384:0.029161001 4385:0.029161001 4670:0.029161001 4688:0.029161001 4739:0.058320999 4778:0.029161001 4805:0.029161001 5029:0.029161001 5092:0.029161001 5331:0.029161001 5528:0.029161001 5760:0.029161001 5844:0.029161001 5848:0.029161001 6374:0.029161001 6469:0.058320999 6715:0.029161001 6886:0.029161001 7158:0.029161001 7212:0.029161001 7237:0.029161001 7291:0.029161001 7630:0.029161001 7689:0.029161001 7800:0.029161001 7900:0.029161001 8013:0.029161001 8245:0.029161001 8438:0.029161001 8756:0.058320999 9239:0.029161001 10096:0.029161001 10225:0.029161001 10401:0.029161001 10725:0.029161001 11201:0.029161001 11572:0.029161001 12044:0.029161001 12071:0.058320999 12772:0.029161001 13483:0.029161001 13975:0.029161001 14580:0.029161001 14914:0.029161001 15460:0.029161001 15504:0.029161001 15711:0.058320999 15725:0.058320999 15726:0.204124 15727:0.029161001 15728:0.087481998 15737:0.029161001 15756:0.029161001 17652:0.029161001 19180:0.029161001 19311:0.029161001 19312:0.029161001 19687:0.029161001 20916:0.029161001 20917:0.029161001 20918:0.029161001 20919:0.029161001 20920:0.029161001 20921:0.029161001 20922:0.029161001 #
7.9470230068735805 1:0.478365 4:0.21526401 5:0.023917999 11:0.191346 15:0.21526401 17:0.119591 20:0.023917999 24:0.023917999 33:0.095673002 39:0.095673002 53:0.023917999 62:0.28701901 66:0.047835998 73:0.023917999 78:0.023917999 89:0.023917999 92:0.023917999 95:0.023917999 98:0.31093699 99:0.119591 102:0.047835998 103:0.023917999 104:0.023917999 109:0.023917999 110:0.023917999 114:0.047835998 115:0.119591 116:0.047835998 120:0.167428 136:0.023917999 139:0.023917999 148:0.095673002 149:0.26310101 161:0.023917999 167:0.047835998 169:0.023917999 170:0.023917999 177:0.143509 178:0.023917999 193:0.023917999 194:0.143509 197:0.071754999 199:0.023917999 202:0.047835998 203:0.047835998 215:0.023917999 221:0.047835998 227:0.023917999 235:0.047835998 238:0.047835998 243:0.071754999 244:0.047835998 254:0.047835998 278:0.023917999 284:0.023917999 285:0.023917999 290:0.095673002 296:0.023917999 301:0.047835998 319:0.047835998 321:0.119591 349:0.047835998 350:0.023917999 351:0.023917999 354:0.047835998 405:0.023917999 426:0.023917999 439:0.047835998 493:0.023917999 498:0.119591 526:0.023917999 536:0.023917999 548:0.023917999 557:0.071754999 582:0.095673002 591:0.023917999 719:0.023917999 755:0.023917999 769:0.023917999 777:0.023917999 780:0.047835998 785:0.023917999 824:0.023917999 826:0.023917999 858:0.047835998 873:0.023917999 875:0.023917999 891:0.143509 932:0.023917999 958:0.023917999 959:0.023917999 1003:0.023917999 1008:0.023917999 1023:0.023917999 1027:0.023917999 1032:0.023917999 1033:0.023917999 1089:0.023917999 1102:0.023917999 1251:0.023917999 1307:0.023917999 1376:0.023917999 1472:0.071754999 1533:0.023917999 1562:0.023917999 1598:0.023917999 1605:0.023917999 1619:0.023917999 1757:0.023917999 1759:0.047835998 1781:0.023917999 1814:0.047835998 1888:0.023917999 1915:0.023917999 1962:0.023917999 1967:0.023917999 1972:0.023917999 2027:0.023917999 2030:0.047835998 2060:0.023917999 2072:0.023917999 2106:0.023917999 2112:0.023917999 2129:0.023917999 2214:0.047835998 2228:0.023917999 2273:0.023917999 2313:0.023917999 2419:0.047835998 2429:0.023917999 2509:0.047835998 2654:0.023917999 2813:0.023917999 2815:0.047835998 2859:0.047835998 2936:0.023917999 3017:0.023917999 3025:0.023917999 3364:0.023917999 3387:0.023917999 3712:0.023917999 3984:0.023917999 4283:0.023917999 4301:0.023917999 4406:0.047835998 4731:0.023917999 4811:0.023917999 5062:0.047835998 5291:0.023917999 5434:0.023917999 5592:0.023917999 5794:0.023917999 5836:0.023917999 5953:0.023917999 6590:0.095673002 6788:0.023917999 6827:0.023917999 6829:0.023917999 6847:0.023917999 6886:0.023917999 7150:0.023917999 7404:0.023917999 7969:0.023917999 7994:0.023917999 8031:0.023917999 8032:0.047835998 8117:0.023917999 8353:0.023917999 8436:0.023917999 9013:0.023917999 9126:0.023917999 9321:0.119591 10100:0.023917999 10142:0.023917999 10280:0.023917999 11196:0.023917999 11360:0.023917999 13695:0.023917999 13915:0.023917999 15665:0.023917999 18579:0.023917999 19372:0.023917999 19373:0.023917999 19374:0.023917999 19375:0.023917999 19376:0.023917999 #
14.266984344535125 1:0.46591601 4:0.29426301 5:0.073565997 11:0.147131 15:0.147131 17:0.049044002 19:0.024522001 24:0.073565997 25:0.049044002 33:0.073565997 39:0.098088004 43:0.024522001 60:0.049044002 62:0.36782801 63:0.024522001 66:0.147131 68:0.024522001 73:0.024522001 76:0.024522001 78:0.024522001 96:0.024522001 97:0.098088004 98:0.31878501 99:0.024522001 102:0.147131 104:0.024522001 105:0.024522001 106:0.098088004 107:0.024522001 110:0.098088004 111:0.049044002 114:0.024522001 115:0.171653 120:0.024522001 127:0.024522001 144:0.024522001 148:0.073565997 149:0.049044002 151:0.024522001 156:0.024522001 167:0.171653 177:0.122609 182:0.024522001 185:0.024522001 194:0.049044002 197:0.049044002 202:0.024522001 204:0.024522001 209:0.024522001 212:0.024522001 221:0.049044002 227:0.024522001 231:0.024522001 238:0.024522001 263:0.024522001 272:0.024522001 293:0.049044002 301:0.049044002 321:0.024522001 331:0.024522001 347:0.024522001 354:0.049044002 361:0.049044002 367:0.024522001 377:0.073565997 384:0.024522001 391:0.024522001 394:0.049044002 396:0.024522001 400:0.024522001 405:0.024522001 406:0.024522001 417:0.024522001 449:0.024522001 450:0.024522001 494:0.049044002 497:0.024522001 509:0.024522001 548:0.024522001 556:0.024522001 578:0.024522001 582:0.024522001 606:0.024522001 619:0.049044002 625:0.049044002 647:0.024522001 655:0.049044002 660:0.024522001 678:0.024522001 680:0.024522001 684:0.024522001 685:0.024522001 705:0.049044002 742:0.024522001 754:0.024522001 761:0.024522001 766:0.024522001 785:0.024522001 793:0.024522001 813:0.024522001 833:0.024522001 858:0.049044002 878:0.024522001 884:0.024522001 889:0.024522001 905:0.024522001 908:0.024522001 917:0.024522001 932:0.024522001 952:0.024522001 965:0.024522001 972:0.024522001 1014:0.024522001 1023:0.024522001 1026:0.024522001 1032:0.024522001 1033:0.024522001 1054:0.024522001 1083:0.024522001 1151:0.024522001 1152:0.024522001 1155:0.024522001 1219:0.024522001 1229:0.024522001 1244:0.024522001 1255:0.024522001 1262:0.024522001 1298:0.073565997 1307:0.024522001 1323:0.024522001 1364:0.024522001 1392:0.024522001 1440:0.098088004 1453:0.024522001 1459:0.024522001 1467:0.024522001 1472:0.024522001 1483:0.024522001 1502:0.024522001 1541:0.024522001 1555:0.024522001 1598:0.024522001 1609:0.024522001 1621:0.024522001 1643:0.024522001 1644:0.073565997 1673:0.024522001 1675:0.024522001 1746:0.024522001 1775:0.024522001 1806:0.024522001 1859:0.024522001 1871:0.024522001 1904:0.024522001 1920:0.024522001 1935:0.024522001 1979:0.024522001 2146:0.024522001 2193:0.073565997 2249:0.049044002 2313:0.024522001 2378:0.024522001 2391:0.024522001 2419:0.024522001 2429:0.024522001 2512:0.024522001 2519:0.024522001 2624:0.024522001 2708:0.024522001 2712:0.024522001 2727:0.049044002 2754:0.049044002 2850:0.049044002 2852:0.024522001 2858:0.024522001 2972:0.024522001 2986:0.024522001 3115:0.024522001 3302:0.098088004 3308:0.024522001 3352:0.024522001 3543:0.024522001 3619:0.024522001 3705:0.024522001 3710:0.024522001 3712:0.024522001 3820:0.024522001 3982:0.024522001 3991:0.024522001 4056:0.024522001 4296:0.024522001 4315:0.024522001 4376:0.024522001 4417:0.024522001 4713:0.024522001 4750:0.024522001 4955:0.024522001 5118:0.024522001 5256:0.024522001 5582:0.024522001 5778:0.024522001 5806:0.024522001 5958:0.049044002 5961:0.024522001 5973:0.024522001 6086:0.024522001 6428:0.024522001 6468:0.024522001 6563:0.024522001 7298:0.049044002 7314:0.024522001 7457:0.024522001 8003:0.024522001 8047:0.024522001 8273:0.024522001 8621:0.098088004 8648:0.073565997 8852:0.024522001 9857:0.024522001 10650:0.024522001 10774:0.024522001 11185:0.024522001 11341:0.024522001 11434:0.024522001 11819:0.024522001 11822:0.049044002 12375:0.024522001 12527:0.024522001 13027:0.024522001 15368:0.024522001 15566:0.024522001 17027:0.024522001 18261:0.024522001 19205:0.024522001 19319:0.024522001 20082:0.024522001 20083:0.049044002 20084:0.024522001 20085:0.049044002 20086:0.024522001 20087:0.024522001 20088:0.024522001 20089:0.024522001 20090:0.024522001 20091:0.024522001 20092:0.024522001 20093:0.024522001 #
7.4267806642587759 1:0.44703001 4:0.165567 5:0.04967 11:0.21523701 15:0.13245299 17:0.19868 20:0.016557001 21:0.066226996 24:0.04967 25:0.016557001 31:0.04967 33:0.099339999 39:0.14901 40:0.04967 43:0.066226996 44:0.033112999 46:0.082782999 52:0.016557001 60:0.066226996 62:0.14901 64:0.04967 66:0.13245299 73:0.066226996 76:0.099339999 78:0.033112999 82:0.016557001 95:0.033112999 98:0.33113301 99:0.033112999 102:0.033112999 103:0.066226996 104:0.016557001 106:0.099339999 109:0.016557001 111:0.016557001 115:0.099339999 120:0.04967 128:0.033112999 136:0.016557001 138:0.016557001 140:0.04967 144:0.016557001 146:0.016557001 147:0.016557001 148:0.099339999 149:0.14901 156:0.016557001 167:0.165567 169:0.016557001 170:0.033112999 172:0.033112999 173:0.033112999 176:0.016557001 177:0.082782999 178:0.066226996 180:0.016557001 185:0.016557001 193:0.099339999 194:0.016557001 196:0.066226996 197:0.016557001 199:0.016557001 203:0.066226996 204:0.016557001 205:0.016557001 211:0.016557001 212:0.016557001 218:0.016557001 223:0.016557001 227:0.016557001 231:0.016557001 238:0.19868 241:0.033112999 243:0.099339999 244:0.016557001 254:0.016557001 283:0.016557001 285:0.066226996 290:0.016557001 292:0.033112999 294:0.016557001 301:0.04967 305:0.033112999 306:0.016557001 319:0.016557001 321:0.066226996 337:0.033112999 340:0.016557001 354:0.016557001 358:0.016557001 361:0.066226996 363:0.016557001 368:0.082782999 372:0.016557001 392:0.016557001 394:0.066226996 405:0.033112999 406:0.016557001 411:0.016557001 421:0.016557001 423:0.016557001 439:0.04967 450:0.016557001 475:0.033112999 493:0.082782999 502:0.016557001 509:0.04967 516:0.016557001 548:0.099339999 557:0.066226996 563:0.016557001 574:0.016557001 576:0.033112999 577:0.016557001 582:0.04967 595:0.016557001 601:0.016557001 603:0.033112999 619:0.016557001 621:0.016557001 629:0.016557001 635:0.016557001 644:0.016557001 659:0.016557001 664:0.016557001 669:0.016557001 670:0.016557001 678:0.016557001 692:0.016557001 698:0.016557001 705:0.033112999 706:0.033112999 723:0.033112999 724:0.033112999 747:0.016557001 762:0.016557001 764:0.016557001 768:0.016557001 769:0.033112999 770:0.016557001 777:0.016557001 780:0.016557001 784:0.016557001 785:0.033112999 793:0.033112999 814:0.016557001 820:0.016557001 857:0.016557001 858:0.016557001 866:0.016557001 878:0.082782999 891:0.24834999 896:0.04967 903:0.082782999 906:0.016557001 908:0.016557001 916:0.016557001 917:0.016557001 932:0.016557001 965:0.016557001 998:0.016557001 1004:0.016557001 1008:0.016557001 1013:0.033112999 1023:0.033112999 1024:0.016557001 1026:0.033112999 1027:0.033112999 1031:0.016557001 1032:0.016557001 1033:0.016557001 1042:0.016557001 1054:0.016557001 1086:0.016557001 1089:0.016557001 1102:0.033112999 1107:0.016557001 1108:0.016557001 1133:0.04967 1149:0.016557001 1213:0.016557001 1328:0.033112999 1386:0.016557001 1392:0.016557001 1393:0.016557001 1399:0.016557001 1412:0.016557001 1445:0.033112999 1472:0.016557001 1493:0.016557001 1539:0.016557001 1642:0.016557001 1697:0.033112999 1823:0.016557001 1825:0.016557001 1872:0.016557001 1918:0.033112999 1939:0.016557001 1967:0.016557001 1969:0.016557001 1972:0.016557001 2019:0.016557001 2067:0.016557001 2076:0.033112999 2079:0.016557001 2102:0.016557001 2174:0.016557001 2236:0.016557001 2246:0.016557001 2353:0.033112999 2423:0.016557001 2429:0.016557001 2513:0.016557001 2517:0.016557001 2524:0.016557001 2596:0.033112999 2632:0.016557001 2679:0.016557001 2708:0.016557001 2727:0.016557001 2779:0.016557001 2810:0.016557001 2834:0.016557001 2936:0.016557001 2956:0.016557001 3168:0.016557001 3223:0.016557001 3246:0.033112999 3372:0.016557001 3397:0.016557001 3404:0.016557001 3425:0.016557001 3429:0.016557001 3439:0.016557001 3486:0.016557001 3497:0.016557001 3609:0.016557001 3619:0.016557001 3659:0.016557001 3732:0.016557001 3737:0.016557001 3795:0.016557001 3804:0.016557001 3984:0.016557001 3986:0.016557001 4011:0.016557001 4024:0.016557001 4096:0.016557001 4258:0.016557001 4292:0.016557001 4309:0.016557001 4412:0.016557001 4455:0.016557001 4588:0.016557001 4757:0.016557001 4765:0.016557001 4871:0.082782999 4949:0.016557001 5058:0.016557001 5151:0.033112999 5165:0.016557001 5193:0.016557001 5208:0.016557001 5284:0.016557001 5366:0.016557001 5392:0.016557001 5403:0.016557001 5513:0.016557001 5541:0.016557001 5690:0.016557001 5728:0.016557001 5742:0.033112999 5855:0.033112999 5996:0.066226996 6061:0.016557001 6087:0.016557001 6122:0.016557001 6263:0.016557001 6322:0.016557001 6328:0.016557001 6343:0.016557001 6415:0.016557001 6471:0.016557001 6507:0.016557001 6620:0.016557001 6632:0.033112999 6734:0.016557001 6872:0.016557001 6875:0.016557001 7164:0.016557001 7298:0.016557001 7620:0.016557001 7695:0.016557001 7776:0.016557001 7818:0.016557001 7894:0.016557001 8079:0.016557001 8161:0.016557001 8162:0.016557001 8576:0.016557001 9125:0.016557001 9195:0.016557001 9299:0.016557001 10049:0.016557001 10254:0.016557001 10532:0.016557001 11208:0.016557001 11323:0.016557001 11695:0.016557001 12231:0.016557001 12232:0.016557001 12233:0.016557001 12234:0.016557001 12235:0.016557001 12236:0.016557001 12237:0.016557001 12238:0.016557001 12239:0.016557001 12240:0.016557001 12241:0.082782999 12242:0.016557001 12243:0.016557001 12244:0.016557001 12245:0.016557001 12246:0.016557001 12247:0.016557001 12248:0.016557001 12249:0.016557001 12250:0.04967 12251:0.016557001 12252:0.016557001 12253:0.016557001 12254:0.016557001 12255:0.04967 12256:0.016557001 12257:0.016557001 12258:0.016557001 12259:0.016557001 12260:0.033112999 12261:0.033112999 12262:0.016557001 12263:0.016557001 12264:0.016557001 12265:0.016557001 12266:0.016557001 12267:0.016557001 12268:0.016557001 12269:0.016557001 #
1.1258341267787091 1:0.544388 4:0.213021 11:0.213021 12:0.023669001 15:0.35503599 17:0.071006998 19:0.023669001 20:0.118345 21:0.165683 25:0.047338001 33:0.213021 39:0.023669001 43:0.023669001 44:0.023669001 53:0.023669001 62:0.118345 66:0.071006998 73:0.023669001 76:0.023669001 78:0.047338001 95:0.071006998 97:0.023669001 98:0.094676003 102:0.094676003 105:0.047338001 106:0.023669001 110:0.023669001 115:0.094676003 120:0.023669001 128:0.023669001 136:0.047338001 138:0.023669001 139:0.023669001 148:0.023669001 149:0.094676003 151:0.023669001 152:0.023669001 161:0.023669001 162:0.023669001 167:0.094676003 170:0.094676003 172:0.023669001 180:0.023669001 200:0.071006998 212:0.047338001 227:0.071006998 238:0.047338001 241:0.023669001 243:0.023669001 244:0.023669001 278:0.023669001 281:0.165683 285:0.023669001 294:0.023669001 296:0.023669001 301:0.047338001 306:0.023669001 319:0.023669001 321:0.094676003 326:0.023669001 337:0.023669001 339:0.023669001 349:0.023669001 354:0.071006998 361:0.023669001 377:0.047338001 390:0.023669001 392:0.047338001 394:0.023669001 405:0.094676003 421:0.023669001 432:0.023669001 450:0.023669001 459:0.023669001 495:0.023669001 496:0.023669001 497:0.023669001 512:0.023669001 516:0.023669001 555:0.071006998 574:0.047338001 582:0.023669001 600:0.023669001 604:0.023669001 636:0.023669001 673:0.023669001 674:0.118345 683:0.023669001 685:0.023669001 698:0.094676003 712:0.023669001 742:0.071006998 745:0.023669001 746:0.023669001 754:0.023669001 759:0.023669001 764:0.023669001 785:0.023669001 808:0.023669001 848:0.023669001 873:0.023669001 880:0.023669001 894:0.023669001 902:0.023669001 932:0.023669001 943:0.023669001 955:0.023669001 1013:0.047338001 1032:0.118345 1038:0.047338001 1044:0.023669001 1049:0.023669001 1056:0.023669001 1066:0.023669001 1083:0.047338001 1133:0.023669001 1163:0.023669001 1167:0.023669001 1257:0.023669001 1318:0.023669001 1409:0.023669001 1507:0.023669001 1523:0.023669001 1550:0.023669001 1574:0.023669001 1609:0.023669001 1642:0.023669001 1659:0.023669001 1678:0.023669001 1775:0.071006998 1796:0.023669001 1890:0.023669001 1912:0.023669001 1972:0.023669001 1986:0.023669001 1995:0.023669001 2023:0.023669001 2129:0.023669001 2136:0.023669001 2175:0.023669001 2237:0.023669001 2306:0.023669001 2368:0.023669001 2402:0.023669001 2410:0.023669001 2489:0.023669001 2492:0.023669001 2494:0.023669001 2602:0.023669001 2654:0.023669001 2666:0.023669001 2678:0.023669001 2690:0.023669001 2728:0.023669001 2815:0.023669001 2839:0.023669001 2850:0.094676003 2866:0.023669001 2905:0.023669001 2930:0.047338001 2940:0.047338001 2981:0.023669001 3008:0.023669001 3246:0.023669001 3269:0.023669001 3403:0.023669001 3439:0.023669001 3641:0.023669001 3648:0.023669001 3655:0.023669001 3676:0.023669001 3797:0.023669001 3863:0.023669001 4034:0.023669001 4134:0.023669001 4305:0.142014 4403:0.023669001 4417:0.023669001 4761:0.023669001 4949:0.023669001 5008:0.023669001 5062:0.023669001 5282:0.023669001 5302:0.023669001 5425:0.047338001 5497:0.023669001 5596:0.023669001 5652:0.023669001 5821:0.023669001 5840:0.023669001 6385:0.023669001 6391:0.023669001 6418:0.023669001 6425:0.023669001 6563:0.023669001 6715:0.023669001 6723:0.023669001 6986:0.023669001 7269:0.118345 7282:0.023669001 7413:0.023669001 7475:0.023669001 7658:0.023669001 8002:0.023669001 8230:0.023669001 8607:0.023669001 8636:0.023669001 8643:0.023669001 9067:0.023669001 9287:0.023669001 9824:0.023669001 10043:0.023669001 10153:0.023669001 10154:0.023669001 10221:0.023669001 10271:0.023669001 10733:0.023669001 11518:0.023669001 11896:0.023669001 11967:0.023669001 11968:0.023669001 11969:0.023669001 11970:0.047338001 11971:0.071006998 11972:0.023669001 11973:0.023669001 11974:0.023669001 11975:0.023669001 11976:0.023669001 11977:0.023669001 11978:0.023669001 11979:0.023669001 11980:0.023669001 11981:0.023669001 11982:0.071006998 11983:0.023669001 11984:0.023669001 11985:0.023669001 11986:0.023669001 11987:0.023669001 11988:0.023669001 11989:0.023669001 11990:0.023669001 11991:0.023669001 11992:0.023669001 11993:0.023669001 11994:0.023669001 11995:0.023669001 11996:0.023669001 11997:0.023669001 11998:0.023669001 11999:0.023669001 12000:0.023669001 #
