SVM-light Version V6.02
0 # kernel type
3 # kernel parameter -d 
1 # kernel parameter -g 
1 # kernel parameter -s 
1 # kernel parameter -r 
empty# kernel parameter -u 
99757 # highest feature index 
29890 # number of training documents 
4329 # number of support vectors plus 1 
0.99999602 # threshold b, each following line is a SV (starting with alpha*y)
-0.01 3:1 4:1 8:1 12:3 36:1 51:2 56:1 91:1 175:1 289:2 346:3 442:1 504:2 669:1 694:1 1107:1 1110:1 1347:2 1400:1 1648:1 1839:1 3169:1 3211:1 3466:2 3467:2 3480:1 3573:1 4349:1 5595:1 9249:1 #
-0.0036058186149162557 3:2 4:7 8:1 12:9 21:1 23:2 25:1 36:2 44:2 51:1 56:2 91:2 97:1 107:1 126:1 146:1 150:1 175:1 197:1 244:1 263:1 327:2 408:1 411:2 426:1 431:1 477:1 570:1 593:1 669:1 693:1 711:1 856:1 926:1 964:2 1223:1 1253:2 1502:1 1550:1 1563:1 1605:1 1700:1 1822:1 1957:1 2486:1 2603:1 2652:1 2687:2 2696:1 2961:2 2987:1 3316:1 3628:1 3631:1 4767:1 5560:1 5960:1 6440:1 6493:1 7157:1 7806:1 9161:1 9287:2 9497:1 10550:1 13041:2 13845:1 16983:1 19954:1 21964:1 43455:1 51082:1 56198:1 96555:1 96556:1 96557:2 96558:1 96559:2 96560:2 96561:1 96562:1 96563:1 96564:1 #
-0.008586412208239632 3:3 4:6 8:1 9:3 12:8 23:2 36:1 41:1 44:1 51:1 56:1 58:1 66:1 91:2 94:1 107:1 126:1 138:1 139:2 145:1 150:1 167:1 175:2 188:2 196:3 207:1 233:1 243:1 248:1 346:1 393:2 394:1 429:1 439:2 467:1 477:1 557:1 573:1 603:1 604:1 702:1 711:1 721:1 834:1 923:1 1060:1 1109:1 1346:1 1400:1 1445:1 1528:1 1641:1 1982:1 2040:2 2223:1 3010:1 3034:1 4032:1 4046:1 4047:1 4515:1 5199:5 5950:1 6587:1 8937:1 10178:1 10401:1 10405:1 11057:1 14077:1 50114:1 #
0.0032785512353581238 3:5 4:14 7:4 8:1 9:2 10:1 12:7 21:1 23:2 27:1 36:2 41:1 44:2 46:1 58:2 59:1 67:1 91:4 95:1 107:3 117:2 154:1 177:1 185:1 208:1 247:1 248:1 289:1 293:1 309:1 344:1 408:1 445:2 450:2 452:1 462:1 464:2 465:2 477:1 543:1 607:1 630:2 706:1 727:1 795:1 832:1 834:3 881:2 895:1 944:2 964:1 1011:2 1121:1 1285:1 1330:1 1359:1 1407:1 1424:2 1425:1 1507:1 1624:1 1637:1 1652:1 1839:1 1885:1 2116:2 2230:1 2301:1 2402:4 2547:1 2612:1 2864:1 2907:1 2953:2 2954:2 2955:1 2956:1 2960:2 3788:1 4494:1 4718:1 4826:1 5050:1 5820:1 6144:1 8628:1 10999:1 11192:2 13293:1 16375:1 #
-0.0048656609258101637 3:1 4:8 8:1 9:1 12:3 23:1 24:1 36:1 46:1 51:1 56:1 58:2 68:1 120:1 139:1 175:1 189:1 346:1 406:1 478:1 522:1 591:1 610:1 800:2 1257:1 1260:4 1376:1 1601:1 1844:1 2549:2 2832:1 2926:1 2986:1 3384:1 4211:1 5158:2 5364:1 10902:1 11884:2 44468:1 57498:2 57499:1 57500:1 57501:1 57502:1 #
-0.0073043428755994238 3:6 4:10 8:1 9:1 12:3 17:1 21:2 23:1 28:1 36:3 39:1 41:3 44:5 51:1 56:1 58:1 68:1 90:3 91:6 107:1 119:1 150:1 175:1 185:3 189:2 197:1 203:1 234:1 236:4 244:1 290:1 380:1 383:1 390:1 396:1 406:1 452:1 467:1 560:1 582:1 801:1 828:1 905:1 1308:2 1310:2 1338:1 1350:1 1622:1 1644:1 1835:1 1923:4 1996:1 1998:1 2038:1 2092:1 2613:1 2644:2 2674:1 2811:2 2948:1 2970:1 2971:1 3473:1 4077:1 4296:1 4588:1 5476:1 5727:1 5839:1 6103:1 6249:1 6520:1 6593:1 7900:1 8412:1 9410:1 10321:1 11426:1 13263:1 14920:1 15374:1 20025:1 20270:1 22728:1 22729:2 22730:1 22731:1 22732:1 22733:1 22734:1 22735:1 22736:2 22737:1 22738:1 #
0.0076759735246858078 3:3 4:12 8:1 9:2 10:1 12:7 23:3 27:2 28:1 36:3 41:3 44:3 46:1 50:1 56:1 58:3 67:2 91:1 106:1 119:1 120:1 173:2 196:1 217:1 233:1 248:1 256:1 282:2 283:2 284:1 285:4 286:2 287:1 288:1 289:1 290:1 291:1 292:1 293:1 294:1 295:1 296:1 297:2 298:1 299:1 300:1 301:1 302:1 303:1 304:1 305:2 306:1 307:1 308:2 309:2 310:1 311:1 312:1 313:1 314:2 315:1 316:1 317:1 318:2 319:1 320:1 321:1 322:1 323:1 324:1 325:2 326:1 327:1 328:1 329:1 330:1 331:1 332:1 333:1 334:1 335:1 336:1 #
-0.0042034274882352873 3:3 4:10 8:3 9:2 12:9 21:1 23:2 27:1 36:4 41:1 44:1 51:3 56:2 58:3 66:1 91:5 97:1 107:2 129:1 141:2 150:1 152:1 167:2 169:2 173:1 175:1 203:1 214:1 243:1 246:1 262:1 272:1 308:1 312:3 346:1 354:1 380:1 392:1 410:1 428:1 452:1 477:1 480:1 482:2 483:1 489:1 509:1 565:1 588:1 598:1 647:1 674:1 790:1 843:1 887:1 935:1 1001:1 1246:1 1408:1 1445:1 1450:1 1502:1 1507:1 1511:1 1556:1 1569:1 1619:1 1826:1 2006:3 2029:3 2040:1 2305:1 2637:1 2822:1 2918:1 3331:1 3876:1 4611:1 4826:1 5157:1 5364:1 5365:1 5372:1 5425:1 5628:1 5956:1 6249:1 6531:1 8152:3 8245:1 8495:1 10276:1 16091:1 22092:1 23310:1 34444:2 34445:1 34446:1 34447:1 34448:1 34449:1 #
0.004787084018396056 3:1 4:12 8:1 9:1 12:14 21:1 36:2 41:2 44:1 51:2 58:1 91:5 97:2 116:1 138:1 167:1 173:1 175:3 196:2 231:1 233:1 239:2 240:2 261:1 262:1 287:1 351:1 393:1 411:3 465:1 477:1 480:1 501:1 506:1 541:1 570:1 573:3 574:2 575:2 576:4 577:6 578:1 579:1 580:1 581:1 582:1 583:3 584:1 585:1 586:1 587:1 588:1 589:1 590:1 591:2 592:1 593:1 594:1 595:1 596:1 597:1 598:1 599:1 600:1 601:1 602:1 603:1 604:1 605:1 606:1 607:1 608:1 609:1 610:1 611:1 612:1 613:1 614:1 615:1 #
-0.0027731388700856876 3:8 4:43 7:5 8:1 9:3 11:1 12:20 14:1 22:1 23:6 27:7 36:7 41:1 44:6 58:7 60:1 69:2 75:1 83:3 91:8 97:1 107:2 109:1 119:1 120:1 126:1 154:1 167:2 175:1 185:3 206:3 207:1 212:1 234:2 244:4 252:1 282:2 287:2 302:1 309:3 314:2 345:1 365:1 392:1 396:1 408:1 411:1 428:1 431:2 451:1 452:1 553:1 570:1 589:1 590:1 592:3 607:1 630:1 634:2 669:1 683:1 715:2 842:3 901:1 959:1 1035:1 1212:1 1219:1 1241:1 1246:1 1339:1 1348:3 1393:1 1465:1 1485:1 1500:1 1505:1 1536:1 1571:1 1637:1 1664:2 1742:1 1818:2 1885:1 1899:1 1940:1 1944:1 2014:1 2072:2 2088:1 2178:1 2267:1 2269:1 2534:1 2537:3 2635:1 2671:1 2741:1 2787:1 2962:1 2970:1 3037:1 3044:1 3089:1 3330:1 3357:2 3385:1 3393:1 3454:3 3709:2 3822:1 4285:1 4321:1 4382:1 4533:1 4912:1 4964:1 4991:1 5210:1 5244:1 5267:1 5379:1 5384:1 5928:1 6229:1 6765:3 7105:1 7157:1 7888:1 7908:1 8699:1 9403:1 9404:1 11977:1 13114:2 15980:1 17699:1 19970:1 22846:1 24969:1 24971:4 28508:1 41887:1 46560:2 46561:2 46562:2 46563:1 46564:2 46565:1 46566:1 46567:1 46568:1 46569:1 46570:1 #
-0.0061392098183846722 3:3 4:8 7:2 8:1 9:3 12:8 17:1 19:1 21:1 23:1 36:3 46:1 56:1 58:1 69:2 97:1 126:1 147:1 172:1 179:1 185:1 233:1 234:1 289:1 309:1 352:1 353:2 356:3 365:1 374:1 375:1 383:1 406:1 407:3 412:1 422:1 423:5 435:1 494:4 517:1 570:1 593:1 716:1 721:2 723:1 746:2 801:1 832:1 894:1 920:1 951:1 973:1 1055:1 1190:1 1251:1 1270:3 1352:1 1377:1 1659:3 1662:1 1913:2 2061:1 2109:1 2267:1 2535:1 2648:2 2777:1 2913:1 2932:1 2961:1 2986:1 2992:1 3701:1 4151:1 4207:1 4413:1 4954:1 5035:1 5129:8 5144:3 5931:1 6251:1 6549:1 6662:1 6665:1 7955:1 12148:1 28914:1 #
-0.0015092414758519988 4:13 8:1 9:4 10:1 12:7 17:1 23:3 27:1 36:8 41:1 44:1 51:2 59:1 82:1 84:1 88:1 90:1 91:2 97:1 109:1 119:1 145:1 154:1 165:1 173:1 197:1 202:1 277:2 307:1 323:1 342:1 383:2 390:1 480:1 484:1 570:1 591:4 634:1 685:1 836:1 929:1 1113:1 1200:2 1246:1 1249:1 1269:1 1270:6 1293:1 1362:1 1610:1 1618:3 1760:1 1992:1 2163:1 2267:5 2746:1 2871:1 2911:1 2986:3 3002:1 3803:1 4434:3 5120:1 8045:3 8717:3 8905:3 10727:1 23832:1 90255:1 #
0.01 4:3 8:1 9:1 12:3 21:2 23:4 36:4 44:1 46:1 51:2 56:1 63:1 90:3 91:6 94:2 119:3 154:1 164:1 169:1 177:1 185:2 218:2 222:1 226:1 230:1 231:1 233:1 277:2 346:1 395:1 493:1 509:1 524:2 543:1 603:1 618:1 791:2 817:1 975:1 1021:1 1073:1 1096:1 1169:1 1244:1 1334:1 1408:1 1423:1 1557:1 1922:1 1923:3 1991:1 2392:1 2547:1 2797:1 3083:1 3098:1 3359:1 3529:1 3715:1 4171:1 4426:1 4607:1 4611:1 4920:1 5218:1 5248:2 5592:1 5693:1 5924:1 5927:1 5930:1 5933:1 6378:1 6952:1 7099:1 9625:2 9699:1 9874:1 13046:1 13601:2 18052:1 18053:1 18054:1 18055:1 18056:1 18057:1 18058:1 18059:1 18060:1 18061:1 18062:1 #
0.01 3:2 4:1 8:1 36:2 51:1 56:1 58:1 63:2 86:2 98:2 234:1 243:1 294:1 339:2 346:1 407:1 411:2 450:1 503:1 593:1 652:1 667:1 723:1 1269:1 1737:1 1823:1 2549:1 3523:1 3806:1 5027:1 5028:1 5630:1 #
0.01 3:1 4:2 8:1 23:1 36:1 44:2 51:1 68:1 90:1 142:1 345:3 565:1 1006:1 1490:2 2126:1 2163:1 2172:1 2212:1 2970:1 5559:2 7010:1 7264:1 9741:1 12297:1 13872:1 19281:1 19282:1 #
-0.01 4:1 8:1 12:2 23:1 58:2 90:1 185:2 244:2 265:1 273:3 321:2 477:1 480:1 523:3 591:1 803:2 1371:1 1505:1 1510:1 1933:1 2041:1 3189:1 3357:2 4902:1 5354:2 5807:1 8265:1 46302:1 #
-0.0017611606230528215 3:1 4:8 8:1 9:1 12:2 17:1 23:3 33:2 41:1 44:1 46:1 54:1 70:1 90:1 91:1 95:1 97:1 119:1 131:1 175:1 185:1 256:1 261:1 262:1 327:1 346:2 397:1 411:1 422:1 495:1 497:1 560:2 721:1 795:1 908:1 927:1 963:1 1015:2 1350:1 1462:1 1465:1 1555:1 2030:1 2105:1 2458:1 2961:1 3444:1 3527:1 4096:1 4248:1 4312:1 4946:3 5158:1 5807:1 7796:1 #
-0.01 4:2 8:1 23:1 24:1 46:1 51:2 90:1 244:1 252:1 274:1 289:1 330:1 450:3 464:4 564:1 638:1 698:1 904:2 927:1 1009:1 1119:1 1885:1 2039:3 3031:1 3357:1 5488:1 6030:1 6187:1 6438:1 8508:1 42188:1 #
0.0088892238353158216 3:12 4:35 7:12 8:1 9:4 12:16 21:3 23:5 36:9 41:3 44:1 46:1 51:3 56:2 58:1 68:2 78:1 87:1 91:9 96:1 97:2 106:1 107:2 113:1 115:1 119:5 120:1 138:2 141:1 150:1 154:3 175:1 177:1 185:2 188:2 196:2 197:1 206:1 219:1 234:1 242:2 243:1 277:5 287:1 289:3 336:1 337:1 340:1 345:2 365:3 383:2 390:2 406:1 435:1 438:1 462:1 467:1 483:2 504:4 509:2 517:1 524:1 556:1 560:2 600:1 603:1 625:1 630:1 638:1 648:1 681:1 715:1 795:1 859:1 860:1 946:1 978:1 1035:1 1211:1 1246:1 1289:1 1361:1 1411:1 1508:1 1521:1 1667:3 1791:1 1834:1 1846:1 1899:1 1966:3 1972:1 1998:1 2014:3 2052:1 2126:2 2199:2 2238:1 2250:2 2305:1 2393:1 2416:1 2568:2 2631:1 2768:1 2834:1 2851:1 2864:1 2980:1 3062:1 3411:1 3561:1 3754:1 4102:1 4170:1 4240:3 4276:1 4319:1 4363:1 4364:1 4381:2 4417:1 4507:1 4588:1 4717:1 5305:1 5559:1 5840:1 6261:1 6518:1 6531:1 7280:1 7565:1 8656:1 9403:1 9404:1 9592:3 10561:1 11662:1 11692:1 11985:1 13712:1 15331:1 16960:1 17676:1 18127:1 18464:1 18685:3 20965:1 26276:1 26277:1 26278:1 26279:1 26280:1 26281:1 26282:1 26283:1 #
0.01 3:2 4:9 7:2 8:1 9:1 17:1 23:1 44:1 46:3 51:2 58:4 70:1 90:2 91:4 95:1 115:1 314:1 325:1 337:1 346:1 425:1 450:1 497:1 504:3 548:1 612:1 630:1 669:1 722:1 815:1 1143:1 1254:1 1375:1 1511:1 1667:1 1672:2 2019:1 2544:1 2980:3 3564:3 3582:2 4038:1 4096:1 5171:1 5359:2 8839:1 8840:1 13825:1 16304:1 53416:1 53417:1 53418:1 #
0.01 3:1 4:7 8:1 12:9 23:1 27:1 29:1 36:3 40:1 41:1 44:1 56:2 58:1 68:1 70:1 91:3 95:2 97:1 107:1 119:1 131:1 140:1 154:2 167:1 169:2 185:1 203:1 208:1 234:1 277:1 321:1 342:1 345:2 359:3 428:1 458:1 466:1 477:1 481:1 541:2 546:1 565:1 709:1 718:1 721:1 1246:1 1362:1 1823:2 1874:1 2088:1 2105:3 2109:1 2165:1 2716:1 2762:1 3037:1 3715:1 4150:1 4181:1 4216:1 4217:1 4932:1 6022:1 6087:1 6619:1 7563:1 7905:3 9866:1 13230:1 22949:1 22950:1 22951:1 22952:1 22953:1 22954:1 #
0.01 3:2 4:4 8:1 12:3 23:1 44:1 51:1 56:1 70:1 131:1 185:1 189:1 217:1 236:1 289:2 325:1 383:1 390:1 504:1 651:1 710:1 723:1 899:1 1285:1 1400:3 1622:1 1648:1 1706:1 1808:2 1846:1 2014:1 2015:1 2276:1 2723:1 3035:1 3279:2 3877:1 4178:1 4223:1 4269:1 4574:1 4598:1 5595:1 6793:1 7280:1 7435:2 7698:1 9225:1 69551:1 69552:1 69553:1 #
0.00033985121766072084 3:1 4:5 8:1 9:1 12:1 23:3 36:1 41:1 44:1 48:1 58:2 63:1 78:2 90:1 91:2 124:1 145:1 164:1 167:2 169:1 175:1 185:1 211:1 222:1 231:1 255:1 258:1 261:1 277:1 327:1 333:1 383:1 428:1 478:2 489:1 565:1 591:1 612:1 615:1 630:1 676:1 815:1 846:1 1006:1 1015:1 1096:1 1098:1 1113:1 1281:2 1316:1 1413:1 1493:1 1546:1 1547:1 1674:1 1713:1 1837:1 1914:1 2727:2 3100:1 3381:2 3382:1 4454:1 4835:3 4915:1 5382:1 6187:4 6191:1 10550:1 10551:1 10904:1 14557:1 20685:2 30680:1 63012:1 68823:1 68824:1 68825:1 68826:1 68827:1 68828:1 68829:1 #
-0.0059240238330849244 3:3 4:5 8:1 9:1 12:4 21:1 23:1 36:2 67:1 91:3 95:2 107:1 118:1 120:1 121:1 138:1 207:1 214:1 244:1 264:1 282:1 309:1 314:2 390:1 477:1 481:4 557:1 570:1 710:1 782:1 876:1 896:1 1256:1 1386:2 1507:1 2240:3 2375:1 2458:2 2841:1 3082:1 3332:1 3563:1 3621:1 3952:1 4417:3 5462:2 5479:1 9405:1 15877:1 28836:2 29934:1 #
0.01 3:1 8:1 9:1 12:2 21:2 23:2 36:1 41:1 44:1 51:2 56:1 197:1 570:1 586:1 693:2 786:4 799:1 1035:1 1846:1 1885:1 1968:1 2680:2 2793:1 3284:1 3791:2 4403:2 5476:1 6948:1 8290:2 16050:1 45830:1 #
0.01 3:1 8:1 12:3 21:1 23:1 36:3 41:1 51:1 56:2 61:1 91:3 241:1 290:1 541:4 801:1 884:1 957:1 1245:1 1522:1 1923:1 1962:1 3062:1 3094:1 3443:1 3992:1 4238:1 4254:1 5120:1 6314:1 6616:1 6980:1 7364:1 7546:2 7547:1 7548:1 7549:1 7550:1 7551:1 7552:1 #
-0.01 3:2 4:1 8:1 12:1 27:1 36:2 41:2 46:1 56:1 58:2 91:1 145:1 167:1 179:1 236:1 247:1 262:1 314:1 330:3 331:3 411:1 452:1 457:1 542:1 548:1 607:1 908:1 1096:2 1305:1 1491:2 1779:1 1824:1 1874:1 2015:1 2199:1 2725:1 3013:1 3689:1 4382:1 5963:1 6323:2 7625:1 8303:1 12821:1 13226:1 25394:1 27767:1 41787:1 41788:1 41789:1 #
-0.0055719172789935826 3:2 4:1 8:1 23:1 36:2 41:1 44:1 58:1 90:1 91:1 97:1 107:1 175:3 185:2 330:3 331:1 342:1 540:1 546:1 727:1 916:2 1119:2 1318:4 1922:1 2130:1 2513:1 2542:1 2579:1 3407:1 8717:1 14467:1 17363:1 18685:2 18687:1 19271:1 27584:1 31266:1 53941:1 78991:1 #
-0.0098944360135983459 3:2 4:8 8:1 12:7 23:1 36:2 44:2 56:3 91:1 119:1 120:1 231:2 243:1 287:1 336:1 390:1 396:1 452:1 511:1 592:1 881:1 1189:1 1377:1 1439:1 1507:2 1623:1 2576:1 2822:1 2934:1 4246:1 4537:1 4693:1 6221:1 6967:1 9168:1 10210:1 16530:1 17662:2 39017:1 47323:1 56406:1 59811:1 84800:1 94494:1 #
-0.0010056762313404438 8:1 9:1 12:3 23:1 36:3 44:1 56:2 58:1 91:1 96:1 97:1 152:1 175:1 185:1 228:1 233:1 244:1 282:1 289:4 314:1 477:2 593:1 735:1 842:1 1245:1 1346:1 1375:1 1408:2 1657:2 1707:1 1713:1 2002:1 2109:1 2164:1 2585:1 2784:1 2795:2 3169:1 3620:1 3864:2 4513:2 5666:2 6129:1 8152:1 14367:1 14920:1 15403:1 15423:2 21006:1 21007:1 28470:4 29170:1 29171:1 #
0.01 3:1 4:2 8:1 9:1 12:2 17:2 26:1 27:1 36:2 46:1 51:1 58:1 75:1 90:1 91:2 175:1 216:1 233:1 234:1 244:2 258:1 277:1 282:1 321:4 345:3 358:1 445:1 447:1 460:1 592:1 723:1 741:1 1026:1 1079:1 1453:1 1563:1 1568:2 1601:1 1727:1 2286:1 2357:4 2420:1 2505:1 3180:1 4351:1 4424:1 4426:2 4951:1 5055:1 5665:1 7000:1 9900:1 14079:1 16384:1 17853:2 20622:1 51657:1 53791:1 53792:1 #
0.0058067375279974263 3:1 4:7 8:1 12:5 23:3 30:1 36:1 41:1 44:1 46:1 58:2 91:2 107:1 121:1 177:1 179:1 185:1 196:2 200:1 244:1 274:1 450:1 451:2 465:1 524:1 602:1 666:1 681:1 813:1 815:1 822:1 878:1 964:1 1009:1 1244:1 1293:1 1294:1 1369:1 1551:1 1677:1 1769:1 1786:1 1922:2 1992:1 2111:1 2112:1 2581:1 2783:1 2871:1 3260:1 3349:1 3659:1 3994:2 4595:1 4914:1 4916:2 5400:1 6098:1 6950:1 6952:1 8717:1 9532:1 11575:1 15733:1 15975:1 21404:1 59724:1 59725:1 #
-0.0048004297476319071 3:2 4:6 8:1 9:4 12:9 17:2 19:1 21:1 23:3 36:2 41:3 44:4 51:1 56:2 58:1 59:1 90:1 91:3 126:1 130:1 145:1 173:1 175:1 185:1 188:1 197:2 206:1 244:1 247:1 256:1 269:1 289:1 327:1 344:1 383:1 452:1 478:1 506:1 511:2 518:1 541:1 548:1 682:1 787:2 843:1 1041:1 1186:1 1254:1 1285:1 1296:2 1568:2 1937:1 1982:1 1984:1 2199:1 2278:1 2493:1 2560:1 2581:1 2585:1 2618:2 2649:1 2946:1 3130:1 3473:1 3545:1 3788:1 4180:1 4190:1 4401:1 4417:2 4922:1 5355:1 5462:1 5589:1 6135:1 6283:1 8085:1 12134:2 12446:1 13604:1 14873:1 17089:2 17228:1 17463:1 20737:1 20995:1 22427:1 24658:1 27645:1 42222:1 42223:1 #
-0.0033881185085865993 4:4 8:1 12:7 41:1 44:2 58:1 68:2 91:1 150:1 175:1 185:1 344:1 375:1 456:1 506:1 518:2 524:1 593:1 842:1 1042:1 1377:1 1451:1 4382:3 4416:1 5693:1 6020:1 8484:1 10392:2 10393:1 43752:2 43753:2 43754:1 #
-0.01 3:5 4:11 8:1 12:7 23:1 30:1 36:1 46:3 51:2 56:1 58:2 60:1 91:2 138:2 167:1 169:1 185:1 214:1 243:1 256:1 269:1 303:1 325:1 396:1 452:1 541:1 582:1 592:1 603:1 604:1 615:1 628:1 647:1 648:1 690:1 695:1 705:1 848:1 865:1 972:1 1188:1 1193:1 1228:1 1260:1 1305:1 1325:2 1326:1 1359:1 1376:1 2176:1 2222:1 2308:1 2469:1 2587:1 2612:1 2767:1 2984:1 3051:2 3309:1 3368:1 4261:1 4309:1 4778:1 4853:1 8628:1 8634:1 10743:1 12806:1 20345:1 28506:1 38510:2 73961:1 73962:1 #
0.01 8:1 12:2 29:1 36:1 80:1 90:1 91:1 121:1 175:1 236:1 240:1 277:1 390:1 528:1 741:1 935:1 1175:1 1923:1 2072:2 2109:1 2583:1 3357:1 4019:1 7192:1 8993:1 #
0.01 4:1 8:1 12:2 21:1 27:1 29:1 44:1 46:1 56:2 58:1 60:1 68:1 91:3 107:1 175:1 185:1 203:1 214:1 234:1 270:1 319:1 321:1 328:1 395:1 442:1 452:1 803:1 1032:1 1214:1 1534:1 1958:1 2126:1 2357:1 2544:1 2611:1 2623:1 2764:1 3357:1 3634:1 4613:1 5039:1 6263:1 6326:1 6395:1 7765:1 8699:1 20722:1 49645:1 69089:3 #
0.01 3:2 4:16 8:1 9:1 12:10 17:1 23:2 24:1 27:1 36:1 46:1 48:1 56:2 58:1 90:1 91:1 124:1 126:1 139:1 173:1 175:1 185:1 327:2 328:1 345:3 375:1 386:2 450:3 568:1 570:1 577:1 592:2 601:1 630:3 794:1 795:2 856:1 896:1 963:2 1045:1 1235:1 1269:1 1320:6 1350:1 1359:1 1400:1 1417:1 1795:1 1886:1 2182:1 2224:2 2637:1 2795:1 2872:1 2910:1 3034:1 3047:2 3444:1 4004:1 4173:1 4484:1 4533:1 4717:1 4920:1 5305:1 5629:1 6043:1 11616:1 13661:1 15547:1 16026:1 22904:1 27003:1 34749:1 34750:1 #
0.0086980119454820887 3:3 4:8 8:1 9:1 12:5 17:1 23:2 36:2 41:1 44:2 46:1 51:2 58:1 63:1 80:1 90:2 91:4 117:1 119:1 150:1 175:3 185:1 240:1 293:1 295:1 335:1 456:1 552:2 630:2 681:1 701:1 723:1 880:1 881:1 909:2 929:1 934:2 1006:1 1150:2 1270:1 1415:1 1423:2 1464:1 2056:1 2116:1 2420:2 3009:2 3321:1 3454:2 3988:1 4248:1 4768:1 4769:1 4837:1 5076:1 7889:2 7892:1 7964:1 8686:2 10958:1 17274:3 #
0.01 3:1 4:6 8:1 9:5 12:2 21:1 23:2 36:2 51:2 56:2 78:1 97:1 120:1 145:2 185:3 200:1 212:1 234:1 242:2 244:1 322:1 328:1 393:4 397:1 429:1 438:2 454:1 477:1 497:2 509:1 524:1 541:1 586:1 591:1 598:1 638:1 647:1 721:3 723:1 735:1 854:1 905:2 1056:2 1520:1 1657:1 1875:2 1910:1 1920:1 2006:1 2069:1 2250:1 2316:1 2318:2 3401:1 3407:1 3560:1 3653:2 4219:1 4515:1 5108:1 5840:1 7036:1 7711:1 18142:1 23087:1 #
-0.0013245530248195559 3:2 4:9 8:1 9:1 12:6 23:1 36:5 51:1 56:3 63:1 91:3 109:1 123:1 173:1 175:1 185:1 248:1 339:1 345:1 346:2 383:1 452:1 454:1 458:1 467:1 502:1 543:1 565:2 570:1 625:1 649:1 695:2 709:1 781:2 843:1 1121:5 1124:1 1325:1 1529:2 1702:1 2192:1 2267:2 2346:1 2539:1 2585:1 2755:2 2837:1 2984:1 3013:1 3270:2 3309:1 4248:1 4898:1 5475:1 5722:1 8513:1 14934:2 28632:1 37012:1 39428:2 70127:1 88535:1 #
0.01 3:3 4:2 8:1 12:5 36:1 44:3 58:2 67:3 130:1 287:2 309:1 591:1 593:1 634:3 735:2 991:1 1145:1 1244:1 1391:1 1408:1 1485:1 1488:1 2105:2 2543:1 2632:1 3357:2 5273:1 5924:1 6048:1 22331:1 54459:1 #
-0.00065137050121112422 3:1 4:9 8:1 12:6 17:1 23:2 27:1 36:1 44:2 51:1 53:1 58:1 78:1 90:1 91:2 94:1 97:1 107:2 116:2 119:1 156:1 185:4 203:1 233:1 290:1 314:1 385:1 387:1 433:1 445:3 541:4 579:2 597:1 622:1 698:1 723:1 893:1 1030:1 1310:1 1328:1 1408:1 1507:1 1681:1 1836:1 1837:1 1998:2 2189:1 4054:1 4424:1 4756:1 4950:1 5171:1 5519:3 5585:1 5984:1 6621:1 9396:1 11114:1 14143:1 15128:1 19849:1 22199:1 25963:2 31294:1 35506:2 42127:1 42128:3 42129:1 42130:1 42131:1 42132:1 42133:1 42134:1 42135:1 42136:1 #
0.01 3:4 4:18 7:1 8:2 9:4 11:2 12:15 17:1 21:5 23:1 24:2 31:1 36:4 39:1 41:3 44:5 51:2 56:1 59:1 60:2 70:2 78:1 80:1 89:1 90:1 91:6 95:1 121:1 125:1 126:1 131:1 150:1 175:4 179:1 185:1 196:1 197:1 234:1 242:1 248:1 263:1 264:1 314:1 320:1 323:1 337:1 385:1 452:2 457:1 458:1 465:1 477:1 481:4 482:1 506:1 541:1 543:1 565:1 579:1 723:1 727:2 796:1 994:1 1011:1 1040:1 1055:1 1091:1 1155:2 1167:1 1184:1 1337:1 1569:1 1704:2 1945:1 1957:3 2019:1 2189:1 2392:1 2740:2 2862:1 3116:1 3327:2 3648:1 3797:2 3811:1 3876:1 4289:1 4403:1 4967:1 5011:1 5355:1 5560:1 5589:1 5874:1 6042:1 6280:1 6879:2 7880:1 10558:1 11186:1 12347:1 13442:1 13469:1 22981:1 63670:1 63671:3 74172:2 74173:2 74174:1 74175:1 74176:1 74177:1 74178:2 #
0.01 3:3 4:13 7:1 8:1 9:4 12:7 21:3 23:2 27:2 36:2 44:1 90:2 91:4 97:2 107:1 129:1 175:1 255:2 269:1 302:1 346:2 395:1 406:1 448:1 454:1 477:1 506:1 563:1 586:1 695:5 714:1 796:1 857:1 875:4 913:2 1052:1 1072:1 1112:1 1475:1 1530:1 1875:1 2125:1 2127:1 2205:1 2305:1 2393:1 3259:1 3581:1 3653:3 4144:2 4323:1 4627:1 4835:1 7227:3 9123:1 10419:1 20436:2 23086:1 39590:1 44120:1 51642:3 #
-0.01 3:3 4:13 7:1 8:1 9:5 12:7 20:1 23:1 36:3 51:1 58:2 80:1 91:4 95:1 107:2 119:1 177:1 185:4 242:2 256:1 258:1 277:3 289:1 322:1 337:1 359:3 393:1 406:1 451:5 460:1 466:1 497:1 509:1 524:2 690:1 801:2 807:1 870:1 889:1 1085:1 1146:1 1193:1 1352:1 1505:2 1727:1 1769:2 1920:1 2072:1 2087:2 2449:1 2589:1 2647:1 3089:1 3722:1 4297:2 4986:1 5561:2 5576:1 8547:1 10734:1 20965:1 22536:1 23500:1 24675:1 26915:1 26916:1 26917:1 26918:1 26919:1 26920:1 #
0.01 4:2 8:1 12:2 44:3 46:1 58:2 91:2 94:2 95:3 185:2 216:1 231:1 277:1 314:1 320:1 496:1 964:1 1473:1 1503:2 1788:1 2092:1 3755:2 4434:2 6050:1 15471:2 25947:1 33461:1 53342:2 #
-0.0013884828429910859 8:1 23:1 44:1 51:2 58:2 91:2 185:1 244:1 321:2 340:1 429:1 715:1 916:1 935:1 957:1 1309:2 1310:2 1919:1 3357:1 3988:1 5874:1 6587:1 55748:1 #
-0.0042513400325117044 3:1 8:1 12:2 23:1 36:3 44:1 46:1 51:1 56:1 90:2 107:1 110:2 131:1 179:1 185:2 261:4 289:1 428:1 429:1 466:1 477:1 523:1 644:1 883:2 904:2 1136:1 1145:1 1175:1 1400:1 1779:1 1808:1 1964:1 2092:1 2647:1 3060:1 4323:1 4961:1 5244:1 5707:2 6068:1 7809:1 11170:1 48379:2 #
-0.00061465851801616818 3:3 4:12 7:1 8:1 9:2 12:5 21:2 23:2 36:1 41:3 44:3 51:1 56:2 91:3 94:1 126:1 173:1 175:1 185:1 188:1 197:1 233:1 248:1 327:3 465:2 477:1 496:1 570:1 591:1 694:1 728:1 879:1 963:1 1014:1 1112:1 1118:1 1184:1 1189:1 1242:1 1361:1 1373:1 1415:1 1451:2 1510:1 1727:1 1952:1 2040:1 2189:1 2239:1 2240:1 2250:1 2561:2 2635:1 3052:1 3393:1 3444:1 3593:3 3829:1 4157:1 4316:1 4412:2 4912:1 5894:1 6359:1 6543:1 7026:1 8856:1 9304:1 10535:1 20996:4 28169:1 28887:2 29059:1 41705:1 42803:3 46719:1 47785:1 51534:1 96499:1 96500:1 96501:1 96502:1 #
0.01 3:3 4:4 8:1 9:2 12:2 30:1 36:1 51:1 58:1 91:4 179:1 188:1 206:1 242:1 243:2 346:3 457:1 565:3 669:1 695:4 1189:1 1282:1 1327:1 1352:1 1664:1 1867:1 2002:1 2003:2 2015:1 2105:1 2693:1 2874:1 2986:1 3330:1 3919:1 4515:1 5002:2 5049:1 5406:1 5562:1 8282:1 17500:1 #
-0.01 3:3 4:15 7:1 8:1 9:3 12:7 17:4 21:1 23:2 28:1 36:3 41:3 44:1 51:2 56:1 58:2 59:1 66:1 90:2 91:4 97:2 107:2 119:2 124:1 147:1 154:1 167:1 172:1 185:1 196:1 214:1 219:1 242:1 244:1 247:1 273:1 288:1 302:1 323:1 335:1 346:2 349:1 374:1 383:1 425:2 439:1 451:1 502:1 569:1 570:1 592:1 668:1 703:1 716:1 834:3 871:1 878:1 908:1 1033:1 1115:1 1157:1 1184:1 1205:1 1212:1 1254:1 1285:2 1305:1 1346:1 1347:2 1601:2 1641:1 1788:1 1828:1 1899:1 1923:1 1981:1 2014:1 2264:1 2276:1 3084:3 3209:1 3324:1 3517:1 3551:2 3564:2 3608:1 3828:1 4032:1 4246:1 4461:1 4538:1 4749:1 5196:1 5199:1 6280:1 6852:1 12209:1 13460:2 13461:2 13462:3 13463:1 13464:1 13465:1 13466:1 #
-0.00088215056785382565 3:2 4:7 8:1 12:8 23:7 28:1 36:2 44:1 46:1 49:1 51:1 56:3 59:1 91:2 226:1 302:1 345:1 416:2 430:1 502:1 532:1 622:1 704:2 781:1 786:1 799:2 978:1 1112:1 1167:1 1766:1 1783:1 2259:2 2348:1 2469:1 2489:1 2566:1 2648:4 2665:1 2810:1 2906:2 3051:2 3061:3 3089:2 3180:1 3234:2 3530:1 3700:1 4071:8 4574:1 4816:1 6129:1 7436:1 12212:1 13837:1 15587:1 #
-0.01 3:1 4:8 8:1 12:6 21:1 36:2 39:3 40:1 44:3 56:1 58:1 106:1 107:2 120:1 138:1 185:2 188:2 482:1 522:1 709:1 878:1 1874:1 1940:1 2036:1 2110:2 2126:2 2624:1 2764:1 3473:1 3811:1 5094:1 5804:1 8290:1 13592:1 33320:1 #
-0.00229710784224189 3:1 4:3 7:1 8:1 9:2 12:2 36:4 46:1 51:1 56:1 58:4 63:1 91:1 101:1 106:2 120:1 147:3 151:2 211:3 231:5 239:3 242:1 248:1 262:1 297:3 302:1 403:4 544:1 574:1 615:1 826:2 848:1 920:1 922:1 975:4 1047:1 1248:1 1262:1 1276:1 1313:1 1327:1 1354:1 1373:1 1421:1 1542:3 1543:1 2415:1 2804:1 3121:1 3189:1 3364:1 3600:2 3737:3 3939:1 4311:1 4574:1 5017:1 5039:6 5748:1 5888:1 6134:1 6205:1 7306:3 7414:1 10622:2 10907:1 12564:1 14307:1 17272:3 21795:1 22842:1 26304:1 26388:1 27415:1 33271:2 33272:1 33273:1 33274:1 33275:1 33276:3 33277:2 33278:2 33279:1 33280:2 33281:1 33282:1 33283:1 33284:1 #
0.0093511760417676875 8:1 12:4 23:1 24:4 27:2 36:1 39:1 41:1 42:1 44:2 58:1 89:1 90:1 91:4 175:1 185:1 236:1 293:1 308:1 428:1 430:1 443:1 507:3 647:1 1027:1 1040:1 1052:4 1453:1 2152:2 2309:1 2849:1 2853:2 3658:1 3866:1 5488:1 7656:1 9050:1 9931:2 10065:1 97869:1 #
-0.0076803587561836582 3:2 4:2 8:1 21:1 23:3 27:1 36:5 51:1 54:1 56:1 58:3 64:1 113:1 167:1 169:1 175:4 231:2 234:1 243:1 289:1 291:1 292:1 339:1 393:1 410:1 424:1 477:1 481:1 615:5 638:1 826:1 975:1 1045:1 1047:1 1109:1 1146:1 1156:1 1232:1 1249:1 1262:1 1311:2 1346:1 1381:1 1505:1 1535:2 1669:1 1753:1 1967:1 2233:1 2310:2 2371:1 2398:1 2424:1 2511:1 2561:1 2797:1 3098:2 3136:1 3581:1 4041:2 4551:1 4902:1 5733:1 5893:1 6206:1 6318:1 6849:1 7382:1 8054:1 8055:1 8056:1 8057:2 8058:1 8059:1 8060:1 8061:2 8062:1 8063:1 8064:2 8065:1 8066:1 8067:2 8068:1 8069:1 8070:1 8071:1 8072:1 8073:1 8074:1 8075:1 8076:1 8077:1 8078:1 8079:1 8080:1 #
0.01 3:4 4:1 8:1 23:2 36:2 51:1 56:1 58:1 68:2 131:1 630:1 638:1 1033:1 2014:1 2119:2 2126:2 3082:1 3211:2 3884:1 3940:1 4096:1 4378:2 5379:1 9348:1 11383:1 17730:1 36231:1 54406:3 #
0.01 3:1 4:5 8:1 9:1 12:4 17:1 27:2 36:1 46:2 48:1 91:1 126:1 145:1 307:1 319:1 327:1 438:1 499:1 506:1 533:1 603:1 637:1 989:1 1008:1 1208:1 1310:1 1359:1 1445:1 1818:1 1886:1 2030:1 2230:2 2233:1 2886:1 2961:1 3446:1 3486:1 3504:1 4551:1 4650:1 6158:1 7256:1 10963:1 #
0.01 3:3 4:8 8:1 9:5 10:1 12:5 27:3 36:3 40:1 41:2 44:1 51:3 56:2 58:1 68:3 91:4 93:3 107:1 122:1 130:2 167:2 173:1 233:1 247:1 248:1 256:1 273:1 308:1 321:1 335:1 337:1 346:1 349:1 394:1 451:1 477:3 504:1 523:2 555:1 556:2 654:1 681:1 726:1 894:1 1023:1 1027:1 1118:1 1146:1 1294:1 1305:1 1347:1 1448:1 1635:1 1648:1 1700:1 1761:1 1828:1 1846:1 2014:1 2126:1 2409:1 2568:2 3150:1 3211:1 3279:1 3402:1 3454:1 3638:5 4246:1 4308:1 4313:1 4416:1 4919:1 5016:2 5124:1 5491:3 6128:1 6625:1 8697:1 9254:1 10728:1 11696:2 11697:1 12408:1 17945:1 #
0.01 4:1 8:1 12:2 44:1 932:1 1522:1 4219:2 6619:2 6952:1 32047:2 #
-0.009863021025923244 3:2 4:7 8:1 12:7 23:1 36:2 44:5 51:1 58:1 91:6 93:4 94:1 95:1 104:1 107:1 119:1 121:1 145:2 177:1 185:2 298:1 346:1 457:2 477:1 482:1 524:2 526:3 555:1 602:1 643:1 673:1 681:1 695:1 710:1 814:2 832:1 1052:5 1471:1 1478:2 1695:1 1826:1 2095:1 2116:1 2231:1 2276:1 2441:1 2718:1 2910:1 2942:1 2980:1 3059:1 3451:1 3877:1 4649:1 4726:1 5477:1 5560:1 5877:1 6394:1 6502:1 6963:1 7192:1 7904:1 8469:1 11386:1 12986:1 15951:1 16157:1 18320:1 22439:3 40607:1 91845:1 #
0.01 3:1 4:1 8:1 12:3 23:1 36:1 44:3 91:1 94:1 120:1 126:1 231:1 244:1 277:1 333:1 335:1 337:2 419:1 482:1 723:1 777:1 842:1 1055:1 1388:1 1547:1 1672:2 1828:1 1899:1 1990:1 2109:1 2260:2 3183:2 3701:1 3897:1 5628:1 9405:1 12306:1 #
-0.0010860838672686762 3:1 4:4 8:1 9:1 10:2 12:3 23:2 36:4 58:2 107:1 124:2 175:1 244:1 265:1 354:2 356:1 486:1 541:2 545:1 638:1 692:1 921:1 1259:1 1282:1 1287:1 1301:2 1408:1 1703:1 2105:2 2122:3 2522:2 2543:1 3309:1 4311:1 4711:2 5536:1 5840:1 6567:1 6638:1 7292:1 10333:1 10349:1 11246:1 11841:1 14048:2 14049:1 32996:1 40084:1 68685:1 71221:1 #
-0.01 3:5 4:3 7:4 8:1 9:1 12:2 23:1 27:1 36:1 39:1 41:2 56:1 64:1 74:1 90:3 107:1 145:3 197:1 256:1 289:1 302:2 365:4 450:4 451:1 452:1 464:4 467:1 478:1 560:1 626:1 682:1 698:1 838:1 904:3 1014:1 1026:1 1045:1 1281:1 1507:1 1591:1 1884:2 1912:1 1933:1 2122:1 2199:1 2264:1 2537:2 2671:1 2966:4 3788:2 4433:1 5894:1 6205:2 7128:1 49307:1 67127:1 #
-0.01 3:1 4:9 8:1 12:3 23:2 56:1 58:2 68:1 87:1 90:1 91:1 124:1 233:1 256:3 289:5 300:1 327:1 330:1 335:5 541:5 799:1 803:1 869:1 964:2 972:1 973:1 1052:3 1119:1 1320:3 1649:1 1899:2 1998:1 2278:2 2393:1 3496:1 4107:4 4599:5 6358:1 8856:4 10073:1 10310:1 11401:2 12972:1 17795:1 19585:2 23576:1 25488:5 25489:1 #
0.01 3:4 4:6 7:1 8:1 12:3 23:1 27:1 36:1 41:1 44:3 56:1 58:3 91:7 107:1 119:1 131:1 139:1 175:1 188:1 189:1 277:1 346:1 412:1 457:1 458:1 694:1 695:1 723:1 728:1 795:1 860:1 909:1 1003:1 1325:3 1346:1 1394:1 1406:1 1459:1 1463:1 1511:1 1524:1 1732:1 2002:1 2262:1 2357:1 2469:3 2611:1 2613:1 2853:2 3323:1 3357:1 3688:2 3695:3 4319:1 6532:1 7026:1 8364:1 10543:1 49396:1 49397:1 49398:1 #
0.0022193439877211908 3:2 4:8 8:1 12:6 21:2 23:3 27:2 28:1 31:1 44:1 51:1 56:2 69:3 74:1 90:1 91:5 107:1 139:1 140:2 175:3 189:1 198:1 244:1 279:1 296:1 327:1 344:2 395:2 396:2 451:1 467:1 504:1 513:1 514:1 541:1 569:1 681:1 682:1 723:1 727:1 830:1 853:1 964:1 978:1 1235:1 1500:1 1511:1 1546:1 1557:1 1637:2 1855:2 1902:1 2014:1 2421:1 2676:1 2740:1 2818:1 2840:1 2980:2 3259:1 3364:1 4377:2 4889:1 4943:1 5026:1 5108:1 5272:2 6262:1 6263:1 6947:1 6948:2 8843:1 8844:1 8845:1 8846:1 #
-0.0030978277502251147 3:3 4:13 8:1 9:1 12:6 23:2 36:4 44:1 46:1 51:1 56:2 58:3 78:1 90:1 91:1 146:1 165:1 236:1 256:1 333:1 408:2 412:1 435:1 477:1 482:4 503:2 511:1 573:1 648:1 669:1 682:3 702:2 723:2 726:1 727:1 904:1 1014:1 1107:1 1108:1 1178:1 1731:1 1752:1 1771:4 1808:2 1892:1 1899:1 2036:1 2347:1 2373:1 2565:3 2870:1 2948:1 3505:1 3844:1 4395:1 5260:2 7600:1 12876:2 14176:1 14233:2 14237:2 24134:1 55801:1 55802:1 55803:1 #
-0.0035109077780307815 3:3 4:3 7:1 8:1 9:3 12:5 17:1 23:5 26:1 28:1 36:8 41:2 44:2 46:4 51:4 56:1 58:3 59:1 90:2 91:1 95:1 97:3 115:1 131:1 138:2 141:1 145:1 167:2 169:2 185:1 190:1 197:1 242:1 244:2 248:1 289:7 302:4 320:1 352:1 353:1 392:1 407:1 430:2 436:2 445:1 450:1 477:2 481:4 503:1 787:5 840:2 901:1 933:1 935:1 1036:1 1060:1 1115:1 1189:2 1289:3 1327:2 1347:2 1527:1 1555:1 1556:1 1648:1 1828:1 1910:1 1916:1 1964:1 1966:1 1972:1 2012:2 2017:3 2019:1 2044:4 2045:1 2061:1 2068:1 2087:1 2097:1 2301:1 2305:1 2410:2 2543:1 2928:1 2986:1 3100:3 3178:1 3304:1 3328:1 3563:1 3703:1 3710:1 3731:1 3860:1 4199:1 4307:1 4308:1 4387:1 4391:1 4462:1 5153:1 5830:1 5951:3 6125:2 6365:1 6839:2 7725:1 9347:1 11195:2 15226:1 21372:1 29738:1 33340:1 55925:1 55926:1 55927:1 55928:2 #
0.0079538459235956732 4:1 8:1 9:2 10:1 12:4 21:1 24:1 36:4 56:1 91:1 145:1 243:1 390:1 396:1 406:1 434:3 457:1 482:1 504:1 591:2 681:1 728:1 756:2 1899:2 2029:2 2072:2 2250:1 2532:1 2926:1 3403:4 4749:2 5094:1 6680:1 17561:1 #
-0.0022826451045050238 4:1 8:1 9:1 12:5 36:1 58:2 91:1 175:1 185:1 206:1 231:1 482:2 796:1 1107:1 1290:1 1327:1 1844:1 1904:1 1929:1 2177:1 2218:1 2318:1 2568:1 3194:2 3783:1 4861:1 7506:1 8370:1 10236:3 11261:1 11959:1 12754:2 14905:1 15135:3 23378:2 90208:1 #
0.0057146593693507769 3:2 4:14 7:1 8:1 9:1 12:3 23:3 36:4 39:1 41:1 56:5 74:2 91:1 107:1 136:1 185:2 189:3 239:4 240:3 244:4 248:1 259:1 270:1 272:1 289:1 346:1 390:1 396:1 412:1 426:3 452:1 456:1 458:3 497:1 517:1 519:1 555:1 630:1 695:1 698:1 706:1 716:1 721:1 723:1 785:2 799:1 828:1 904:1 908:5 1079:3 1085:1 1107:1 1110:1 1269:1 1271:1 1346:1 1371:1 1408:1 1534:1 1737:1 1760:1 1899:2 2205:1 2253:1 2424:2 2832:1 3237:1 3357:1 3727:1 4413:1 4889:1 5354:1 5807:1 6198:1 7157:1 8023:1 8029:1 9051:4 9177:1 9682:1 21506:2 21507:2 21508:2 21509:1 21510:1 21511:1 21512:1 #
-0.01 3:1 4:3 8:1 12:3 36:3 44:1 51:1 56:1 58:2 244:3 321:3 328:2 445:1 488:1 548:1 596:1 702:1 726:1 803:2 916:1 1340:2 1405:2 1675:1 2374:1 2928:1 3044:1 3311:1 3357:1 3699:1 4690:1 5363:1 5425:1 6254:1 7196:1 9675:1 12037:1 12060:1 12819:2 24775:1 87592:1 87593:1 87594:1 #
-0.01 4:3 7:1 8:1 12:3 23:2 36:2 44:1 51:1 56:1 58:1 73:1 97:3 116:1 141:1 203:1 214:1 229:3 256:1 289:1 330:3 626:1 913:1 1012:2 1033:1 1119:3 1424:1 1642:1 1869:1 2241:2 2348:1 2531:1 2588:3 3410:1 3454:1 3656:2 3791:3 4399:4 4411:1 6885:1 10548:1 24485:1 29068:1 #
-0.0095494048333845533 4:3 7:2 8:1 12:1 23:3 36:4 44:2 51:2 56:1 58:3 63:1 91:2 97:1 131:1 167:1 185:1 219:1 244:1 287:2 302:2 308:2 327:1 333:1 480:2 524:1 541:1 570:1 719:1 728:1 840:2 870:1 1006:1 1259:1 1273:1 1281:2 2443:1 2562:1 2637:1 2795:2 3416:1 3755:1 4590:1 6003:2 6202:2 6440:1 7007:1 7354:1 9879:1 29560:1 35511:2 49689:2 49690:2 #
0.01 4:2 8:1 9:1 12:1 63:2 185:2 239:1 240:1 243:1 261:1 336:1 406:1 591:1 1369:1 1539:2 1855:2 2611:2 2763:2 3773:2 9562:1 #
-0.0031727965998965212 4:2 7:1 8:1 12:4 21:1 23:1 24:1 36:2 40:1 58:1 59:1 91:2 152:1 154:1 159:2 167:1 169:1 209:1 236:1 243:1 289:1 302:1 330:3 331:1 333:1 336:1 390:1 406:1 410:2 441:1 509:1 528:1 836:1 843:1 881:1 897:1 978:1 1109:1 1119:2 1193:1 1377:1 1547:1 1672:1 1899:1 2172:1 2266:1 2464:1 3094:1 3099:4 3138:1 3169:1 3328:1 3634:1 3992:1 5411:1 19922:1 #
-0.0063930117949843445 3:1 4:9 8:1 9:1 12:4 21:3 23:3 44:1 58:2 83:1 91:2 97:1 119:1 186:1 243:1 256:1 289:1 323:1 345:2 346:1 359:1 393:1 431:2 451:1 557:1 668:1 702:1 927:1 929:2 964:1 1110:1 1190:1 1411:1 1474:1 1529:2 1604:1 1998:1 2088:1 2295:1 2671:1 3062:1 3887:1 4189:1 4246:1 4381:1 6161:1 7036:2 7128:1 8303:1 10548:1 23080:1 41786:2 #
0.01 3:3 4:15 7:2 8:1 9:2 12:10 23:3 36:2 41:2 44:2 51:2 56:1 58:1 60:1 91:4 95:1 107:3 115:1 119:1 135:1 154:1 156:1 185:1 196:1 197:1 206:1 244:1 247:1 270:1 289:2 425:1 452:1 504:1 593:1 630:1 663:1 723:1 794:1 878:3 1042:1 1061:1 1107:1 1371:2 1462:1 1479:2 1502:1 1546:1 1828:1 1912:1 1933:1 2012:1 2116:1 2532:1 2547:1 2568:1 2902:1 2980:1 3185:1 3211:1 3386:1 3392:1 3443:1 3454:1 3486:2 3551:2 3564:5 3581:1 3582:1 3845:1 3951:1 4009:1 4055:1 4412:1 4538:1 4588:1 4987:1 5233:1 5595:1 5839:1 5951:1 5952:1 6581:2 7381:2 8839:1 8840:1 10706:1 13460:1 13461:1 16664:1 22372:1 33622:1 55234:1 59869:1 59870:1 #
0.0020690458338233904 3:2 4:7 8:1 9:2 12:4 17:2 23:3 36:1 44:1 90:1 91:3 107:1 119:1 124:1 130:1 185:2 196:1 229:3 233:1 234:1 286:1 327:1 337:1 346:2 452:1 458:1 477:1 486:1 565:1 602:1 610:1 659:1 668:1 695:2 696:1 702:1 727:1 881:1 1011:1 1020:3 1107:1 1236:1 1259:1 1486:3 1622:1 1648:1 1760:1 1889:2 2559:1 3082:1 3169:1 3500:1 3653:1 3680:1 3807:1 4248:1 5423:1 5493:1 5873:1 6418:3 12632:1 13703:1 26627:1 #
-0.01 3:1 4:3 8:1 9:2 12:3 23:1 36:4 91:2 109:1 145:1 152:1 185:1 222:1 242:1 247:1 261:1 289:4 302:1 509:1 524:1 570:1 612:1 617:1 648:1 681:1 714:1 1168:1 1546:1 2014:1 2316:1 2694:1 3771:1 4381:1 4454:1 4749:1 4755:1 4987:2 7226:1 7279:1 7600:1 #
-0.01 3:5 4:3 8:1 12:2 23:1 36:3 88:1 107:1 125:1 142:1 185:4 205:1 236:2 279:2 354:1 383:1 458:1 473:1 477:1 482:2 489:2 511:1 533:1 905:1 1259:1 1287:2 1357:1 1388:1 1735:1 1846:2 1877:1 2040:2 2223:1 2580:1 2986:1 3048:3 3309:2 4173:1 4364:2 4818:2 4837:1 5555:1 5559:1 6587:1 7192:1 7227:1 #
0.01 3:2 8:1 36:1 58:1 107:1 265:1 329:2 330:2 331:2 449:2 590:1 755:1 2223:1 2322:1 2955:1 6261:1 11334:2 #
0.01 8:1 12:1 36:1 58:1 59:1 273:1 390:1 509:1 523:1 638:2 726:1 1353:1 1521:1 4749:1 7192:1 8588:1 8717:1 #
0.01 3:2 4:8 8:1 9:2 12:4 17:1 21:2 23:3 27:1 44:1 46:1 56:1 78:1 90:1 91:2 150:1 222:1 232:1 242:1 277:1 284:1 394:1 482:1 486:1 672:1 782:1 823:1 1003:1 1011:1 1252:2 1318:1 1406:2 1408:1 1808:1 2029:1 2282:1 2318:1 2410:1 2469:1 2589:2 2612:1 2797:1 4144:1 4535:1 4904:1 7105:2 8730:1 9699:1 9715:1 38832:1 45206:2 #
-0.01 8:1 12:2 44:1 46:1 67:1 68:1 91:1 107:1 236:1 327:1 390:1 450:2 509:2 591:1 780:2 1035:2 1703:1 3993:1 4214:1 27462:1 94353:1 #
-0.01 4:1 8:1 12:2 36:3 41:1 44:1 51:1 56:2 119:1 131:1 145:1 240:2 433:1 721:1 782:2 1175:2 1235:1 1255:2 1270:2 1727:1 3988:2 5599:1 13325:1 17627:1 #
-0.01 4:3 8:1 12:1 23:1 40:1 44:1 91:3 97:1 108:1 175:1 630:1 638:1 703:1 724:1 913:1 1033:1 1098:2 1110:2 1228:1 1889:1 2072:3 2568:2 3279:3 4055:1 4096:1 7723:1 12676:1 40335:2 #
0.01 3:2 4:5 7:1 8:1 9:1 12:5 21:1 23:2 27:1 36:4 41:1 44:1 51:1 56:2 58:1 90:1 91:6 119:1 120:1 131:1 138:1 185:1 206:1 242:1 243:2 277:1 279:1 302:2 346:1 359:2 403:1 524:1 567:1 570:1 625:2 715:1 756:1 777:1 800:1 809:2 894:1 964:1 1224:1 1338:1 1362:1 1376:1 1462:1 1502:1 1563:2 1695:1 1717:1 1835:1 1846:2 1923:1 2410:1 2596:1 2853:1 2987:1 3446:1 3590:1 3659:1 3797:1 3896:1 3989:2 4073:1 4270:1 4817:2 4818:2 4828:1 4837:1 5175:3 5323:1 5628:1 6326:1 6407:1 14199:1 26629:1 65298:1 65299:1 #
0.0006633993737434218 3:5 4:4 8:1 9:4 10:1 12:6 27:5 36:9 41:1 46:2 56:1 58:2 64:1 68:1 91:5 107:1 167:1 244:2 248:1 256:1 262:1 293:1 428:1 433:1 450:1 533:4 587:1 592:1 719:2 776:1 780:1 789:1 799:1 833:1 894:1 933:1 1015:1 1052:3 1130:1 1145:1 1254:1 1267:1 1282:2 1285:1 1318:4 1326:6 1354:2 1502:1 1590:1 1659:1 1668:1 1671:2 1701:1 2030:1 2040:1 2109:1 2116:1 2122:4 2267:2 2310:1 2371:1 2528:1 2966:1 2986:1 3036:2 3048:1 3309:1 3603:1 3658:1 3680:2 3743:1 3896:2 3919:2 4302:1 4592:1 5158:1 6576:1 6948:1 8886:1 10393:1 11387:2 11388:2 12488:1 14077:1 18335:2 33127:3 36138:1 57416:1 57417:1 #
0.01 3:4 4:5 8:1 9:3 12:3 23:3 27:2 36:12 41:2 44:2 46:3 56:1 58:5 60:1 64:1 91:2 139:1 175:1 244:1 248:1 256:1 300:1 327:1 328:1 344:1 433:1 450:1 482:1 513:1 514:1 522:2 533:5 575:1 719:2 776:1 839:1 964:1 973:1 1042:1 1045:1 1113:1 1234:1 1254:1 1267:3 1282:3 1318:8 1326:10 1354:2 1361:1 1590:1 1671:2 2002:1 2030:1 2040:2 2122:3 2267:1 2310:1 2401:2 2482:1 2528:1 2561:1 2587:1 2966:2 2986:1 3036:2 3053:1 3136:1 3150:2 3896:2 3906:1 3919:3 4151:1 4302:1 4322:2 4591:1 5129:1 5144:1 6662:1 8679:1 11387:2 11388:2 12362:1 18335:3 29237:1 33127:1 33128:1 33129:1 33130:1 33131:1 33132:1 33133:1 33134:1 33135:1 #
0.01 3:7 4:9 8:1 9:3 10:1 12:5 17:5 21:1 23:5 27:4 28:2 33:2 36:5 41:2 44:5 46:1 47:1 51:3 58:1 59:1 86:1 90:3 91:7 94:2 97:2 107:1 119:1 120:1 122:1 126:2 164:1 172:1 173:1 175:3 179:1 185:2 203:1 242:1 244:2 248:1 289:4 295:1 308:2 314:1 320:1 346:1 352:1 353:1 354:1 385:1 390:1 406:1 420:1 428:6 439:2 452:2 466:1 477:3 481:1 503:1 592:1 594:1 630:2 672:2 721:1 723:1 777:1 840:1 842:2 1036:1 1061:1 1120:3 1146:2 1259:1 1285:2 1301:3 1309:2 1507:2 1511:1 1523:1 1667:1 1701:1 1716:1 1923:1 2022:1 2069:1 2097:1 2125:1 2258:1 2265:3 2270:1 2276:1 2297:1 2534:1 2561:1 2834:1 2978:2 2987:1 3099:1 3133:1 3178:1 3228:1 3259:1 3325:1 3407:1 3480:1 3990:2 4032:1 4159:1 4269:1 4352:1 4367:1 4462:2 4507:1 4578:2 4592:1 4749:2 4790:1 4797:1 4858:1 4912:1 5379:1 5384:1 5442:1 5609:1 7796:1 8509:1 8585:1 9132:2 9175:1 9725:1 9726:1 10074:1 10732:3 11122:1 11653:1 11672:1 13425:1 14875:1 16260:1 19446:1 22673:1 23080:1 23391:1 41241:1 46337:1 46338:1 #
0.0049122003710141164 3:2 4:6 8:6 12:2 23:2 36:14 40:1 56:3 58:17 107:1 120:1 142:8 147:1 151:2 167:1 169:1 175:1 210:1 211:4 231:2 232:2 262:1 265:1 344:1 359:1 390:2 403:3 460:1 541:1 582:1 591:2 615:4 711:1 801:1 821:1 825:3 826:3 867:1 975:4 976:1 1000:3 1055:1 1244:2 1255:2 1408:2 1465:1 1507:1 1543:3 1551:1 1892:1 2029:2 2197:1 2473:2 2590:1 2595:1 2618:1 2802:1 3364:1 3381:1 3550:1 3612:1 4158:1 5455:1 5501:1 5899:1 6180:2 6554:1 6643:1 7334:2 7877:1 10551:8 10678:1 11318:1 11472:1 12564:1 12737:1 13389:1 14102:1 19469:1 19905:1 22061:1 22188:1 22189:1 22524:1 30416:1 31915:1 40434:1 44456:1 44457:1 44458:1 44459:1 44460:1 44461:1 44462:1 44463:1 44464:1 44465:1 44466:1 #
-0.0021338212288998524 3:1 4:7 8:1 9:1 12:4 19:1 21:2 27:2 36:1 41:2 44:3 49:1 84:1 90:1 91:4 116:1 119:1 131:1 185:2 188:1 196:1 236:2 277:1 371:1 435:2 465:2 477:1 484:2 556:1 570:1 594:1 681:1 685:1 723:1 904:1 1023:1 1047:3 1055:5 1116:1 1158:1 1235:1 1262:1 1485:1 1490:1 1670:1 1826:1 2548:1 2647:1 3550:1 4382:4 4711:1 4870:3 6776:2 10691:1 11534:1 15306:1 16839:1 25347:3 29763:1 51343:1 58992:3 66303:2 66304:1 91177:1 91178:1 91179:1 91180:1 91181:1 91182:1 91183:1 91184:3 91185:1 #
0.01 3:5 4:18 8:1 9:3 10:1 11:2 12:10 23:3 27:2 29:1 36:7 41:2 44:1 56:2 58:4 60:1 67:1 91:2 94:3 97:1 106:1 107:1 113:1 120:1 138:1 139:1 175:2 185:1 231:1 244:1 248:1 287:1 302:1 323:1 328:1 351:2 383:1 390:1 409:2 410:2 425:1 428:1 431:3 450:2 480:1 587:1 591:1 592:1 615:1 629:1 630:1 672:1 682:1 692:1 716:1 727:2 780:1 795:2 796:2 840:1 918:1 919:2 924:1 1014:1 1016:1 1091:1 1156:1 1169:1 1173:1 1320:1 1330:1 1505:2 1592:2 1599:1 1695:1 1737:1 1760:1 1834:1 2030:1 2131:1 2238:1 2612:1 3047:1 3309:2 4605:1 5104:1 6224:1 6233:1 6967:1 7742:1 8125:2 8408:1 9185:1 10022:1 10236:2 #
-0.0054894354878918502 3:1 4:6 7:1 8:1 9:1 10:1 12:1 36:1 44:1 51:1 107:1 140:3 456:1 481:1 501:1 726:1 933:1 1269:2 1648:2 2240:1 2348:1 4381:1 4718:1 4866:1 6041:1 8839:2 8840:2 10066:2 11063:2 #
0.01 4:7 8:1 9:3 12:4 14:1 23:2 27:1 36:6 41:5 44:1 51:1 53:1 56:2 58:1 68:1 91:3 95:4 177:2 197:3 200:1 244:2 256:1 307:1 314:5 320:1 321:1 330:4 331:2 345:3 383:1 445:1 477:2 560:1 564:1 690:1 709:1 859:1 909:2 916:1 1014:1 1073:1 1119:1 1235:1 1490:1 1510:2 1555:1 1926:1 2052:1 2109:1 2116:2 2126:1 2240:1 2449:1 2483:1 2489:1 2575:1 2649:1 2822:1 3045:1 3488:1 3503:1 3751:1 3952:1 4215:1 4805:1 4945:1 5013:1 5248:1 5363:1 5692:1 6706:1 9828:1 10382:1 11696:1 16379:1 25940:1 29388:1 73805:1 91268:1 91269:1 91270:1 91271:1 #
-0.01 3:2 4:9 8:1 9:1 11:1 12:6 23:1 33:1 41:2 44:3 56:1 58:2 79:1 89:1 90:1 91:4 119:2 131:1 154:1 169:1 175:3 217:1 242:1 243:1 262:1 289:1 314:2 325:1 380:2 428:1 442:1 452:1 456:1 487:1 574:1 578:2 644:1 843:1 880:1 881:1 916:1 997:1 1110:1 1285:3 1318:2 1359:1 1450:1 1457:3 1485:1 1931:2 1999:2 2200:1 2357:2 2469:1 2579:1 2672:2 2755:1 3141:1 3480:1 3597:1 4967:1 6531:1 7564:1 8509:1 72269:1 98497:1 98498:1 98499:1 #
0.01 3:7 4:13 7:2 8:1 12:11 23:2 27:3 36:7 40:1 41:2 44:2 46:6 51:4 56:3 58:2 64:1 74:1 91:2 94:1 107:1 119:1 145:1 175:1 185:1 197:1 233:1 244:1 279:1 289:1 350:1 386:3 395:1 411:1 412:1 425:1 428:1 450:2 456:1 482:1 496:1 552:1 556:1 575:1 577:1 591:1 669:1 694:1 699:1 727:1 859:1 908:1 909:1 910:1 1021:1 1045:1 1143:1 1170:1 1181:1 1189:2 1207:1 1231:1 1285:1 1287:4 1320:1 1381:1 1442:1 1462:1 1590:1 1592:1 1659:1 1703:1 1731:5 1779:1 1797:1 1823:1 2069:1 2122:2 2131:3 2322:1 2349:1 2411:1 2560:1 2966:1 3034:2 3144:1 3309:4 3694:1 3869:1 3951:1 4174:1 4302:1 4322:1 4323:1 4332:1 4858:1 5104:1 7633:1 7755:1 8348:1 9185:2 9815:1 10075:1 10102:1 10530:1 10706:1 13839:2 14647:1 14837:3 26582:3 27003:1 27004:3 27005:3 27006:2 27007:2 27008:3 27009:1 #
0.01 3:2 4:1 8:1 36:1 41:1 44:1 58:2 91:3 119:1 131:1 161:1 188:2 242:1 289:1 346:2 451:1 668:1 723:1 1347:1 1546:1 1968:1 2161:1 2399:1 3573:1 3574:1 3575:1 3576:2 3577:2 3842:1 6134:1 31820:1 37571:1 #
0.01 3:1 4:6 8:1 9:1 12:3 36:4 51:3 56:2 97:1 142:1 145:2 214:1 233:1 242:1 243:1 262:2 419:1 496:1 501:1 541:1 557:1 625:1 667:1 875:3 888:1 1091:1 1145:1 1316:1 1653:1 2318:1 2603:1 2767:1 2932:1 3653:1 5550:1 6384:1 6554:1 8993:1 14152:1 16995:1 31564:2 #
0.01 4:2 8:1 12:2 46:1 91:1 185:1 255:1 441:1 546:1 682:1 1032:1 1271:1 2072:1 2189:1 3545:1 4537:1 #
-0.01 3:1 8:1 9:1 12:4 23:1 36:2 44:1 94:3 320:1 328:2 390:1 439:3 450:2 509:1 623:1 780:2 795:1 1030:1 1052:1 1113:1 1115:1 1193:2 1320:3 2189:1 2310:1 2560:1 2940:1 3309:1 8717:2 #
-0.01 3:2 8:1 9:2 12:3 20:1 23:1 36:7 51:1 68:1 86:1 108:1 133:1 175:1 277:1 321:1 327:1 339:1 346:1 390:1 504:1 654:1 694:1 721:1 796:1 1072:1 1107:1 1465:1 1467:1 1571:1 1633:1 1635:1 1638:1 1648:1 1700:1 1709:1 1731:1 1822:1 2126:1 2399:1 2435:1 2722:1 2882:1 3169:2 3211:1 3573:1 3574:1 3634:1 5324:1 5638:2 6395:1 6625:1 6904:1 8455:1 9683:1 18102:1 86309:1 86310:1 #
-0.01 4:4 8:1 9:1 12:1 21:1 23:2 36:1 44:1 78:1 91:1 106:1 119:1 167:1 185:2 208:2 230:1 232:1 242:1 390:1 456:1 647:1 695:2 1439:1 1511:1 1657:1 2682:1 3621:2 4055:1 5284:1 5476:1 6038:1 6039:1 7297:1 7791:1 8563:1 14411:1 45367:2 #
0.01 3:5 4:14 8:2 9:2 12:6 17:3 23:3 27:1 36:1 39:1 41:1 44:2 46:3 56:1 58:2 59:2 64:1 70:2 75:1 86:6 90:2 91:6 95:1 107:2 119:1 122:1 179:1 185:7 188:2 218:1 270:1 273:2 309:1 318:1 320:1 336:1 337:3 346:2 358:1 380:1 390:1 406:1 418:1 425:1 434:1 450:1 452:1 456:1 466:1 467:2 523:1 548:1 591:1 636:1 644:1 692:1 782:2 815:2 834:1 842:1 875:1 878:1 904:2 909:1 1076:1 1079:1 1235:1 1254:3 1595:1 1640:2 1742:2 1844:1 1946:1 1964:1 2029:1 2072:2 2458:1 2532:1 2742:1 2794:2 2926:1 3009:1 3021:1 3061:1 3089:1 3357:2 3406:1 3407:1 3564:6 3709:1 3729:1 3751:1 4173:1 5250:1 6144:1 12040:1 49205:1 57367:1 66501:1 96787:1 96788:1 96789:1 96790:1 96791:1 96792:1 #
0.01 3:3 4:13 8:1 9:2 12:7 23:3 27:2 36:4 41:3 44:3 46:4 49:2 51:4 54:2 56:2 58:5 59:1 63:1 91:1 97:1 122:1 154:1 164:1 167:1 169:1 175:1 177:2 179:2 185:2 197:2 211:1 243:1 256:1 272:1 291:1 292:1 323:1 338:1 356:1 365:1 388:1 412:1 456:2 555:2 568:3 630:6 692:1 719:5 735:1 826:1 920:1 933:1 976:1 1014:4 1029:1 1080:2 1178:1 1235:1 1259:3 1350:1 1394:2 1399:2 1549:1 1659:1 1877:1 2079:4 2579:1 2606:3 2737:1 2874:1 2986:1 3059:1 3192:1 3285:2 3444:1 3675:1 4254:1 5005:1 5022:1 5129:9 5665:1 6108:1 6429:1 7128:1 7796:1 8607:1 9085:1 9659:2 11582:1 14233:1 15267:1 21858:3 41321:1 45074:1 52494:1 52495:1 #
0.01 4:1 7:1 8:1 12:2 23:1 41:1 44:1 66:1 91:3 97:1 107:1 136:1 185:1 202:1 236:1 296:1 302:1 321:1 330:1 506:1 798:1 1119:1 1257:1 1637:1 1940:1 2131:1 2264:1 2267:1 2359:1 2544:1 3831:1 4302:2 4466:1 5109:1 5155:1 7592:1 8961:1 9682:1 9964:1 87260:1 87261:1 #
0.01 3:5 4:14 8:1 12:10 17:1 23:6 27:3 28:1 29:2 36:7 39:1 41:5 44:3 46:1 51:3 56:1 70:2 87:1 90:3 91:4 97:1 107:2 119:2 121:1 126:5 140:1 164:1 166:1 173:1 175:2 185:1 188:6 214:2 244:3 330:1 365:2 395:2 482:1 593:1 594:1 654:3 681:1 709:1 723:1 731:1 815:2 927:1 929:2 1107:1 1118:1 1119:1 1189:1 1205:1 1235:2 1255:1 1339:1 1344:1 1391:1 1443:1 1527:1 1592:1 1631:1 1653:1 1723:3 1828:3 1844:1 2036:1 2105:2 2189:1 2202:1 2301:1 2360:1 2375:2 2541:1 2566:3 2624:2 2642:2 2834:1 2965:1 3010:1 3332:1 3372:1 3400:2 3546:1 3656:5 4009:1 4224:1 4491:1 4535:1 5346:1 5373:4 6081:1 6490:1 6811:1 8379:1 8413:1 8637:1 8993:1 9052:1 11377:1 13076:1 15688:1 22714:1 23114:3 25593:3 29932:2 33209:1 33210:1 #
0.01 3:1 8:1 12:1 36:2 56:1 58:1 321:3 325:1 630:2 728:1 880:1 1285:2 1400:2 11655:2 40769:1 #
0.01 3:1 4:2 8:1 12:4 36:1 44:1 120:1 289:2 617:2 2375:1 3575:2 4009:1 4987:2 5124:2 #
0.01 4:1 7:1 8:1 9:1 12:1 23:1 36:2 78:1 97:1 222:1 229:1 244:1 327:1 330:2 331:1 396:1 489:1 592:1 1098:1 1119:1 1251:1 1294:1 1520:1 1648:2 2199:1 2373:1 3603:1 3791:1 4261:1 6205:1 23993:1 #
-0.0024194609079670032 3:3 4:9 7:1 8:1 12:5 14:1 17:1 21:1 23:2 36:5 44:2 46:1 51:2 58:1 59:1 60:1 63:1 90:3 91:4 107:1 150:1 185:1 188:1 207:1 217:1 219:1 428:1 452:1 467:1 495:5 502:1 533:2 565:1 567:1 575:1 591:1 695:1 795:2 842:3 843:1 887:1 921:1 926:3 1014:1 1081:1 1083:2 1358:1 1359:2 1372:1 1455:1 1467:1 1618:1 1733:1 2088:1 2230:1 2296:1 2307:1 2328:1 2544:1 2582:2 2911:1 3021:1 3332:1 3881:1 4310:1 4449:1 4767:1 4926:1 15803:1 19225:1 20068:1 23500:1 46211:1 72470:2 72471:2 72472:1 72473:1 #
-0.0031751514683762659 4:10 8:1 12:5 23:2 36:2 44:2 46:1 51:2 56:1 58:2 63:1 83:1 90:1 91:8 107:2 138:2 154:1 169:1 185:2 231:2 243:1 245:3 396:1 426:1 482:1 524:2 533:1 570:1 649:1 728:2 782:1 787:1 791:1 891:1 923:1 933:1 1252:2 1377:1 1450:1 1464:1 1524:1 1923:1 1991:1 2087:1 2105:1 2108:1 2392:1 2458:1 2477:1 3829:1 4401:1 4607:2 4922:1 5360:1 5396:1 5854:1 6266:1 6807:1 6955:1 7175:3 7192:1 9504:1 9809:1 10328:1 12222:1 12223:1 13643:1 16827:1 17215:1 19601:1 25214:1 25819:1 25820:3 30968:1 71897:1 71898:1 71899:1 #
0.01 3:3 4:10 8:1 9:2 12:2 21:1 27:1 36:2 41:1 44:1 46:4 50:1 64:1 68:1 70:1 91:3 113:1 175:1 196:1 386:1 394:1 410:1 411:5 456:1 471:1 577:1 592:1 629:1 692:1 777:1 799:1 842:3 959:1 1052:1 1104:2 1116:1 1231:1 1285:1 1672:1 1742:1 1760:1 1885:1 2192:1 2224:1 2260:1 2261:2 2262:1 2263:1 2264:1 2265:2 2266:1 2267:1 2268:1 2269:1 2270:1 2271:1 #
-0.0012135899846632413 3:3 4:6 8:1 12:4 23:3 33:1 39:2 44:1 56:1 58:2 64:1 80:1 90:1 91:1 97:1 107:1 108:1 214:1 287:2 350:1 717:1 875:1 880:1 916:2 978:1 1290:1 1301:1 1344:1 1408:1 1709:3 1998:1 2189:1 2333:2 2411:2 3075:1 3076:2 3125:1 3210:1 3407:1 3635:1 3672:1 3866:1 4032:1 4131:1 4223:1 4491:1 4917:1 4991:1 4992:1 7042:2 8487:1 #
0.01 3:1 4:12 8:2 9:2 10:1 12:9 18:1 23:3 31:1 36:7 41:1 44:1 51:5 58:1 78:1 88:3 91:3 167:1 244:1 248:1 261:1 314:1 333:1 344:2 401:3 465:1 477:1 523:1 567:1 590:1 592:1 685:1 695:1 722:1 723:1 724:1 735:1 780:2 795:1 890:1 894:1 897:1 916:1 975:1 1011:1 1015:2 1047:1 1109:1 1129:1 1311:7 1381:2 1451:1 1464:1 1547:1 1586:3 1592:2 1788:1 1885:2 1892:1 1990:1 2281:1 2295:1 2333:5 2558:1 2585:1 3082:1 3083:1 3115:1 3198:1 3507:2 3992:1 4209:1 4363:3 4659:1 5011:2 5475:1 7860:2 11101:4 12982:1 13526:1 13787:1 14199:1 17823:1 17824:1 17825:1 17826:3 17827:2 17828:2 17829:1 17830:1 17831:1 17832:1 17833:1 17834:1 17835:1 17836:1 17837:1 17838:1 17839:1 17840:1 17841:1 17842:1 #
0.00078071986675043177 3:2 4:13 8:1 12:1 23:2 27:2 30:2 36:5 41:1 44:2 46:1 51:2 58:2 97:1 107:2 126:1 147:2 151:1 185:2 210:1 211:1 222:1 231:2 244:1 261:1 264:1 269:2 395:1 403:3 426:2 467:1 477:1 524:2 541:2 586:1 593:1 599:2 615:3 669:1 672:1 728:1 782:1 803:2 825:1 840:2 842:3 848:1 873:1 949:2 1011:1 1047:4 1091:1 1262:4 1340:3 1387:1 1545:1 1596:1 1690:1 1998:3 2174:1 2513:2 2668:1 2799:1 2983:1 3053:1 3093:1 3555:2 3810:1 3899:1 4000:1 4338:2 4614:2 4652:1 4741:1 5744:1 6656:2 6849:1 6897:1 7045:1 7071:1 7842:1 9497:1 9860:3 12318:1 18826:1 23156:2 40273:1 41744:1 71527:2 71528:1 71529:1 71530:1 71531:1 71532:1 #
-0.01 3:1 4:3 8:1 9:1 12:1 36:1 107:1 451:2 1242:1 2924:1 3183:2 3992:1 6793:1 7009:1 #
0.01 3:4 4:13 7:2 8:1 9:1 10:1 12:4 23:2 27:1 36:2 44:1 51:5 55:1 56:2 58:3 91:1 126:2 132:1 139:2 185:1 189:1 196:2 289:2 332:1 337:2 450:1 451:1 503:1 504:1 596:1 630:1 723:1 795:1 815:2 878:2 1107:3 1167:1 1206:1 1285:1 1624:1 1648:1 2014:1 2055:1 2300:1 2741:1 2822:1 3385:1 3551:2 3564:6 3573:2 3951:1 4805:1 7623:1 7841:3 13462:1 #
-0.0078788280766940322 3:6 4:7 8:1 9:2 12:1 23:2 36:3 41:1 44:1 56:1 58:1 68:1 78:1 86:3 91:4 119:1 126:1 136:1 139:1 146:1 185:1 197:1 346:1 352:1 430:1 503:1 506:1 522:1 596:2 630:3 685:2 695:1 716:1 894:1 1149:1 1269:1 1285:2 1327:1 1329:1 1330:1 1485:1 1672:3 1685:2 1828:1 2122:2 2469:1 2966:1 3083:2 3688:2 5364:1 9507:2 #
-0.01 3:4 4:13 8:2 9:2 12:6 23:2 27:2 36:3 41:3 44:1 46:1 56:2 63:1 78:2 102:1 126:1 150:1 164:1 197:1 219:1 234:1 270:1 302:1 307:1 330:6 331:5 375:1 428:1 452:1 477:1 478:1 630:1 681:1 795:1 828:1 1119:1 1125:1 1217:2 1391:2 1408:1 1475:1 1501:1 1502:1 2132:1 2175:1 2190:1 2369:1 2647:1 3076:1 3180:2 3385:1 5307:1 6568:1 7000:1 14583:3 14897:3 15928:1 25394:1 80582:1 80583:1 #
0.0014444685518177922 4:1 8:1 9:1 12:5 36:2 46:1 56:1 68:1 185:1 243:1 447:1 449:2 464:1 509:1 796:2 875:1 1009:1 1193:1 1867:1 1899:1 2528:1 2587:1 2673:1 3071:2 3854:1 8717:1 9563:4 18778:1 24225:1 #
-0.0011746138212677007 4:3 8:1 12:2 17:1 36:1 41:1 44:1 108:1 119:1 131:1 196:1 230:1 236:1 244:1 346:1 371:1 434:1 564:1 610:1 1072:1 1238:1 1287:1 1342:1 1447:1 1998:1 2202:1 2205:1 2411:1 3309:1 5307:1 5585:1 6840:2 7052:1 9534:1 15337:1 #
0.0031413806937238171 3:6 4:11 7:1 8:1 9:3 10:1 12:7 21:1 23:1 29:1 36:6 41:1 46:1 51:1 56:5 58:2 63:1 64:1 91:1 138:1 145:1 185:1 242:1 248:1 256:1 327:2 346:2 375:2 395:1 486:1 533:1 570:1 592:1 623:1 626:1 727:1 774:1 784:2 795:4 801:1 932:2 998:1 1003:3 1015:1 1113:1 1149:1 1231:1 1238:1 1334:1 1357:1 1391:1 1414:3 1505:1 1564:1 1618:1 1922:1 1985:1 2174:1 2313:1 2349:1 2386:2 2469:1 2494:1 2504:1 2516:4 2522:1 2524:2 2525:2 2526:2 3357:1 3594:1 4263:2 4312:1 4676:1 4915:4 5062:1 5554:1 6281:1 6736:2 6984:1 7020:1 7082:2 7702:1 7746:2 11238:2 17400:2 17401:3 17402:1 17403:4 17404:2 17405:1 #
-0.00030509521672617039 3:2 4:2 8:1 11:1 12:2 23:1 27:1 36:2 60:1 64:1 67:2 91:8 97:2 185:3 282:1 314:1 375:1 465:1 570:1 590:1 633:1 699:1 741:1 794:3 904:1 957:1 972:1 973:1 1036:2 1147:1 1254:1 1377:1 1500:1 1924:1 1996:1 2007:1 2359:1 2561:1 2978:1 3807:1 4578:1 4662:1 5028:1 5826:1 6460:1 6614:1 6960:1 7600:1 8023:1 8949:1 10539:2 10727:1 10978:2 13875:1 19304:1 21857:1 23281:1 30694:1 40895:1 87325:1 #
-0.0019372345294016997 4:1 8:1 9:1 12:1 23:2 51:2 185:1 189:1 206:1 260:1 390:1 406:1 483:1 557:1 591:1 723:2 735:2 1844:1 1937:1 3483:2 6828:2 6939:1 10975:1 27981:2 77621:2 #
-0.00061587253151149882 3:1 4:9 8:1 9:1 10:1 12:3 23:1 27:2 33:1 36:1 40:1 41:1 44:3 46:1 51:1 58:1 83:1 90:1 119:1 175:2 196:1 225:1 277:1 319:1 418:1 419:1 428:1 497:2 517:1 625:1 654:1 669:1 794:2 842:1 887:2 904:1 1014:1 1255:1 1338:1 1372:1 1690:1 1828:1 1968:2 1984:1 1998:1 2116:1 2187:1 2418:1 2566:1 3032:1 3243:1 3747:1 3865:1 4243:1 4372:2 5082:1 5322:1 5595:2 5727:1 6057:3 6775:2 6793:1 7623:1 8321:1 8910:1 16215:1 51928:1 73076:1 94358:1 #
-0.0036910380465294199 4:1 8:1 36:1 107:1 165:1 167:1 1507:1 1681:2 1833:1 2637:1 2906:1 4273:1 10482:1 #
-0.01 3:3 4:6 8:1 12:4 23:1 28:1 44:4 58:1 59:1 80:2 91:2 107:1 131:1 189:1 214:1 233:1 244:1 277:1 314:2 391:1 428:1 458:1 467:1 682:1 735:1 834:1 904:1 908:1 1145:1 1254:2 1285:2 1361:1 1834:1 1899:1 2002:1 2301:1 2469:1 2561:1 2718:2 2770:1 2978:2 3133:4 3671:1 5663:1 7134:1 10537:1 12090:1 25867:1 34602:1 94782:1 #
0.01 4:4 8:1 9:2 12:6 23:2 36:2 41:2 44:1 46:1 56:1 97:1 170:1 185:2 188:1 243:1 244:1 247:1 248:1 289:2 314:2 319:1 339:2 390:2 392:1 433:1 454:1 482:1 654:1 659:1 669:1 721:1 828:1 923:1 989:1 1193:1 1246:2 1346:1 1510:2 1622:1 1635:1 1731:1 1823:2 1893:1 2276:1 2373:1 2589:1 2980:1 3038:1 3112:1 3581:1 6284:1 6554:3 6625:1 7547:1 9385:1 23787:1 41363:1 41364:1 41365:1 41366:1 #
0.0081891252908073298 4:1 8:1 12:2 14:1 23:3 36:1 41:1 44:1 51:1 56:2 63:2 80:1 91:1 104:1 108:1 121:1 145:1 168:1 173:1 196:1 244:1 258:1 309:1 327:1 461:1 622:1 630:2 719:2 781:1 903:1 1006:1 1175:1 1190:1 1200:1 1271:3 1305:1 1708:1 2072:3 2123:1 2499:1 2547:1 3051:1 3099:1 3480:1 4293:1 4454:1 4924:1 5051:1 5052:1 5053:1 7943:1 8103:1 17484:1 18464:1 19513:1 27997:1 39238:1 40505:1 56835:1 92971:1 92972:1 92973:1 #
0.00055227475140900311 3:2 4:16 7:2 8:1 9:3 12:9 23:4 28:1 36:4 41:1 44:3 48:1 51:3 56:1 58:2 63:1 76:1 78:1 91:2 107:2 119:1 126:1 138:1 139:1 147:1 164:1 175:2 177:1 185:5 196:2 197:1 203:1 214:1 222:1 244:1 287:2 289:4 365:1 380:2 396:1 409:1 426:1 442:1 450:3 454:2 477:2 504:3 567:1 592:2 615:1 795:1 894:1 935:1 1047:1 1116:1 1145:1 1149:1 1184:2 1233:2 1350:1 1590:1 1648:1 1899:2 2014:2 2024:1 2122:1 2440:1 2483:1 2528:1 2690:1 2870:1 2908:1 2963:1 2966:1 2980:2 3089:1 3349:1 3564:7 3939:2 4306:1 4515:1 5234:1 6967:1 7018:1 8582:1 9126:1 9667:1 10200:1 10734:1 13803:1 15507:1 17060:2 20605:1 35238:1 56515:1 91186:2 91187:1 91188:1 #
-0.0001716805881985376 3:2 4:2 8:1 9:1 10:1 12:6 23:1 36:1 44:1 80:1 91:3 108:1 164:1 182:2 206:1 954:1 1868:2 2114:2 2769:1 3855:2 3978:2 3984:1 7605:1 8990:1 12681:1 13408:1 14421:1 16641:1 17934:1 21937:1 #
-0.01 4:1 8:1 12:1 23:3 90:1 91:1 175:1 244:1 321:2 330:2 331:2 702:1 1107:1 1293:2 1462:1 1641:1 2131:2 2357:1 3062:1 3357:1 3843:1 4151:1 4270:1 4466:1 14411:1 24682:1 24775:1 #
-0.01 3:2 4:1 8:1 9:1 17:1 51:1 450:1 457:1 467:1 1119:2 1929:2 3887:1 4351:2 11382:1 #
-0.0019548607257238774 3:2 4:7 8:1 9:2 12:5 23:1 36:2 39:1 40:1 44:1 51:1 58:1 68:1 90:2 91:5 97:2 107:1 175:1 177:1 185:1 202:1 229:1 320:1 325:1 383:1 393:1 496:1 659:1 666:1 667:1 828:1 871:2 905:1 946:1 954:2 1124:1 1285:1 1442:1 1502:1 1621:1 1804:1 2275:1 2409:1 2431:2 2950:3 2980:1 3110:1 3973:2 5721:1 6161:1 12925:1 14415:1 15354:1 36523:2 62709:1 62710:1 62711:1 62712:1 62713:1 62714:1 #
0.01 3:1 4:4 8:1 9:3 12:2 14:1 22:1 23:4 36:2 41:3 44:2 46:1 58:2 66:1 70:1 90:1 91:2 97:1 104:1 107:1 131:2 139:3 157:2 167:3 169:1 243:1 346:1 436:1 467:1 522:1 548:1 669:1 682:1 702:3 726:1 1110:3 1169:1 1289:2 1604:1 2002:1 2131:1 2647:1 3094:1 3386:2 3545:1 4328:1 6477:1 14301:1 18645:3 39775:1 39776:1 39777:1 39778:1 39779:1 #
0.01 3:2 4:3 8:1 12:4 17:1 23:1 36:5 41:1 44:1 56:2 58:2 83:4 91:2 99:1 107:1 124:1 126:2 154:1 168:1 172:1 189:1 203:1 234:1 264:1 270:1 319:1 320:1 337:1 452:2 481:2 484:1 497:1 499:1 682:2 695:2 698:1 699:1 727:1 842:1 1021:1 1172:1 1242:1 1350:1 1500:1 1787:1 1846:1 1915:1 1985:1 2814:1 2837:1 2971:1 3082:1 3169:1 3546:1 3860:2 4479:1 4684:2 5820:1 6269:4 7042:2 7586:1 10065:1 18838:1 20094:2 22419:1 39528:1 #
0.0082008798139836941 3:7 4:12 8:1 9:1 12:5 23:1 27:1 36:4 41:1 44:2 56:1 60:1 90:2 91:1 107:1 124:3 164:1 173:1 185:2 189:1 197:1 205:1 207:1 219:1 247:1 261:2 268:1 327:2 330:2 331:2 375:6 439:1 450:1 454:1 455:1 456:1 467:2 556:1 570:1 627:2 658:1 682:1 726:1 727:1 786:1 789:1 834:3 904:1 927:1 933:1 1012:6 1038:1 1039:1 1085:1 1143:1 1184:1 1334:1 1535:1 1592:1 1885:1 1898:2 1924:1 2021:1 2040:1 2617:1 2680:1 2986:1 3162:1 3428:1 3666:2 4007:1 6185:1 6207:1 9555:1 10602:2 11908:1 12304:1 15397:1 15398:1 16621:1 24301:1 31498:1 34844:1 38307:1 81052:1 #
-0.0010062455429408999 3:1 4:8 8:1 9:5 10:1 12:4 23:3 33:1 36:4 41:4 44:2 56:1 78:1 90:1 91:3 139:1 147:1 170:1 175:1 197:1 211:1 214:1 215:2 231:1 233:1 287:2 293:1 383:1 394:1 403:1 410:3 452:2 460:1 467:2 484:1 503:1 672:1 756:1 828:1 881:1 889:1 890:1 897:1 927:1 1047:1 1109:1 1294:1 1309:1 1344:1 1591:1 1592:3 1628:1 1629:1 1788:1 1805:1 2087:2 2347:2 2410:1 2547:1 3047:1 4858:1 4876:1 4904:1 7171:1 8059:1 9055:1 13374:1 17008:1 22079:2 38390:1 89681:1 #
0.01 3:4 4:14 8:1 9:1 12:11 23:4 27:1 36:8 41:2 44:1 51:1 56:4 58:5 59:2 78:1 91:3 97:1 104:1 123:1 140:1 147:1 150:1 154:2 169:2 172:1 173:1 185:1 208:1 231:1 233:1 239:1 243:1 262:2 277:1 308:1 345:2 359:1 365:1 387:2 394:1 396:1 431:1 438:1 439:2 477:1 481:1 482:3 494:1 524:1 533:1 567:1 582:1 647:1 667:1 669:2 690:5 727:2 799:1 842:1 894:1 905:1 946:1 972:2 975:1 1047:1 1055:1 1065:1 1145:2 1165:1 1228:1 1251:1 1262:2 1334:1 1341:1 1349:2 1359:3 1473:1 1475:1 1525:3 1557:2 1590:1 1648:1 1685:1 1764:2 1875:2 1916:5 1958:1 2002:1 2174:1 2219:1 2220:1 2359:1 2674:1 2705:1 3026:1 3028:1 3211:1 3332:1 3581:3 3591:1 3659:1 3706:1 3881:1 4055:1 4259:1 4270:2 4316:1 4522:2 4610:4 4611:1 4612:1 4614:3 4615:3 4616:1 4617:1 4618:1 4624:1 4641:1 4644:1 4938:1 5790:1 6860:1 8323:1 9703:1 11534:1 15697:1 26515:1 35400:1 75394:1 75395:1 75396:2 75397:1 75398:1 75399:1 #
0.01 3:4 4:12 8:1 9:2 12:5 23:2 36:7 41:1 44:5 49:1 56:4 58:7 83:1 91:3 94:2 95:3 97:1 175:1 177:1 185:2 186:1 194:2 214:1 233:1 234:2 243:1 262:1 290:1 314:1 345:9 359:1 365:1 383:2 390:2 406:1 428:1 458:1 467:1 505:1 511:1 570:1 654:2 669:2 681:1 684:1 698:1 707:1 715:1 717:1 721:1 723:2 880:1 894:1 1187:1 1212:6 1490:2 1644:1 1771:1 1805:4 1876:1 1913:2 2002:1 2092:1 2097:1 2347:2 2585:1 2837:1 2852:1 3150:1 3378:1 4032:2 4395:1 4573:1 4609:1 4649:1 5376:1 6041:2 6057:3 6255:1 6567:1 8981:2 9947:1 11209:1 12090:1 13492:4 13956:1 49203:1 65279:1 #
0.01 3:2 4:1 8:1 12:3 23:1 36:1 44:1 91:1 107:1 185:1 236:1 293:2 296:1 393:3 543:1 721:1 727:1 782:1 881:2 1107:1 1251:1 1408:1 1411:1 1664:1 1875:1 2006:1 2014:2 2305:1 2402:1 2581:1 3755:1 7623:1 8963:1 #
0.01 4:6 8:1 12:2 14:1 23:1 44:1 51:1 68:1 91:1 99:1 119:1 121:1 150:1 287:2 325:1 385:1 409:3 482:1 702:1 713:1 727:1 1411:1 1465:1 1571:1 1709:3 1716:1 1932:1 3151:1 3851:1 3876:1 4814:1 4953:1 5003:1 23119:2 32350:2 #
0.01 3:2 4:9 8:1 12:2 23:1 31:1 36:3 41:1 44:3 46:1 51:3 56:1 58:1 63:1 83:1 91:4 119:1 120:1 131:1 154:2 167:1 169:3 185:1 188:1 196:1 203:1 208:2 244:2 277:2 296:2 458:1 497:1 540:2 541:2 570:1 573:1 593:1 601:1 709:1 719:1 842:1 897:1 918:1 1042:2 1236:1 1246:1 1318:2 1323:1 1357:1 1738:1 1867:1 2107:2 2116:1 2304:1 2837:1 2886:1 2913:1 2961:2 3047:1 3099:1 3338:1 3897:1 4223:1 4533:1 4649:1 4676:1 5510:1 5560:1 8390:1 16384:2 21435:1 21436:1 #
-0.00068269157021547805 3:8 4:21 7:2 8:2 9:2 12:15 14:1 17:1 21:2 23:1 27:2 29:1 36:3 41:1 44:1 46:2 51:2 56:5 58:3 60:2 61:1 87:1 88:1 89:1 91:4 95:1 97:4 107:1 119:2 121:2 125:1 126:1 142:2 145:1 150:1 152:1 154:1 167:1 169:2 173:1 175:2 196:3 209:1 234:2 242:1 246:1 264:1 270:1 277:1 319:2 327:1 347:1 358:1 383:1 428:1 438:1 452:2 477:1 499:1 583:1 590:1 618:1 647:1 672:1 674:1 699:1 709:2 811:1 832:1 876:1 878:1 881:1 922:1 1008:1 1033:2 1061:1 1174:1 1193:1 1242:1 1255:1 1260:1 1371:1 1393:1 1443:1 1483:3 1556:1 1681:2 1840:1 1844:1 1899:1 1994:1 2003:1 2250:1 2346:1 2359:1 2544:1 2626:1 2672:1 2769:1 2874:1 2906:1 2924:1 2971:1 3021:1 3099:1 3178:1 3281:3 3528:1 3610:1 3686:1 4073:1 4103:1 4167:1 4211:1 4212:1 4237:1 4396:2 4744:1 5086:2 5667:1 6246:5 6389:3 6531:1 6667:1 7253:1 8323:1 8566:1 8950:1 9863:1 10419:1 14786:1 15500:1 26092:1 27462:1 30089:3 40611:1 41890:1 44469:1 51745:1 53419:6 53420:2 53421:1 53422:1 53423:1 53424:1 53425:1 53426:1 53427:1 53428:2 53429:2 53430:1 53431:1 53432:1 #
0.01 3:1 4:10 8:1 9:3 12:3 14:1 17:1 21:1 23:3 27:1 41:2 44:5 58:4 60:1 69:1 70:1 90:1 91:4 97:1 107:3 131:1 153:3 196:1 197:2 219:1 244:4 302:4 320:1 321:1 337:1 338:1 354:1 359:2 393:1 410:3 428:1 446:1 449:1 455:1 465:3 499:1 541:1 593:1 669:2 697:1 1184:1 1310:1 1362:2 1442:1 1450:1 1591:1 1760:1 2176:1 2410:1 2420:1 3010:1 3089:1 3455:1 3463:1 3620:1 3853:1 3855:4 4310:1 4322:1 4387:1 5027:1 6098:2 6872:1 7137:1 8378:1 22427:1 56062:1 #
0.01 4:4 8:1 11:1 12:3 36:3 46:1 56:2 97:1 109:1 120:2 328:1 330:1 331:1 396:1 570:1 657:1 721:1 790:1 865:1 1020:1 1376:1 1511:1 1563:1 1652:1 1934:2 2680:2 2926:1 3030:1 3234:1 3357:1 3561:1 3791:1 3876:2 5488:1 5871:2 6292:1 12030:1 12072:2 13467:1 13469:2 21859:1 23260:1 27928:1 27929:1 #
0.01 3:4 4:4 7:2 8:1 9:3 12:6 23:1 36:3 44:2 51:1 78:1 107:1 119:1 167:1 169:1 185:1 189:1 206:1 233:1 234:1 242:1 287:3 289:5 293:1 302:1 319:2 383:1 430:1 452:1 524:1 567:2 592:1 628:1 630:2 702:1 721:2 776:1 777:1 923:1 964:2 997:1 1357:1 1507:1 1808:1 2200:1 2489:1 2680:1 3480:1 3597:1 3653:2 3658:1 3689:1 3727:1 3791:1 3856:3 4403:1 7041:2 7070:2 7129:2 7170:1 8799:1 9563:1 28466:1 57492:1 57493:1 57494:1 #
-0.01 3:1 8:1 12:3 23:1 36:1 44:1 46:1 63:3 67:1 97:1 108:3 185:1 289:1 294:1 322:1 467:1 630:3 728:1 905:1 1388:2 2109:1 3569:1 4293:3 5384:1 8463:2 8563:1 #
0.01 3:2 4:2 8:1 9:1 12:1 17:1 23:1 27:1 36:2 41:1 90:1 91:1 113:1 119:1 156:1 175:1 233:1 481:1 630:1 715:1 909:1 1027:1 1338:1 1373:1 1462:1 1672:2 2309:1 2329:1 2830:2 3178:1 3830:1 5697:1 7698:1 8054:2 8458:1 8704:2 11369:1 15541:3 #
0.01 4:3 8:1 12:1 36:1 41:1 46:2 56:2 58:2 91:1 96:2 196:1 236:1 312:1 313:2 569:1 610:1 1143:1 1215:1 1502:1 2131:1 2636:1 2910:2 3053:1 3416:2 4101:1 4399:1 4413:1 4992:1 10958:1 31556:1 62999:1 63000:1 #
0.01 3:4 4:7 7:1 8:1 9:2 12:9 14:1 23:1 27:1 36:2 41:1 44:1 56:2 58:2 91:2 94:1 97:1 107:1 189:2 206:1 233:1 243:2 248:1 270:1 404:4 414:1 557:1 601:1 668:1 704:1 716:1 723:1 904:1 957:1 1052:1 1102:2 1140:1 1143:2 1231:2 1285:2 1320:1 1359:1 1451:1 1618:2 1685:4 1779:2 2693:1 3034:3 3080:4 3222:1 3234:1 3307:1 3386:1 4032:1 4574:1 4585:1 4594:1 4597:1 4816:1 5284:2 6220:1 6859:2 7196:1 7632:1 9494:1 11593:1 13876:1 #
0.01 3:1 4:11 8:1 12:2 14:1 23:4 36:3 41:1 44:2 46:2 90:3 91:5 122:2 154:1 161:1 164:1 167:1 169:1 175:1 197:1 206:1 222:1 250:1 256:1 274:1 277:1 289:1 392:1 452:1 482:3 541:1 606:1 682:1 683:1 807:1 843:1 848:1 904:1 921:1 1026:1 1193:2 1201:1 1257:1 1369:1 1372:1 2161:1 2611:1 2626:1 2783:3 2817:1 2823:2 2865:1 3167:1 3703:1 5920:1 6993:1 12302:1 14480:2 17630:1 17631:1 17632:2 17633:1 17634:2 17635:1 #
0.001668435529860681 3:1 4:2 8:1 12:4 36:1 41:1 56:2 58:1 64:1 68:2 78:1 217:1 236:1 239:1 240:1 302:1 328:3 346:2 454:1 565:2 591:1 727:2 869:1 921:1 1320:3 1442:1 1520:1 1522:1 2126:2 3112:1 6536:1 #
0.008398183106328878 3:5 4:29 7:2 8:1 9:4 12:4 23:8 36:5 41:2 44:1 56:3 58:4 60:2 68:2 70:4 91:6 94:1 117:1 157:2 159:1 165:1 170:1 175:7 188:1 205:1 233:1 243:1 244:1 247:1 248:1 256:2 284:1 320:2 321:5 332:1 346:2 354:1 359:2 374:1 428:1 450:2 456:1 460:1 478:1 497:1 546:1 560:1 565:4 590:1 618:1 625:1 651:1 681:1 702:4 716:2 721:1 777:1 781:1 794:1 799:1 803:1 828:1 842:2 869:1 881:2 916:1 1107:2 1110:3 1125:1 1177:1 1184:1 1293:3 1294:1 1340:1 1347:3 1357:1 1377:1 1443:1 1451:3 1545:1 1638:1 1752:1 1835:1 1924:1 1959:2 1968:1 1979:1 2002:1 2015:1 2116:1 2120:1 2126:1 2131:1 2238:1 2409:1 2725:1 2829:1 2910:1 3010:1 3321:1 3357:1 3727:1 3843:1 3887:1 4127:1 4189:1 4270:5 4292:1 4533:3 4627:1 4763:1 4903:2 4933:1 5114:2 5475:1 5807:2 5811:3 5986:1 6039:2 6928:2 7158:1 9553:1 9984:1 10548:1 10989:2 13528:1 14366:2 16142:1 21076:1 21568:1 41904:1 45977:1 65062:1 65063:1 65064:3 65065:6 #
0.01 3:2 4:4 8:1 12:2 18:1 23:1 33:1 36:1 40:1 41:1 44:5 119:1 125:1 126:1 309:1 314:2 333:3 337:1 350:1 465:1 482:2 625:1 630:2 777:1 842:3 887:2 1055:2 1255:2 1293:1 1547:3 1672:1 2250:2 2260:1 2558:1 2632:1 2751:1 4044:1 4871:1 7867:1 16134:2 #
-0.0022444030408049613 3:2 4:6 8:1 12:5 23:3 31:1 36:1 39:1 41:1 44:2 58:2 63:1 90:1 91:5 97:1 107:2 139:2 154:1 185:1 233:2 256:1 262:3 264:1 277:1 308:1 392:1 489:1 524:1 533:1 543:1 544:1 615:1 626:1 630:4 635:1 638:1 791:2 877:4 881:2 982:1 1485:1 1520:1 1524:1 1828:1 1991:1 2087:2 2108:1 2340:1 2531:1 2560:1 4128:1 5445:1 6150:1 6515:1 8108:1 9092:1 9781:1 12170:1 14848:1 16828:4 17769:1 37256:2 #
0.01 3:5 4:7 8:1 9:1 11:1 12:2 21:2 23:1 28:1 90:1 91:2 107:1 175:3 383:1 395:2 420:1 423:1 445:2 450:2 464:2 585:2 644:1 681:1 699:1 727:1 776:1 1001:1 1030:1 1221:1 1235:1 1354:1 1407:2 1440:1 1507:1 1915:1 1997:1 2035:1 2039:1 2122:4 2125:3 2310:1 2830:1 3830:1 5826:1 6420:1 7157:1 7943:2 9659:2 12123:1 17146:1 17156:1 19867:1 21505:1 #
-0.00027474637074331921 3:9 4:9 8:1 9:3 10:1 12:7 17:1 23:1 27:1 36:6 40:1 41:1 44:1 51:1 56:1 58:1 67:2 74:1 75:1 78:1 90:2 91:3 107:1 119:1 126:1 131:1 173:1 175:1 185:1 233:1 234:1 244:1 247:1 255:1 261:1 277:1 346:2 458:2 465:1 477:1 486:1 494:1 499:2 692:1 695:2 699:1 716:1 723:1 799:2 904:1 994:1 1107:1 1110:1 1205:1 1237:1 1369:1 1465:1 1478:1 1520:1 1549:1 1635:1 1636:1 1645:1 1648:2 1834:1 1867:1 2152:1 2337:1 2534:1 2613:1 2740:1 2810:1 2980:1 3081:1 3357:7 3517:1 4377:1 5357:1 6001:3 6002:3 6187:3 6679:2 6909:3 7630:1 9123:1 9581:2 10631:3 #
0.01 3:1 4:9 8:1 12:2 27:1 28:1 36:3 41:1 51:2 56:1 58:1 87:1 91:3 97:1 107:1 140:1 185:3 208:1 231:1 244:1 318:1 392:1 395:1 396:1 403:1 430:1 452:1 504:1 546:1 593:1 615:2 704:2 904:1 1040:1 1193:1 1215:1 1371:1 1510:3 1544:1 2122:2 2304:2 2313:1 2755:1 3048:3 3062:1 3328:1 3401:1 3503:3 3507:1 3580:1 3903:3 4091:2 4129:1 4306:2 5716:1 8582:1 9228:1 10079:2 11582:1 12914:1 21021:1 24762:1 #
-0.0018499541297289676 3:5 4:19 8:1 9:2 12:17 17:2 21:2 23:10 24:2 27:8 28:1 30:1 36:5 41:1 44:3 51:4 56:1 60:2 63:2 66:1 67:1 68:1 70:1 80:1 90:4 91:14 94:6 107:2 119:2 121:1 126:1 138:1 145:1 173:1 175:1 177:1 179:1 185:1 196:1 200:1 203:2 214:1 234:1 243:1 244:2 246:1 247:1 250:1 259:1 289:5 294:1 304:1 321:2 325:1 330:5 331:3 345:5 346:1 386:1 390:1 428:2 442:1 450:4 456:2 467:1 477:1 480:1 489:1 497:1 503:3 509:1 570:1 578:1 618:4 625:1 630:2 681:1 828:1 904:1 997:1 1052:2 1060:1 1119:2 1168:1 1184:1 1193:1 1212:4 1233:2 1246:1 1344:1 1347:2 1353:1 1369:1 1388:1 1508:1 1677:1 1731:1 1760:1 1824:1 1899:1 1923:1 2109:1 2126:2 2131:2 2240:1 2267:1 2322:1 2359:1 2363:7 2420:1 2563:3 2572:3 2971:1 3357:1 3500:1 3561:1 3634:3 3806:1 3884:2 4055:1 4077:2 4180:1 4219:1 4302:4 4475:2 5297:1 5963:1 6182:1 6257:2 6425:1 6582:1 7134:5 7478:2 7759:1 7897:1 7905:2 8509:1 8743:1 9532:1 9550:1 11369:1 11696:1 12179:1 13076:1 14875:1 30526:1 54450:1 #
-0.01 3:2 4:10 8:1 12:3 23:2 36:6 41:1 51:2 58:1 67:2 71:1 78:1 90:1 126:1 145:1 152:1 175:1 185:2 217:1 236:3 244:3 289:2 336:1 352:1 353:1 365:1 383:1 386:2 406:1 459:1 466:3 477:2 481:2 482:1 504:1 630:2 709:1 922:1 933:1 1172:1 1269:1 1465:1 1521:1 1657:1 1667:1 1700:2 2014:2 2109:3 2266:1 2333:1 2369:1 2810:1 2983:1 3372:1 3505:1 3937:1 5324:1 5442:1 6126:1 6836:1 7171:1 8644:1 8823:1 10716:1 11791:1 37581:1 #
-0.0023411033543866565 3:2 4:3 8:1 12:3 17:1 27:1 41:1 44:2 58:1 90:1 97:1 107:1 113:1 119:1 185:1 262:1 554:1 567:1 1294:1 1464:1 2006:1 2049:1 2974:3 3178:1 4584:1 5124:3 9725:3 9726:3 10413:1 11369:1 26432:1 34427:1 65749:1 76131:1 #
-0.01 3:3 4:5 8:1 9:3 12:3 23:1 27:1 28:1 36:2 41:1 42:1 51:1 56:1 58:4 59:1 68:1 69:1 70:1 78:1 84:1 91:3 95:1 97:2 130:2 167:1 197:1 203:1 244:3 248:2 255:1 261:1 320:1 332:1 337:1 346:2 417:1 426:1 451:1 480:1 481:1 482:1 484:1 504:2 593:1 596:2 706:1 714:1 723:1 776:1 815:1 909:1 929:1 994:2 1079:1 1116:1 1143:1 1167:1 1236:1 1327:1 1373:4 1400:1 1485:1 1648:3 1667:3 2342:2 2532:1 2722:1 3602:4 3656:1 3827:1 4248:1 4912:1 5047:1 6004:1 6558:1 9403:1 9404:1 10074:1 11821:3 12885:2 32720:2 57308:1 #
0.01 3:2 4:6 8:1 12:4 23:1 30:1 36:5 40:1 46:1 51:2 66:1 97:1 140:1 147:1 167:1 169:1 185:1 214:1 231:2 233:1 234:1 243:1 255:1 259:1 289:1 333:1 480:1 518:1 524:1 612:1 615:3 630:5 721:1 736:1 845:3 994:5 1006:1 1014:1 1018:1 1181:1 1287:1 1359:1 1500:1 1505:2 2011:1 2049:1 2250:1 2449:1 2585:1 2767:1 3052:1 3081:1 3100:1 3471:1 3512:2 3543:1 3703:1 3778:1 4151:1 4361:1 4788:1 5176:1 6849:1 9076:1 14363:3 19095:1 25147:1 25388:1 35502:1 39395:3 39397:1 42309:1 43539:1 70564:1 70565:1 70566:1 70567:1 70568:1 70569:1 70570:1 70571:1 #
-0.0052929831231751925 3:3 4:13 7:3 8:1 12:5 21:2 23:3 36:5 40:1 41:2 44:5 56:2 58:2 60:1 76:1 86:1 88:1 90:1 91:3 97:2 107:1 108:2 120:1 140:1 154:1 168:1 173:1 175:2 185:1 196:1 203:1 207:1 208:1 212:1 213:1 234:1 256:1 277:1 302:2 309:3 318:1 320:1 352:2 365:2 380:1 385:1 399:1 401:1 429:1 430:1 466:1 481:3 486:1 565:3 578:1 653:6 838:1 878:2 920:1 1145:1 1235:1 1267:1 1310:1 1327:1 1338:1 1555:2 1823:1 1835:2 1892:1 2022:1 2024:1 2079:1 2238:1 2313:1 2349:1 2693:1 3029:1 3089:1 3223:1 3726:2 3751:1 4321:1 4466:3 6435:1 6564:1 7238:1 7260:1 7491:2 8513:1 8690:1 8835:1 9187:2 9678:1 11821:4 12329:1 12914:1 13433:2 15269:1 15270:1 16091:1 55722:1 55723:2 55724:1 55725:1 55726:1 #
0.01 3:3 4:5 8:1 12:2 21:1 23:1 36:1 67:1 70:2 78:1 90:1 125:1 173:1 179:2 239:1 309:1 346:1 383:1 435:2 548:1 615:1 630:1 692:1 695:1 723:1 799:1 904:1 1025:1 1047:4 1408:1 1634:1 1938:1 2105:1 2199:1 2440:1 2455:2 2548:2 2910:1 2980:1 3009:1 3589:3 3865:1 4522:1 5769:1 12508:1 19807:2 20594:1 22600:1 47417:1 60671:1 68234:1 68235:1 68236:1 68237:1 68238:1 68239:1 68240:1 #
-0.01 4:1 8:1 12:9 22:2 23:2 36:6 41:1 44:1 58:1 91:7 119:2 131:1 185:1 255:1 277:1 321:2 328:4 330:1 331:1 390:1 404:1 450:1 570:1 727:1 799:1 1096:2 1252:1 1254:1 1339:1 1730:1 1819:1 1893:1 2547:1 3089:1 3500:1 3561:1 3634:1 3656:1 3722:1 4816:1 4950:1 5588:1 6492:1 6839:1 8238:1 13205:1 15899:1 25086:1 54212:1 54213:1 54214:3 71490:1 86984:1 86985:1 #
-0.0015670033543912375 3:3 4:11 7:2 8:1 12:4 17:1 23:1 27:1 36:1 41:1 44:2 50:1 51:1 56:1 58:2 107:1 119:1 131:1 138:1 152:1 173:1 230:1 314:1 346:2 398:2 428:1 454:1 478:1 610:2 663:1 705:1 799:2 846:3 865:1 1206:1 1254:2 1362:1 1402:1 1464:1 2015:1 2980:1 4843:1 5305:1 6004:1 6780:1 8752:1 28396:1 28397:1 80786:5 85516:1 85517:1 #
-0.0075536905415789354 3:3 4:8 8:1 12:5 23:1 27:1 40:1 46:1 51:1 63:1 71:1 83:1 91:3 97:2 107:1 138:1 154:1 169:1 175:2 185:1 196:1 231:1 239:2 240:2 243:1 284:1 540:1 543:1 590:1 601:1 699:1 701:1 922:1 926:1 933:1 975:1 1124:1 1254:1 1318:1 1381:4 1462:1 1675:1 1738:2 1742:1 2015:1 2088:1 2108:1 2175:1 2266:1 2532:1 2558:1 2963:1 2986:1 3125:1 3429:1 4567:1 4591:1 4835:1 4991:2 5028:1 6292:1 9517:1 14699:1 30159:2 46556:1 90037:1 #
0.0083868812341420847 3:2 4:7 8:1 9:2 12:6 17:2 23:3 36:4 41:3 56:1 80:1 81:1 83:1 90:1 91:4 121:1 141:1 167:1 175:2 248:1 259:1 309:3 342:1 350:1 477:1 497:1 777:1 923:1 927:1 1054:1 2003:1 2189:1 2218:2 2284:1 2322:2 2421:1 2635:2 3222:1 3529:1 3792:4 3830:1 3914:1 4029:1 4535:1 7227:3 7321:1 7955:2 8043:1 8786:1 10989:1 13099:1 16883:2 19699:2 22822:1 23018:1 25465:1 29578:1 35506:2 39563:1 46472:2 75987:1 75988:2 75989:1 #
-0.01 3:6 4:9 7:1 8:1 12:13 17:2 21:1 22:1 23:1 27:4 36:8 39:1 41:2 42:1 44:7 63:1 68:3 90:1 91:15 97:2 119:2 131:2 157:2 159:1 177:1 186:1 188:2 244:1 259:1 277:2 309:1 314:1 321:4 328:1 330:2 331:1 339:1 345:1 346:3 383:1 392:1 404:1 450:1 451:1 452:1 464:1 502:1 504:2 518:1 570:1 593:1 654:2 704:1 709:4 1119:1 1214:1 1339:1 1586:1 1648:1 1835:1 1846:1 1855:2 2029:2 2126:3 2132:3 2309:1 2535:1 2563:1 2572:2 2624:2 2763:2 2794:1 2810:1 2926:1 3038:1 3167:1 3222:3 3403:1 3411:1 3500:1 3551:1 3656:1 3722:1 3813:1 3959:1 4432:1 4763:1 4839:1 4870:1 4889:1 4992:2 6582:1 7768:1 8290:1 10527:1 11360:1 13205:1 13325:1 20513:1 #
0.01 4:1 8:1 9:2 12:3 17:1 19:1 21:1 23:1 27:1 33:3 36:2 41:2 66:1 90:1 91:1 104:1 139:1 175:2 185:1 214:1 217:1 233:1 383:1 477:1 541:1 583:1 616:1 679:1 706:1 1009:1 1168:1 1257:1 1346:1 1347:1 1348:1 1377:1 1500:1 1505:1 1562:1 1751:1 2097:1 2305:1 2359:1 2725:1 2832:2 3361:1 3804:1 4547:1 4623:1 6535:1 6644:1 7440:2 8045:1 11070:1 15503:1 51115:1 51116:2 #
0.01 3:2 4:6 8:1 9:1 12:5 21:1 23:1 36:1 44:2 46:1 56:1 58:1 75:1 77:1 90:1 91:1 130:1 185:1 216:1 234:1 244:1 277:3 327:1 518:1 524:1 695:1 799:1 1547:1 1605:1 1625:1 1916:1 1929:2 1940:1 2097:1 2241:1 2256:1 2505:1 2544:1 2725:1 2831:2 3099:1 3191:1 3386:1 3797:1 3884:1 4107:1 4999:1 5379:2 7321:1 7354:1 12546:1 21384:1 30128:1 34350:2 50732:1 64946:1 74907:1 #
0.01 3:1 4:5 8:1 9:1 12:3 23:1 27:1 28:1 36:2 41:1 44:2 56:1 58:1 75:1 97:1 116:1 140:1 188:1 203:1 404:1 578:1 681:1 715:1 840:1 859:1 1027:1 1040:1 1246:1 1349:1 1657:1 1659:1 2014:1 2109:1 2822:1 3279:1 5092:1 5230:1 7221:2 7905:1 #
-0.01 3:1 4:2 8:1 12:1 23:1 36:1 175:1 262:1 486:1 488:1 497:1 541:1 1091:1 1107:1 1236:1 1973:1 1980:1 2122:2 4273:1 4388:1 4713:1 10482:1 #
0.01 3:1 4:7 7:1 8:1 9:1 12:1 23:4 28:1 36:7 41:1 44:2 56:1 58:1 61:1 90:1 91:1 116:1 175:1 197:1 203:1 244:1 247:1 289:1 325:1 327:2 365:1 481:1 570:1 615:1 685:1 714:1 741:2 795:2 916:1 1107:1 1174:1 1371:1 1373:1 1690:1 1893:1 2030:1 2075:1 2113:2 2342:1 2560:1 2562:1 2693:3 2728:1 2793:1 2870:1 3008:1 3112:1 3634:1 3906:1 4161:1 4381:1 4682:1 4749:2 5039:1 6132:1 6686:1 7146:1 7665:3 8746:1 17466:1 41752:1 58533:3 58534:1 58535:1 58536:1 58537:1 58538:1 #
0.01 3:4 4:6 8:1 12:8 23:2 29:1 36:6 41:1 44:6 46:1 49:1 56:2 58:4 66:1 68:1 76:1 91:4 94:1 95:1 119:2 120:3 131:1 145:2 167:1 185:1 188:1 216:1 217:1 243:1 244:1 277:1 296:1 318:1 325:1 351:1 374:1 383:3 396:1 452:1 524:1 570:1 591:3 709:2 756:1 1286:1 1369:1 1398:1 1408:1 1569:1 1835:1 1920:1 1987:3 1996:1 2029:1 2108:1 2112:1 2218:1 2309:1 2822:1 2928:4 3037:1 3082:1 3569:1 3628:1 4450:1 4767:1 5628:2 6005:2 6567:1 10149:1 11356:2 22559:2 32386:4 32388:1 38167:1 54459:1 72681:1 88810:1 88811:1 88812:1 #
0.01 3:2 4:5 8:1 9:4 12:4 17:1 21:1 23:3 27:1 36:2 41:4 44:4 56:2 59:1 90:1 91:2 94:1 95:3 97:1 107:2 119:1 126:1 131:1 133:4 170:1 173:1 175:3 179:2 197:1 330:4 331:4 345:1 458:1 650:1 682:1 776:1 843:1 881:1 916:1 944:1 1060:1 1259:1 1329:1 1339:1 1485:1 1633:4 1695:1 1769:1 1795:1 1899:2 2049:1 2052:1 2132:1 2171:1 2276:1 2301:1 2342:1 2379:1 3081:1 3169:1 3990:1 4077:1 4211:1 4458:1 4484:1 5363:1 8911:1 9186:1 9683:1 10333:1 11841:1 15239:2 19084:1 21746:1 23467:1 28844:1 43043:1 44444:1 58981:1 #
-0.0015057924489693109 3:5 4:9 8:1 9:3 12:5 17:1 18:1 23:3 27:1 36:6 41:2 44:3 46:4 51:4 56:1 58:2 59:2 60:1 91:5 97:1 145:1 167:1 185:2 188:3 206:1 234:1 242:1 243:1 248:1 286:1 289:1 293:1 331:1 344:1 346:1 408:2 411:2 431:1 486:1 502:1 524:1 582:1 594:1 604:1 610:1 619:1 630:1 638:1 682:2 693:1 694:1 695:7 795:3 815:1 846:2 881:1 899:4 913:1 920:1 1021:1 1045:1 1090:1 1119:2 1144:3 1146:1 1158:1 1189:1 1207:1 1334:1 1350:1 1622:1 1728:2 1771:1 1893:1 1923:2 2467:2 2603:1 2728:6 3055:1 3448:1 3506:1 3608:1 3651:1 3702:1 3716:1 3823:1 3824:2 3937:1 4129:1 4542:1 4982:1 5156:1 5551:2 6369:1 7128:1 10540:1 10952:1 20095:1 22840:1 62778:1 67843:1 89587:1 94312:1 94313:1 94314:1 94315:1 94316:1 94317:1 94318:1 94319:1 #
0.01 4:2 8:1 12:2 91:1 287:1 417:1 436:1 782:1 1571:1 1905:1 2223:1 2318:1 2562:1 3279:2 90301:1 90302:1 90303:1 90304:1 #
0.01 4:3 8:1 12:1 23:1 58:1 91:1 107:1 255:1 302:1 840:1 2122:2 2223:1 4189:1 6220:1 7623:1 20235:1 45173:1 80443:1 #
0.01 3:1 4:2 8:1 9:1 12:1 21:1 44:1 58:2 73:1 91:3 97:3 175:1 185:1 205:1 308:1 345:4 346:1 358:1 439:1 524:2 533:1 695:2 1453:1 1668:1 1752:1 2978:2 3309:2 4153:1 5013:1 6003:1 6139:1 6150:1 7568:1 10603:1 11114:2 12089:1 12376:1 13046:1 16419:2 16641:1 #
0.01 3:2 4:3 8:1 9:1 12:6 19:2 23:7 36:6 44:1 46:1 56:3 58:2 61:1 68:1 90:1 91:4 97:1 107:1 138:1 164:1 175:1 185:1 209:2 277:1 281:1 290:1 308:1 327:3 438:1 457:2 509:1 511:1 541:4 598:1 698:1 706:2 721:2 723:2 755:1 801:2 843:1 904:1 1294:1 1309:1 1338:1 1376:2 1485:1 1502:1 1835:2 1962:1 1972:1 1979:4 1983:2 1998:1 2019:1 2199:1 2212:1 2328:1 2638:1 2961:1 3136:1 3349:1 3446:1 3879:1 3933:1 4973:1 5345:1 5425:2 5516:1 5972:1 6267:1 6431:1 6536:1 7364:1 7547:3 7550:1 10705:1 11679:1 12037:1 13964:1 14566:1 15781:1 17463:1 19801:1 22537:1 27216:1 27569:1 30081:1 41270:1 60705:1 62833:1 68933:1 68934:1 68935:1 #
-0.01 3:2 4:6 8:1 9:1 12:6 23:2 27:1 36:2 44:2 51:3 56:1 58:2 70:1 91:5 287:1 289:2 320:1 332:1 346:2 355:2 383:1 389:1 403:1 412:1 450:1 481:1 497:1 504:2 523:1 592:1 630:2 674:1 721:1 728:1 795:2 818:2 871:1 897:1 1014:1 1113:1 1189:1 1285:2 1347:3 1356:1 1400:1 1547:1 1625:1 1648:2 1653:1 1672:1 1839:1 1968:2 2093:1 2123:1 2275:1 2399:1 3573:1 3574:1 3634:1 3806:1 3842:2 3884:1 4416:1 7291:1 18160:1 19490:1 #
0.01 4:1 8:1 12:1 36:1 51:1 67:1 91:3 107:1 154:1 169:1 175:1 209:1 277:1 452:1 464:1 723:1 832:1 1305:1 1356:1 1507:1 4170:1 8961:1 9454:1 10482:1 35516:1 40349:1 52552:1 52553:1 68112:1 68113:1 #
0.01 4:4 8:1 9:1 12:3 24:1 34:1 36:3 41:1 44:1 58:2 91:1 236:1 244:1 265:1 320:1 509:1 618:1 1174:1 1305:1 1844:1 1910:1 2667:1 2746:1 3994:1 4595:1 5442:1 11481:1 16583:1 22477:1 24139:1 44490:1 44491:1 #
-0.00032164407908801419 3:1 4:3 8:1 9:2 23:2 36:6 145:1 185:1 188:2 206:1 234:1 247:1 393:1 434:2 509:1 714:2 905:1 1150:1 1193:2 1318:1 1844:1 2111:1 2625:1 3849:1 3850:1 4712:2 7361:2 7508:3 8340:2 9187:1 11539:1 #
0.01 3:2 4:2 8:1 9:1 12:4 21:1 23:1 29:1 35:1 36:2 51:1 56:2 58:1 82:1 90:1 91:2 97:5 101:1 107:3 173:1 204:1 255:1 264:1 302:1 335:1 370:1 406:1 438:1 453:1 467:1 478:1 553:1 565:1 588:1 803:2 825:1 832:1 842:1 859:1 869:1 873:1 978:1 1061:1 1096:1 1350:1 1454:2 1536:1 1716:2 1846:2 1899:1 1933:1 2036:1 2174:1 2494:1 2560:1 2782:1 2879:2 3429:3 3438:3 3445:3 3806:1 4017:2 5455:1 6706:1 7952:1 8307:1 8856:2 10419:1 10515:1 11299:1 13132:1 75095:2 75101:1 80096:2 80097:1 80098:1 #
0.01 3:1 4:6 8:1 10:1 12:3 21:1 23:3 33:1 36:5 44:3 51:1 56:3 68:2 83:2 91:1 97:2 126:1 165:1 185:3 196:1 219:1 236:1 243:1 277:1 323:1 342:1 365:1 396:1 429:1 524:1 557:1 593:1 630:1 708:1 709:1 715:2 724:1 727:1 799:3 855:3 1361:1 1445:1 1522:1 2109:1 2126:2 2398:1 2911:1 2929:1 2940:1 3167:1 3797:1 3847:1 3876:2 4017:1 4063:1 4799:1 5562:1 59630:3 #
0.01 3:2 4:16 8:1 9:1 12:7 19:1 21:1 23:4 24:1 27:1 36:5 41:1 44:2 46:1 56:2 58:3 90:1 91:4 107:1 154:1 169:1 179:1 185:9 203:1 205:1 208:1 233:1 234:1 243:2 244:1 262:1 287:5 308:1 314:1 320:1 332:1 344:1 411:1 412:1 467:1 477:2 480:1 548:1 555:1 556:2 594:1 602:2 630:1 632:3 657:4 669:1 681:1 810:1 834:4 843:1 889:1 909:1 935:1 978:1 1003:2 1043:5 1092:2 1107:2 1114:1 1172:1 1193:1 1224:1 1485:2 1505:1 1828:2 1835:1 1874:1 2003:1 2469:1 2519:4 2549:1 2844:1 2874:1 2986:2 3136:2 3550:1 4164:1 4218:1 4285:4 4413:1 4915:1 5413:1 6780:1 7020:4 7083:1 7565:1 8348:1 9132:1 19293:1 19294:1 19295:1 19296:1 #
-0.008815527820722157 3:4 4:9 7:2 8:1 9:1 12:8 21:1 23:1 24:3 36:2 41:1 44:4 56:3 58:2 64:1 66:1 108:1 119:1 131:1 206:1 243:1 351:1 359:1 482:1 630:1 719:2 728:1 1131:1 1234:1 1346:2 1359:3 1415:1 1632:1 1664:1 1707:1 1862:2 1995:1 2003:1 2111:1 2649:1 2795:1 3332:1 3415:2 3429:2 3659:1 3881:3 4032:1 4067:2 4312:1 4858:1 5090:2 5554:1 5562:1 8769:1 9438:2 9696:1 11131:1 13204:1 15004:1 24539:1 25960:1 48487:1 70516:1 #
0.01 3:3 4:6 7:1 8:1 23:1 44:1 56:1 107:1 113:1 140:1 346:2 404:5 427:1 591:1 610:2 715:1 1052:3 1372:1 4055:1 4721:1 5663:1 62378:1 #
-0.0078269997033609609 3:9 4:36 8:1 9:4 10:1 12:9 17:2 21:1 23:8 36:5 39:1 40:1 41:5 44:3 56:1 58:1 59:3 64:2 74:1 78:2 86:1 90:4 91:2 97:1 107:7 108:1 119:3 126:1 130:3 133:1 139:1 154:1 169:1 175:1 179:2 185:2 188:3 189:1 207:3 244:2 247:1 265:1 277:2 287:1 321:1 323:1 338:1 365:1 374:1 383:1 389:1 395:2 425:1 428:1 477:1 503:1 504:5 518:1 565:2 567:3 570:2 594:1 596:3 630:2 654:1 682:1 784:1 838:1 894:1 998:1 1079:1 1107:1 1118:2 1143:1 1145:2 1209:1 1212:1 1269:1 1294:2 1338:1 1346:1 1371:2 1399:1 1408:1 1414:1 1507:1 1576:1 1619:1 1648:1 1899:1 1937:1 1942:2 1968:1 1997:1 1998:1 2029:1 2086:2 2165:1 2316:1 2369:1 2532:1 2566:5 2580:1 2631:2 2874:1 2980:5 3047:1 3053:1 3142:1 3505:1 3655:1 3755:3 3797:5 3845:1 4170:1 4224:1 4248:2 4249:7 4433:1 4551:1 4649:1 4920:1 4960:1 5114:1 5124:1 5218:1 5248:2 5690:1 6407:1 8425:1 8839:1 8840:1 9678:1 10031:1 10272:1 10273:1 10274:1 10275:1 10276:1 10277:1 10278:1 10279:2 10280:1 10281:1 10282:1 10283:1 10284:1 #
-0.01 3:2 4:14 8:1 12:6 20:1 23:1 36:5 44:1 51:1 56:2 58:3 59:1 68:1 91:1 120:2 167:1 175:1 177:1 188:2 307:1 325:1 346:3 383:1 450:2 504:3 567:1 570:1 573:1 615:2 654:1 698:1 699:1 709:2 887:2 1047:1 1136:1 1143:1 1327:1 1337:1 1347:3 1786:1 1818:1 1966:1 1998:1 2110:1 2126:1 2301:1 2374:1 2544:3 2929:1 3000:1 3500:1 3576:2 3577:2 4238:1 4277:1 4412:1 4486:1 4540:1 4711:1 5158:3 8177:2 8516:1 12972:1 41434:1 41435:1 41436:1 41437:1 41438:1 41439:1 41440:1 #
-0.0055138704166029567 3:3 4:7 7:1 8:1 12:4 17:1 18:1 21:2 23:3 24:1 36:4 44:1 56:1 58:1 70:1 76:2 91:1 107:1 121:1 132:1 136:1 140:1 185:1 196:1 234:1 277:3 289:1 383:1 390:1 404:1 428:1 486:1 524:1 541:1 565:2 567:1 592:1 596:1 715:1 782:3 1014:4 1239:1 1254:3 1326:2 1334:4 1339:1 1606:1 1608:1 1858:1 1874:1 2002:1 2010:1 2116:1 2603:1 2887:2 3561:1 3841:1 4120:1 5313:1 5411:1 7632:1 7652:1 8943:1 11979:1 12060:1 13046:1 13581:1 18998:1 19380:1 99083:1 99084:1 #
-0.00060234676530825451 3:4 4:14 8:1 9:4 12:6 36:8 41:2 44:2 48:1 56:1 58:4 80:1 86:2 88:1 91:2 98:1 107:1 167:1 175:6 179:2 185:2 197:1 206:3 231:1 233:2 242:1 243:1 247:1 259:1 513:1 514:1 546:1 557:1 593:1 668:4 670:1 672:2 683:2 723:1 985:1 1143:1 1189:1 1193:1 1217:1 1329:1 1346:1 1408:1 1507:3 1518:1 1596:3 1664:1 2095:1 2110:1 2225:1 2535:1 2934:1 2935:1 3059:1 3062:1 3185:2 3714:3 3820:1 4246:1 4644:1 4766:1 4849:2 6135:1 6221:1 6229:2 6272:1 6602:1 7184:2 7854:5 9777:1 12248:1 12249:1 12849:1 13968:1 17037:1 31198:2 32242:1 32243:1 32244:1 32245:3 32246:3 32247:3 32248:1 32249:1 32250:1 32251:1 32252:1 #
0.01 3:7 4:9 7:4 8:1 9:1 12:9 23:6 27:2 36:11 46:1 51:2 58:1 64:1 67:7 108:1 145:1 177:1 196:2 208:1 220:1 244:1 262:1 302:1 342:1 344:2 345:1 371:1 428:1 477:1 506:1 509:1 625:1 630:1 704:2 710:1 716:1 726:2 775:1 782:1 803:1 805:1 836:1 895:1 905:1 916:1 919:1 1014:1 1055:2 1252:1 1267:1 1301:1 1361:2 1373:1 1407:1 1478:1 1771:1 1804:1 1998:1 2055:1 2109:1 2261:1 2310:1 2322:1 2333:1 2469:1 2647:1 2648:5 2784:1 2818:1 3047:1 3052:1 3100:1 3210:2 3211:2 3212:4 3234:2 3661:1 3738:2 4071:2 4262:2 4412:1 4574:3 4725:1 4946:1 5278:1 5699:1 5991:1 6226:2 6619:1 6736:2 6952:1 7529:1 14622:1 18664:1 18665:1 18838:1 19178:1 20597:1 22862:1 25974:1 27848:1 27849:1 27850:3 27851:3 27852:1 27853:1 27854:1 27855:1 27856:2 #
0.0055024578022679427 3:2 4:9 7:1 8:1 9:1 12:4 21:1 23:1 36:2 39:2 44:1 51:2 58:2 60:1 78:1 91:3 107:2 167:1 196:1 205:1 233:1 244:1 250:3 258:1 264:1 269:1 337:1 454:1 456:1 541:1 587:1 591:1 598:1 603:1 610:2 736:1 783:2 791:4 1015:1 1060:1 1245:1 1254:1 1255:1 1257:2 1534:1 1649:1 2087:1 2421:1 2469:1 2611:3 2613:1 3197:1 3374:1 3676:1 3861:1 4237:1 4238:1 4835:1 4851:1 5354:1 5501:1 6515:2 6635:1 7557:1 7618:1 8237:1 77618:1 #
0.0030837725611300155 3:2 8:1 12:4 23:1 36:2 40:1 41:1 44:1 51:1 56:1 58:2 87:1 90:1 91:1 95:1 119:1 124:1 145:1 164:1 233:1 234:1 244:1 279:1 289:3 302:2 412:1 426:4 467:1 607:1 831:1 855:1 978:1 1061:1 1085:1 1257:1 1414:3 1808:1 1921:1 2410:1 2424:4 2615:1 2637:1 3357:1 3863:1 3895:1 3896:2 3989:3 4215:1 4474:1 4817:3 5094:1 6440:1 7042:1 7045:1 7624:1 24303:1 26629:1 26632:1 29187:1 #
0.01 3:1 4:7 8:1 12:15 23:1 27:1 36:3 44:3 58:4 59:1 63:1 69:1 91:8 97:1 107:1 117:1 154:1 169:1 172:1 173:1 218:1 233:1 234:1 277:1 308:2 344:1 387:1 392:1 450:1 464:1 719:1 721:1 728:1 785:1 801:1 930:3 1061:1 1269:1 1270:1 1271:1 1401:3 1464:1 1507:1 1572:2 1826:1 1837:1 1991:2 2002:1 2003:1 2250:1 3009:1 3050:1 3593:3 3829:3 4170:1 4607:2 5034:1 7192:1 8987:1 10012:3 13230:1 14900:1 15423:1 32514:1 38673:1 59691:2 59692:1 68746:1 #
-0.0052199831294311681 3:7 4:16 8:1 9:3 12:6 17:1 23:3 27:2 36:6 41:2 44:3 51:1 55:1 58:1 64:1 90:1 91:4 97:1 115:1 159:1 167:1 189:1 248:2 289:2 320:1 325:2 332:1 337:1 348:1 365:1 425:2 451:1 466:1 481:2 504:1 506:1 630:1 659:1 699:1 724:1 963:1 1107:1 1131:1 1143:1 1184:1 1189:1 1210:1 1285:2 1502:1 1511:1 1618:1 1658:1 1672:1 1835:1 2014:2 2022:1 2123:1 2375:1 2559:2 2694:1 2843:1 2980:1 3030:1 3279:1 3357:1 3372:1 3551:2 3564:3 3573:1 3582:1 3811:1 3951:1 4096:1 4538:1 4718:1 4960:1 4964:1 5107:1 5476:1 6453:1 6839:3 7285:1 8839:1 8840:1 10213:1 12209:2 12229:1 13462:1 16142:1 20607:1 #
-0.00065363039031774643 4:8 8:1 12:2 23:1 36:6 44:2 46:3 56:1 58:1 62:2 63:4 91:1 107:1 120:1 138:1 154:2 167:1 169:1 185:1 231:1 243:2 244:3 245:1 277:1 319:1 333:5 428:1 467:1 477:1 524:1 601:1 728:1 916:1 923:1 1282:1 1379:1 1524:1 1818:1 1917:1 1991:1 2514:1 3112:1 3244:1 4205:1 4309:1 5278:1 5395:1 5824:7 5952:1 6744:1 6955:1 6969:3 7368:1 7369:1 7400:4 7403:1 8160:1 8818:1 10644:1 12535:3 12739:1 17195:1 18286:1 24739:1 28170:1 30145:1 45853:1 91107:4 91108:1 #
-0.0030806788409786421 3:5 4:30 8:1 9:3 12:9 21:1 23:3 36:5 40:2 41:7 44:8 48:3 51:2 58:1 63:3 90:1 93:1 107:2 116:1 119:4 126:1 131:1 142:3 175:2 203:1 232:2 244:2 262:1 289:1 301:1 327:1 333:1 383:1 390:1 403:1 419:1 454:1 465:8 476:1 477:1 482:2 570:1 610:3 612:3 672:2 776:1 815:1 831:1 843:1 1014:5 1055:1 1371:1 1457:1 1465:1 1538:1 1547:1 1690:1 1806:1 1933:1 2394:1 2445:1 2800:4 2834:3 2838:2 2950:1 3053:1 3224:1 3837:1 5628:1 5808:1 5952:1 8173:1 9067:2 10680:1 11538:1 12109:1 17275:2 20001:1 20348:1 21010:1 25062:1 29839:2 33501:1 34444:10 37066:1 37111:2 40178:1 52593:1 83141:1 83142:1 #
-0.01 3:4 4:32 8:1 9:1 12:8 21:1 23:7 27:3 29:1 36:5 41:4 44:8 46:1 51:1 56:7 58:2 68:1 78:1 83:2 89:1 91:8 97:2 114:1 116:1 117:1 126:1 154:2 156:1 169:2 175:1 219:1 229:2 244:2 252:1 256:2 270:1 274:4 302:6 319:1 320:1 321:1 325:2 327:3 449:2 450:1 451:1 452:3 454:1 455:1 456:1 458:1 478:1 570:1 574:1 626:2 640:1 669:1 676:1 698:1 728:1 790:1 832:1 848:2 887:1 949:2 973:1 1008:1 1009:1 1011:1 1023:1 1033:1 1055:1 1061:1 1067:3 1068:1 1072:4 1184:2 1259:3 1340:1 1410:1 1411:1 1546:2 1557:2 1608:1 1630:1 1657:1 1691:1 1705:1 1726:1 1732:1 1855:1 1888:1 1902:2 1912:1 2002:2 2176:1 2202:1 2205:3 2348:1 2369:1 2402:1 2416:2 2420:1 2423:2 2424:4 2477:1 2559:1 2560:2 2614:1 2622:1 2625:3 2626:1 2720:3 2740:2 2797:1 2810:1 2838:1 2917:1 2962:1 3003:1 3222:5 3385:1 3480:1 3621:1 3634:1 3659:1 3714:2 3841:1 3930:1 4003:2 4095:1 4107:1 4312:1 4507:1 4569:1 5207:3 5488:1 6133:1 6554:1 6915:3 6948:1 7213:1 7823:1 7993:1 11535:1 11669:4 19121:1 21020:1 22328:2 26726:1 35169:1 35170:1 35171:1 35172:1 35173:2 35174:2 #
0.01 3:6 4:5 8:1 9:1 12:2 27:1 36:3 41:1 44:2 56:1 58:1 83:2 91:2 119:1 131:1 141:2 296:1 346:1 358:1 359:1 411:1 412:1 431:1 828:1 842:1 1115:1 1259:1 1260:2 1318:1 1359:1 1399:1 1451:1 1735:1 1760:1 2006:1 2040:2 2056:3 2267:1 2276:1 2421:1 4223:1 4805:1 5156:1 6587:1 34519:1 36012:1 36300:1 #
0.01 3:1 4:5 7:1 8:1 9:3 12:3 23:4 36:2 41:1 56:2 58:1 88:2 107:2 130:2 197:1 216:2 223:1 233:1 262:1 289:1 359:1 390:1 406:1 449:1 454:1 504:2 548:1 586:1 594:1 603:1 605:1 638:1 654:2 681:1 840:2 868:1 1009:1 1011:1 1269:1 1323:1 1500:1 1507:1 1912:1 1949:1 2052:1 3062:1 5727:1 5757:2 5809:1 10249:1 12739:1 14172:1 16891:1 20970:1 #
-0.0061478632126283992 3:1 4:15 8:1 9:3 10:1 12:5 18:1 21:2 23:4 27:1 36:1 41:1 44:2 51:2 56:1 67:1 74:1 83:2 90:2 91:1 119:1 121:1 145:1 170:1 172:1 175:1 179:1 185:1 206:1 219:1 242:1 244:2 247:1 282:2 308:1 309:3 319:3 327:1 429:1 481:2 560:1 628:1 630:3 634:1 658:1 842:2 904:1 1033:1 1184:1 1212:1 1231:3 1285:4 1449:1 1452:2 1622:1 1704:1 2111:1 2161:4 2267:1 2544:1 2911:1 3136:1 3224:1 4024:2 4450:1 5058:1 5693:1 6096:1 7105:1 8085:1 8622:1 8895:1 13733:1 15004:1 19970:1 #
0.01 3:1 4:8 8:1 9:1 12:4 17:1 18:1 23:7 36:2 56:1 58:1 59:1 91:1 95:1 117:1 123:1 175:1 196:1 234:1 236:1 244:2 259:1 352:1 365:1 383:2 401:3 435:1 450:1 464:1 477:1 497:1 503:1 506:1 567:2 596:2 625:1 638:1 716:1 801:1 871:1 935:1 1015:1 1042:1 1104:1 1189:1 1318:1 1326:1 1327:1 1329:2 1350:1 1910:1 1997:1 2012:1 2030:1 2035:1 2039:1 2041:1 2068:2 2261:1 3047:6 3347:1 4002:1 4312:1 4372:1 4462:2 4466:1 5153:1 8967:1 9517:1 10998:1 11582:1 13293:1 13526:1 39086:1 #
0.01 3:3 4:9 8:1 9:3 12:3 23:1 36:2 44:1 46:1 51:1 58:2 91:5 94:5 138:2 139:1 196:2 197:1 205:1 248:1 259:1 314:1 386:2 396:1 431:1 433:1 450:3 570:3 623:2 630:1 716:1 795:2 796:1 1045:1 1052:1 1168:1 1320:1 1451:1 1592:3 1885:1 1902:1 2245:1 2265:1 2926:1 3309:3 3500:1 3951:3 4307:1 4323:1 4605:1 4995:1 7229:1 8125:2 10236:1 #
-0.01 3:2 4:5 8:1 9:2 12:1 58:1 59:1 98:2 108:3 113:1 167:1 387:1 398:1 407:2 723:2 1091:2 1399:1 1648:1 1893:1 1998:1 2122:1 2856:2 2874:1 2966:1 6015:1 10351:1 34318:1 #
0.00078880473522378164 3:3 4:30 7:4 8:1 12:7 21:1 23:9 27:2 36:7 39:2 40:2 41:1 44:10 46:2 48:2 51:3 56:2 58:4 59:1 74:1 78:1 90:4 91:2 107:1 125:1 126:1 141:1 151:1 167:1 185:2 196:1 206:1 211:1 231:2 252:1 256:3 269:1 296:1 302:1 318:1 323:1 327:2 354:5 365:1 383:1 392:1 396:1 403:1 408:3 412:4 439:2 452:1 456:2 480:2 486:1 497:1 502:1 541:1 548:1 560:1 578:1 592:1 615:1 630:5 638:1 647:1 690:2 717:1 825:1 843:1 855:1 870:1 871:9 916:3 920:1 927:1 975:2 1026:1 1091:2 1113:1 1143:2 1145:1 1181:2 1184:1 1201:1 1236:1 1281:7 1298:1 1326:2 1330:1 1348:2 1391:1 1442:1 1473:1 1480:1 1555:2 1557:5 1622:1 1648:1 1727:1 1771:1 1886:1 1915:2 1923:1 1944:1 2049:9 2122:2 2125:1 2133:1 2177:1 2272:1 2371:1 2455:4 2500:4 2528:1 2547:1 2596:1 2626:1 2697:1 2814:1 2870:1 2932:4 3309:1 4055:1 4290:1 4388:1 4797:1 4835:1 4943:1 5076:3 5346:1 5420:1 5555:2 5790:1 5888:1 6736:1 7854:2 7985:1 8790:1 9267:1 10060:1 10063:1 10867:1 10886:1 11269:4 12913:1 13105:1 15395:1 24372:2 26111:1 30727:1 30728:1 30729:1 30730:2 30731:4 30732:3 30733:1 #
-0.01 3:1 8:1 12:2 36:1 91:1 236:1 243:2 406:1 509:2 545:1 1193:1 1914:2 41703:2 #
-0.0075423587032491836 3:2 4:11 8:1 9:1 12:4 23:1 41:2 44:1 51:1 58:1 70:1 78:1 86:1 107:2 126:1 154:1 157:1 202:1 214:1 262:1 314:1 387:1 456:1 522:1 842:1 927:1 964:1 1167:1 1212:1 1485:1 1923:1 1942:2 1998:1 2134:1 2202:2 2342:1 2651:1 2767:1 3328:1 3407:1 3564:1 3644:1 4487:1 4596:2 4726:1 5099:1 6097:1 6721:1 6939:1 7359:1 18102:2 #
-0.0038689674463098754 3:2 4:10 8:1 12:8 17:2 19:1 21:3 23:4 36:2 44:3 49:2 51:1 56:1 90:2 91:4 119:1 168:1 175:3 177:1 200:1 244:1 359:3 390:1 412:1 465:3 477:1 497:1 541:1 560:1 579:1 795:1 842:1 1016:2 1305:1 1346:2 1357:1 1362:1 1408:2 1835:1 1912:1 1966:3 2109:1 2120:1 2238:1 2375:1 2531:1 2625:2 2647:1 2738:1 2837:1 2907:1 2973:1 3178:1 3228:1 3401:1 3411:2 4382:3 4425:1 4932:1 5320:1 5919:1 6161:1 6330:1 6334:1 6771:1 7623:1 7846:1 7943:1 8378:1 8387:1 10525:1 11112:1 11418:1 14897:1 21737:2 69032:1 70863:1 70956:1 #
0.01 4:2 8:1 9:1 10:1 12:2 27:1 36:1 46:1 51:1 138:1 242:1 243:1 244:3 260:1 291:1 292:1 293:1 454:1 541:1 873:1 922:1 1401:1 1725:1 2087:2 4311:2 4904:1 8312:1 9659:2 10755:1 39395:1 60361:1 #
0.01 3:1 4:3 7:1 8:1 9:1 12:2 36:1 56:1 91:1 120:1 167:1 175:1 196:2 206:1 233:1 243:1 318:1 383:1 390:1 392:1 431:2 577:1 790:2 828:1 905:1 1478:1 1685:2 2097:1 2116:3 2333:1 2805:1 3210:1 3211:1 4457:1 6005:1 86997:1 #
-0.0028252561141619459 3:3 4:5 7:1 8:1 12:5 17:1 23:1 30:1 36:5 41:1 44:2 46:2 51:3 58:1 88:1 90:1 91:3 97:2 113:1 139:1 167:1 169:1 173:2 175:2 179:1 208:1 222:1 256:1 327:1 332:1 333:1 436:1 446:1 503:1 592:1 775:4 783:3 790:1 870:1 871:1 875:1 994:1 1021:1 1061:1 1062:1 1136:1 1150:1 1289:1 1314:1 1316:1 1323:1 1399:1 1460:1 1555:1 1618:1 1664:1 1672:2 1700:1 2407:1 2660:1 2874:1 2954:3 2955:1 2971:1 3083:2 3167:1 3608:1 3700:1 3855:2 4410:1 4538:1 4835:1 4981:2 4995:1 5111:1 6323:3 6723:1 7171:1 8730:1 9080:1 13756:1 18825:1 25649:1 31192:1 33862:1 90308:1 90309:2 90310:1 90311:1 #
0.01 3:3 4:6 8:1 12:1 21:1 23:3 36:1 41:1 44:5 51:1 60:1 63:1 67:2 70:1 90:1 119:1 131:1 173:1 175:3 185:1 295:1 307:1 350:1 452:1 486:1 533:1 552:1 630:1 695:2 786:1 1001:1 1015:1 1150:1 1181:1 1477:1 1681:1 1701:3 2189:1 2483:1 2849:4 3030:1 3051:1 3169:4 3372:1 3791:1 3876:1 4403:1 4995:1 5049:1 5353:1 7061:1 10065:1 13427:1 13467:1 13469:1 13470:1 13830:1 16818:1 19859:1 23260:1 28233:1 94003:1 94458:1 94459:1 94460:1 94461:1 94462:1 #
0.01 4:4 8:1 9:1 12:1 44:1 51:1 58:3 91:3 94:2 152:1 196:2 245:1 450:2 464:2 603:1 638:1 801:1 1381:2 1382:2 1401:3 2638:1 2762:1 2960:2 7405:1 9468:1 15754:1 32456:1 32457:1 32458:1 #
0.006357240561786973 3:1 4:12 8:1 11:2 12:6 36:3 44:2 51:1 58:2 107:1 138:1 164:1 236:1 243:1 390:1 429:1 814:5 1285:1 1379:1 1507:1 1845:4 1875:1 1922:1 2440:6 2531:1 2768:1 2829:1 3401:1 4607:1 4800:6 4851:1 6715:1 6980:1 8994:1 10276:1 17034:1 25355:1 25356:1 #
0.01 3:4 4:13 8:1 12:11 17:2 23:5 36:4 41:4 44:5 51:3 56:1 58:1 60:1 67:1 69:2 70:3 84:1 86:3 88:1 90:2 91:7 97:1 108:2 119:2 121:1 131:1 154:1 167:1 175:1 177:1 185:3 211:1 314:1 321:3 325:1 346:2 408:1 477:3 480:1 518:1 522:1 643:1 682:1 694:1 842:1 923:1 1107:4 1145:1 1348:2 1464:2 1485:1 1488:1 1546:1 1648:1 1985:1 1999:1 2002:1 2092:1 2105:3 2123:2 2737:1 2980:1 3099:1 3283:1 3401:1 3459:1 3634:2 3841:1 4032:1 4074:1 4096:2 4293:1 4647:1 4853:1 5249:1 5257:1 5297:1 5757:3 5958:1 6748:1 6928:1 6934:3 7905:1 8379:3 8440:2 8743:1 8835:1 9359:1 9681:1 9844:1 11381:1 12014:1 13964:1 15134:1 15544:1 22075:1 23825:3 23826:1 23827:1 23828:1 23829:1 23830:1 23831:1 23832:1 23833:1 #
-0.01 3:5 4:23 7:1 8:1 9:10 12:15 14:1 21:2 23:6 29:1 36:2 41:5 44:4 46:1 51:3 58:3 60:1 66:1 67:3 68:2 90:1 91:7 103:1 107:3 119:1 121:2 136:1 138:1 139:1 165:1 167:2 170:1 175:1 185:2 189:1 197:1 233:1 242:2 243:2 272:1 287:1 289:1 295:1 302:1 314:1 321:2 328:3 335:2 346:1 383:2 406:1 426:1 452:3 456:2 467:1 524:1 541:2 548:1 560:1 586:3 592:1 611:1 636:1 659:1 682:1 709:2 711:1 721:2 723:3 777:1 881:3 916:1 927:1 1052:2 1073:1 1107:2 1175:1 1184:1 1254:1 1269:2 1275:2 1294:1 1301:6 1305:1 1320:5 1340:1 1346:1 1361:1 1377:1 1407:1 1553:1 1649:1 1664:1 1675:1 1742:1 1844:1 1899:4 1944:1 2126:1 2165:3 2202:1 2322:3 2357:1 2548:1 2581:1 2585:1 2602:1 2725:1 2910:1 3053:1 3407:1 3653:1 3868:1 3990:1 4189:1 4403:2 4515:1 4858:1 4932:1 5559:1 5722:1 6965:1 7034:1 7505:1 8479:3 9323:1 9592:1 9682:1 10158:1 10450:1 10833:2 11113:1 12159:1 14966:1 15288:1 17861:1 18668:1 20722:1 21642:3 26265:1 27845:1 #
-0.0047833373736791513 3:3 4:29 7:1 8:1 9:2 10:2 12:19 17:1 23:12 27:1 28:1 29:1 31:1 36:6 40:1 41:4 51:3 56:3 58:1 59:1 64:1 66:1 90:4 91:10 94:1 107:4 124:1 142:1 143:1 154:1 175:2 179:1 185:2 189:2 199:1 200:1 205:1 242:2 248:1 265:1 314:2 325:1 333:4 335:1 344:1 374:1 388:1 392:1 410:2 414:1 431:1 454:1 467:1 478:1 481:3 486:1 502:1 507:1 524:1 526:1 541:1 548:1 556:1 569:1 598:1 601:1 652:4 794:2 828:1 865:1 875:1 891:1 978:1 1061:1 1114:1 1145:1 1151:1 1156:1 1157:1 1184:1 1200:3 1214:1 1301:2 1377:1 1407:1 1424:2 1500:2 1547:4 1560:1 1568:1 1638:1 1676:1 1752:1 1771:1 1910:1 1923:1 1924:1 2019:1 2088:1 2109:1 2225:1 2230:1 2296:1 2358:1 2644:2 2647:2 2833:1 2911:1 2929:1 3052:1 3089:1 3112:1 3165:2 3401:1 3501:1 3550:1 3608:1 3621:1 3771:2 3824:2 4064:3 4067:1 4311:1 4413:1 4454:1 5062:1 5170:1 5223:1 5295:1 5635:1 5693:1 5837:1 5971:1 6639:1 6948:1 7146:1 7334:2 7623:1 8247:1 9077:1 10305:1 12927:1 13032:1 14901:1 16405:1 18486:1 19692:1 22740:1 32318:1 54148:1 54647:2 64306:1 77823:1 92703:2 92704:3 92705:3 92706:1 92707:1 92708:1 92709:1 92710:1 92711:1 #
0.01 3:2 4:3 8:1 9:1 12:2 21:1 24:2 41:2 44:3 91:1 97:1 107:1 119:1 197:1 217:1 243:1 244:1 321:1 335:1 618:1 795:1 991:1 1056:1 1507:1 2038:1 2267:1 2363:3 2572:3 3357:1 4302:1 4837:1 5807:1 6326:1 8393:1 10071:1 #
0.01 4:2 8:1 9:1 12:1 23:3 27:1 44:1 58:3 91:1 175:1 346:2 486:1 593:1 728:1 839:1 1228:2 1247:3 1538:1 1644:1 2116:1 2225:1 2406:1 2620:1 2624:1 3053:1 3081:1 3222:1 4129:1 4399:4 4533:1 5156:1 5354:1 6965:1 8290:1 8788:1 12638:1 14224:1 44357:1 #
0.01 3:2 4:9 8:1 12:6 19:2 21:1 23:2 27:2 30:1 36:2 41:2 46:2 58:2 90:1 91:3 121:1 142:1 145:1 167:2 173:1 236:3 314:2 319:1 330:6 331:1 383:1 402:4 406:1 411:1 426:1 430:1 483:1 497:1 509:1 511:1 594:1 672:1 706:1 726:1 905:1 929:1 1119:4 1175:1 1235:1 1310:1 1490:1 1510:1 1569:1 1592:1 1920:1 1955:1 2109:1 2170:1 2250:1 2544:1 2647:1 2948:1 3094:1 3438:1 3616:1 4382:2 4466:1 4936:1 5376:1 6081:1 7623:1 7905:1 7921:1 12021:1 23116:1 33226:1 45915:1 83386:1 #
-0.00028516101254799045 3:1 4:8 8:1 9:1 12:6 21:2 27:1 36:2 39:1 41:2 44:4 48:1 60:1 66:1 90:1 91:3 97:1 107:1 119:4 131:1 175:1 246:1 277:1 289:3 383:1 390:1 392:1 452:2 506:1 511:1 513:1 514:1 518:1 649:1 650:1 832:1 904:1 1136:1 1305:1 1929:1 2015:1 2029:1 2358:3 2375:1 2466:2 2585:1 2622:1 2675:1 3089:1 3165:1 3260:1 3332:1 4273:1 4912:1 5155:1 16557:1 28707:1 49824:1 58059:4 58060:2 58061:1 58062:1 58063:1 58065:1 85897:1 #
0.01 3:3 4:7 8:1 9:3 12:3 23:2 36:2 40:1 41:1 48:1 56:1 58:2 75:3 78:1 91:3 108:1 167:1 175:1 185:1 242:1 278:1 289:2 390:1 392:1 412:1 442:1 451:1 452:1 473:1 477:1 709:1 828:1 904:1 991:1 1125:1 1357:1 1371:1 1400:1 1546:1 1592:1 1648:1 1944:2 2038:1 2131:1 2192:1 2446:1 3060:2 3089:1 3150:1 3183:1 3656:1 4382:3 5034:1 5248:2 5307:1 5727:1 8501:1 8555:1 9057:1 9683:2 11105:1 25133:1 #
0.01 4:4 8:1 9:1 12:3 17:1 27:1 36:2 41:1 44:4 74:1 78:1 90:1 97:1 114:1 175:1 188:1 197:1 205:1 233:1 262:1 319:1 409:1 425:1 452:1 456:1 590:1 630:1 709:1 832:1 859:1 934:1 1036:1 1217:1 1400:1 1408:1 1648:2 1899:1 2006:1 2199:1 2731:1 3385:1 3884:1 4312:1 4599:1 5479:1 5952:1 6471:1 7280:1 9049:2 9224:1 16562:1 34121:1 #
-0.0037040877744934746 3:6 4:18 7:1 8:1 9:2 12:9 14:1 23:1 27:1 36:2 41:1 44:2 46:3 51:2 58:1 60:1 63:2 91:2 94:1 95:1 97:1 139:1 167:1 179:1 185:1 248:1 264:1 346:2 383:1 412:1 452:1 454:1 456:1 458:1 466:1 486:1 551:1 695:5 699:1 741:1 756:1 909:1 911:1 944:1 1143:1 1150:1 1171:2 1174:1 1207:1 1241:1 1267:1 1318:5 1320:4 1327:1 1362:1 1403:1 1878:1 2241:1 2253:1 2256:2 2446:1 2837:1 2886:2 2954:1 2961:2 2978:4 2980:1 3222:1 4364:1 4835:1 5550:1 6638:1 6818:2 6961:1 6967:1 9860:1 10291:1 10872:1 11208:1 11893:1 12214:1 15069:2 24120:1 51363:1 62030:1 62031:1 62032:2 62033:2 62034:2 62035:1 #
0.01 3:8 4:15 7:2 8:1 9:2 10:1 12:5 23:2 27:1 36:4 41:1 44:2 51:2 56:2 66:1 83:1 91:9 94:1 96:1 107:2 139:1 173:1 175:1 197:1 207:1 243:1 244:1 247:2 259:1 307:2 309:2 314:1 335:1 344:1 346:1 375:1 392:1 410:1 411:1 431:1 436:1 465:1 467:1 563:1 590:2 592:4 610:1 630:2 648:1 669:1 682:1 701:1 721:1 842:3 932:1 933:1 1011:1 1014:1 1139:1 1156:1 1184:2 1193:1 1227:1 1255:1 1293:3 1451:1 1473:1 1507:1 1529:1 1837:1 1968:1 1985:1 2305:1 2531:1 2532:1 2549:1 2558:1 2560:1 2632:3 3021:1 3052:1 3324:1 3330:1 3503:1 3507:1 3755:2 4431:1 4711:1 5167:1 5168:2 5503:1 5510:1 5712:1 6198:1 14016:1 26458:1 64621:1 64622:1 64623:1 #
-0.01 3:2 4:2 8:1 12:1 51:1 95:1 185:1 236:1 327:1 337:1 346:1 406:1 450:1 504:1 723:1 815:1 1193:1 1347:1 1582:1 1844:1 2245:1 2375:1 2563:2 3884:1 6195:1 7435:1 19704:1 34195:1 34225:1 34226:1 #
-0.00031496700802490413 3:2 4:5 8:1 12:6 23:2 25:2 27:1 36:1 44:3 58:1 70:3 88:1 91:2 122:4 175:1 188:1 233:1 346:2 442:1 518:2 594:1 654:4 715:1 944:1 1096:3 1672:1 1929:2 2161:1 2266:1 2486:1 2974:1 3973:1 4883:1 4963:2 5750:1 6620:1 7617:1 9420:1 9723:2 11965:1 13083:1 16651:1 17094:1 48256:1 59019:1 #
-0.0041205134583630317 3:2 4:16 7:1 8:1 9:1 12:7 21:1 23:5 27:1 35:1 36:2 40:1 41:1 44:3 46:1 51:1 56:2 83:1 90:1 91:5 140:1 159:1 175:2 185:1 244:1 275:2 314:1 380:1 396:1 411:1 419:1 431:1 452:1 489:1 502:1 531:1 573:1 720:1 781:1 785:1 885:1 933:1 978:1 1008:1 1011:1 1060:1 1073:1 1414:2 1485:1 1529:1 1617:1 1645:1 2202:1 2389:2 2393:1 2585:1 2742:1 2770:2 2844:1 3357:3 3686:1 5175:1 5322:1 5543:2 5544:1 5545:1 6431:2 6879:2 8346:1 10017:1 10259:1 12454:2 15399:1 23699:2 26707:2 39000:1 50850:2 52593:1 56688:1 56689:1 56690:1 56691:1 56692:1 56693:1 56694:1 #
0.01 3:4 4:11 8:1 9:2 12:3 23:3 36:3 41:1 42:1 44:4 58:1 91:4 119:1 175:2 248:1 279:1 286:2 320:1 321:1 371:14 430:1 471:2 478:1 574:1 577:1 611:2 612:1 618:2 634:1 714:3 723:2 776:1 795:1 834:1 836:2 904:1 1029:1 1047:1 1050:1 1079:1 1156:1 1262:1 1298:1 1327:1 1690:1 1795:1 1814:1 1846:2 1877:2 1942:1 1990:1 1998:2 2131:3 2241:2 2310:2 2342:1 2614:1 2762:1 2856:1 3030:1 3653:1 4247:2 4302:2 4497:2 4589:2 5381:1 5963:3 6213:1 6431:1 6879:1 7823:2 9064:1 9143:1 11010:1 15711:1 26176:3 29401:1 32727:1 39913:1 54758:1 74897:2 74898:1 74899:1 74900:1 74901:1 #
0.01 4:2 8:1 12:1 36:2 56:1 97:1 107:1 154:1 169:1 175:2 346:1 452:1 605:1 698:1 881:1 895:1 1330:1 1347:1 1353:1 1507:1 2200:1 3540:1 4763:1 7854:1 8588:1 10482:1 36480:1 36481:1 36482:1 36483:1 36484:1 #
0.01 3:1 4:5 8:1 12:10 21:1 22:1 23:1 31:1 36:2 41:2 44:2 51:1 52:1 67:1 91:6 107:1 117:2 119:1 123:1 124:1 126:1 141:1 173:1 185:2 188:1 197:1 296:1 345:1 392:1 408:1 411:1 450:1 467:1 524:1 605:1 629:1 644:1 645:1 683:1 780:1 795:1 833:1 904:1 1021:1 1040:1 1052:2 1085:1 1109:1 1246:1 1320:2 1485:1 1592:1 1698:1 1700:1 2086:1 2258:1 2267:1 2333:1 3653:1 3884:1 3959:1 4262:1 4450:1 4991:1 6178:3 6229:1 7834:1 8602:1 12472:1 21376:1 63234:1 63235:1 #
0.01 3:3 4:12 8:1 9:1 12:8 21:1 23:3 27:1 36:6 41:1 56:1 58:1 64:1 69:1 85:1 91:1 97:1 167:2 169:2 175:2 179:1 218:1 233:1 236:1 242:1 262:1 406:1 450:1 464:1 477:1 533:3 557:1 630:1 706:1 801:1 810:1 815:1 873:1 904:1 920:3 922:2 927:1 935:1 1391:1 1399:1 1401:1 1402:1 1424:1 1569:1 1592:3 1752:1 1886:1 1919:1 2064:1 2304:1 2423:1 2802:1 2874:1 2960:2 3223:1 3309:4 3507:1 3789:1 4150:1 4311:3 4481:1 4853:1 5144:1 5659:2 6742:1 7776:1 8628:1 9417:3 10808:1 12122:1 14687:1 14900:1 17025:1 18264:1 19304:1 22933:1 71965:1 94479:2 98835:1 #
