SVM-light Version V6.02
0 # kernel type
3 # kernel parameter -d 
1 # kernel parameter -g 
1 # kernel parameter -s 
1 # kernel parameter -r 
empty# kernel parameter -u 
99756 # highest feature index 
22417 # number of training documents 
3202 # number of support vectors plus 1 
0.82475834 # threshold b, each following line is a SV (starting with alpha*y)
0.013035619097474927 3:2 4:14 7:2 8:1 9:1 12:8 21:1 36:4 44:5 46:4 51:2 54:3 66:1 91:6 119:2 139:1 185:1 231:1 242:1 244:2 301:1 320:1 334:1 337:2 403:1 450:3 451:4 453:3 465:1 466:1 467:1 473:1 481:2 482:1 541:1 573:1 593:1 603:1 682:1 818:1 1023:2 1055:3 1143:1 1149:1 1184:1 1190:1 1260:1 1485:1 1555:1 1653:1 1702:1 1731:3 1788:3 1920:1 2024:2 2116:1 2304:1 2549:1 2585:1 2613:1 2765:1 2794:2 2837:1 2853:1 3099:1 3279:1 3771:1 3895:2 4044:1 4173:2 4189:1 4323:2 5208:1 5250:1 5517:1 6253:1 7325:1 9507:1 9830:1 13674:1 42962:1 75990:1 75991:1 75992:1 75993:1 #
0.15503750528539614 3:3 4:2 7:1 8:1 9:1 12:5 18:1 22:1 23:4 36:2 41:2 44:1 58:1 67:1 91:6 97:2 107:1 119:1 140:1 173:2 175:1 177:1 185:3 203:1 287:1 346:1 396:1 409:1 454:1 458:1 524:1 592:1 609:1 697:1 699:1 904:1 978:1 1014:2 1120:1 1167:1 1255:2 1260:1 1282:1 1347:1 1400:1 1465:1 1507:1 1590:1 1638:1 1899:1 2014:1 2116:1 2399:2 3406:1 3443:1 3573:2 3574:2 3634:1 3841:2 4071:1 5510:1 10732:1 #
-0.027738914675685886 3:1 4:7 8:1 9:2 12:7 22:1 23:2 27:2 28:1 36:2 41:1 51:1 58:1 68:1 91:1 94:1 97:2 107:1 140:1 154:1 189:1 196:2 197:1 246:1 256:1 277:1 319:2 406:1 431:1 450:1 570:1 577:1 685:1 736:1 803:1 842:1 904:1 909:1 935:1 1231:2 1381:1 1474:1 1731:2 1828:1 1942:1 2358:1 2561:1 2626:1 2810:1 3053:1 3309:2 3334:1 3990:2 4247:1 4403:2 4540:1 4804:1 4852:1 4932:1 5276:1 5554:1 6515:1 9253:2 10882:1 61527:1 61528:1 #
-0.0092628035505628349 3:3 4:10 7:2 8:1 12:9 21:1 23:2 27:1 41:2 44:5 46:1 51:2 56:1 58:2 64:2 89:1 91:6 97:2 119:2 126:1 131:1 138:1 175:1 231:2 243:1 244:1 270:1 291:1 292:1 293:1 314:1 320:1 337:1 393:1 423:1 452:1 465:1 477:1 545:2 548:2 565:1 591:1 638:1 684:1 714:1 721:1 723:1 728:1 776:1 838:1 875:2 876:1 882:1 887:2 946:1 1184:1 1241:1 1432:1 1455:2 1672:2 1737:2 2024:2 2026:1 2200:1 2267:1 2276:1 2393:1 2443:1 2469:2 2566:1 2693:1 2946:1 2969:1 3327:2 4229:2 4485:1 5463:1 5769:1 5853:1 6222:1 7213:1 7435:1 8469:1 10303:1 17500:1 27547:4 29285:1 44218:4 44219:1 44220:1 44221:1 #
-0.0057562602856160439 3:2 4:10 7:1 8:1 9:2 12:7 17:1 21:1 23:1 36:2 41:2 44:1 46:2 51:1 58:2 68:1 90:2 91:3 104:1 107:1 113:1 185:1 244:4 248:1 302:3 365:1 405:1 407:2 426:1 458:1 466:1 476:2 481:3 617:1 630:1 669:1 692:1 721:1 904:1 978:1 1363:1 1511:1 1586:1 1659:3 1742:1 2012:1 2021:3 2022:1 2024:1 2079:1 2122:2 2250:1 2289:1 2328:1 2616:1 2856:3 2966:1 3047:3 3073:1 3372:1 3483:2 3563:1 3700:1 4247:1 4270:1 4322:1 4919:2 5189:1 5839:1 9558:1 9560:3 20684:1 21437:1 49363:1 52797:2 #
0.025016733371364838 3:8 4:17 7:2 8:1 12:8 21:5 22:1 23:5 24:1 36:5 37:1 40:1 41:2 44:4 51:1 56:2 58:2 90:2 91:4 97:1 101:1 107:1 119:1 124:1 131:1 140:1 159:1 167:2 169:2 175:2 188:10 206:1 214:1 233:1 234:1 244:1 247:1 255:1 269:2 270:1 272:1 277:2 289:1 323:1 327:2 328:2 339:1 383:1 414:1 438:2 452:1 454:1 456:2 458:1 467:1 486:1 499:4 502:1 555:1 557:1 570:1 575:1 587:2 593:1 596:1 604:1 647:1 668:1 714:1 728:1 843:1 920:1 926:1 1025:1 1043:1 1091:1 1146:1 1184:2 1294:1 1362:2 1630:1 1641:2 1664:1 1672:2 1808:1 2102:1 2305:1 2309:1 2316:1 2322:1 2424:1 2528:1 2535:1 2637:1 2638:1 2830:1 2970:1 2978:3 3328:1 3428:1 3517:1 4055:1 4189:1 4256:1 4412:1 5083:1 5084:1 5287:1 5663:1 6915:1 9099:1 9556:1 10198:4 10963:4 12913:1 14144:1 14682:1 15119:1 31688:1 49308:1 51960:1 #
0.0030989812515502561 3:6 4:16 8:1 9:2 12:3 23:4 36:1 41:2 44:2 51:2 90:1 91:4 107:1 124:1 165:1 167:1 175:1 196:1 197:1 233:1 236:2 242:1 274:1 435:1 452:2 456:1 476:2 546:1 586:1 612:1 723:1 731:1 795:2 916:1 927:1 978:2 997:1 1001:1 1009:3 1257:3 1305:1 1362:1 1731:1 1808:1 1839:1 1945:1 1999:1 2092:1 2214:1 2423:1 2455:1 2673:2 2687:1 2782:2 3052:2 3507:2 5108:2 5351:1 6424:1 6782:1 7381:1 7955:1 8043:2 9187:1 10425:1 11743:1 15550:1 33164:1 54235:1 54236:1 54237:2 #
-0.0075265518807462349 3:5 4:9 8:1 12:6 21:1 23:2 30:2 46:2 56:1 107:3 116:1 138:2 147:1 151:1 167:1 185:1 189:1 203:1 228:1 231:2 243:2 308:1 383:1 546:1 582:1 618:3 728:1 791:1 826:2 920:1 922:3 1004:1 1015:1 1098:1 1236:1 1255:2 1296:1 1301:1 1401:1 1439:1 1545:2 1919:1 1955:1 1985:1 2079:1 2122:3 2125:2 2210:1 2560:1 2924:1 3051:1 3192:1 3891:1 4311:2 4388:1 4395:1 5359:1 7116:1 7600:1 7694:2 8161:1 11384:1 11708:1 12914:1 14246:1 16630:1 36138:1 38707:1 72899:1 72900:1 72901:1 #
0.013203324034272729 3:4 4:13 8:1 12:6 23:5 27:2 28:2 30:1 36:1 41:5 44:7 47:1 56:1 58:2 60:2 61:1 80:1 81:1 90:3 91:2 107:2 119:2 124:1 131:1 139:1 150:1 164:1 175:2 203:2 242:1 244:3 317:1 327:1 395:1 452:1 454:1 473:1 482:1 494:2 531:1 596:2 618:1 625:1 628:1 724:1 790:2 839:1 856:1 930:1 963:1 1052:2 1072:1 1156:1 1254:4 1320:2 1357:1 1377:1 1393:1 1668:1 1869:1 1923:2 2164:1 2177:1 2202:1 2241:3 2533:1 2741:1 3259:1 3563:1 3824:2 3841:3 4008:1 4078:3 4151:1 4691:1 4752:1 5353:1 5354:1 5455:1 5509:3 5829:1 5955:1 6893:1 8930:3 9051:2 12406:1 13204:1 13708:2 14370:1 21505:2 21512:1 21538:1 26627:3 47046:1 78060:1 78061:1 78062:1 #
0.0080867297982223987 4:12 8:1 10:1 12:16 21:2 23:5 27:1 33:1 36:4 44:2 46:1 51:1 56:1 58:2 59:2 61:2 66:2 91:4 97:2 107:1 164:1 175:1 185:1 188:1 217:1 243:2 244:1 265:2 308:1 323:1 327:1 338:1 344:3 390:1 392:1 393:1 436:1 450:2 451:1 454:1 466:1 477:2 481:1 482:1 507:1 541:1 569:1 634:2 672:1 697:1 701:1 887:1 1006:1 1096:1 1174:1 1184:1 1190:2 1294:1 1362:1 1408:1 1502:1 1556:1 1844:1 1876:1 2003:1 2172:1 2267:2 2348:1 2486:2 2632:1 2731:1 2837:1 2872:2 2991:1 3044:1 3130:1 3324:1 3610:1 3895:2 4080:2 4131:1 4159:1 4515:1 4660:3 4725:1 5157:1 5176:1 6081:1 6407:1 6995:1 6999:1 7253:1 7320:1 7383:2 7547:1 8547:2 8949:1 17230:1 #
-0.059105775027017936 3:2 4:9 8:1 12:2 21:1 23:1 36:1 44:1 56:2 58:1 126:1 185:1 314:2 342:1 390:1 461:1 481:1 504:3 541:1 717:1 728:1 913:1 2305:1 2309:1 2528:1 3480:1 4413:1 4853:1 5713:1 6215:2 6216:2 6217:2 6218:1 6219:1 6220:1 6221:1 6222:1 #
0.08123212172387631 3:11 4:29 7:5 8:1 9:6 12:14 17:1 21:2 23:6 27:1 28:1 36:8 41:7 44:5 50:1 51:3 53:1 56:2 68:1 78:1 82:1 90:2 91:8 97:7 107:2 119:1 141:1 154:3 159:1 161:1 169:1 175:2 185:1 189:3 197:1 206:4 210:1 214:1 243:3 248:1 287:1 302:8 314:4 320:2 321:1 330:4 331:2 346:8 350:1 383:1 406:1 408:3 433:1 451:8 458:1 481:3 556:1 594:1 625:1 659:1 668:1 685:1 713:1 720:1 726:3 871:3 894:1 959:1 1119:2 1149:1 1156:1 1168:1 1285:1 1347:9 1359:1 1432:3 1546:1 1624:1 1638:1 1643:1 1649:1 1742:1 1826:1 1844:1 1929:1 2123:1 2161:1 2264:1 2359:1 2544:1 2624:1 2672:1 2767:1 2818:2 2980:1 3060:3 3211:1 3304:1 3311:1 3406:2 3410:1 3573:2 3576:2 3577:2 3634:1 3690:1 4096:1 4367:1 4433:1 4473:1 6045:1 6160:1 8307:1 9464:1 10419:1 10561:1 13968:1 16063:2 40805:1 84951:1 84952:1 #
-0.023483169012196936 4:2 8:1 12:2 23:1 36:2 46:3 51:1 56:2 58:2 164:1 233:1 309:1 353:2 356:1 383:1 541:1 594:1 719:1 728:1 801:1 1001:1 1109:1 1347:1 1352:1 1401:1 2012:1 2035:1 2064:1 2079:2 2617:1 2992:2 3061:1 3380:1 3738:1 4240:1 4372:1 4522:2 5183:1 6127:3 7838:1 13183:1 83554:1 99673:1 99674:1 99675:1 #
0.022141418903430618 3:2 4:3 8:1 9:2 12:3 23:3 36:1 44:2 51:5 58:2 63:1 64:1 66:1 68:1 70:2 80:1 91:4 95:1 97:1 119:1 242:1 262:1 277:1 325:1 344:1 346:1 383:1 390:2 393:1 428:1 524:2 541:1 727:1 735:1 807:1 865:1 877:1 905:1 1033:1 1169:1 1373:1 1377:1 1464:1 1465:1 1672:1 2322:1 2871:1 3130:1 3527:1 3715:1 5017:1 5666:1 5924:1 6965:1 7045:3 7116:1 8704:1 10268:1 16197:2 16198:2 16199:1 16200:1 16201:1 16202:1 16203:1 16204:1 16205:1 16206:1 16207:1 #
0.12778858707000354 3:4 4:4 8:1 9:2 12:5 23:1 36:1 39:1 58:1 67:1 91:2 97:5 107:1 175:1 210:1 233:1 309:1 327:1 345:1 346:1 404:1 533:2 630:3 647:1 692:2 799:2 1080:3 1110:1 1359:1 1405:2 1671:1 1685:3 1704:2 1940:1 2876:1 3080:1 3651:1 4515:1 4576:2 5757:1 7683:1 9659:1 10126:1 65479:1 #
0.031971415832904262 4:2 8:1 9:1 12:1 63:2 185:2 239:1 240:1 243:1 261:1 336:1 406:1 591:1 1369:1 1539:2 1855:2 2611:2 2763:2 3773:2 9562:1 #
-0.0080150433360285239 3:7 4:15 8:1 10:1 12:10 23:4 26:1 27:1 36:7 41:2 44:1 56:5 58:1 68:1 91:3 117:1 126:1 189:1 196:4 243:1 244:1 261:1 269:2 296:3 320:2 344:1 374:2 375:2 400:1 486:1 503:1 543:1 573:1 582:1 592:1 594:1 601:1 603:1 628:1 648:1 650:1 669:2 670:1 705:1 721:2 728:1 776:1 782:3 881:1 904:2 920:1 972:1 1014:4 1181:4 1208:1 1255:1 1260:5 1325:5 1326:2 1330:1 1359:1 1361:1 1511:1 1527:2 1554:1 1742:1 2522:1 2528:2 2587:1 2648:3 2986:1 3117:1 3216:1 3550:1 3586:1 6861:2 6913:1 7229:1 7801:1 8628:2 10053:3 11068:2 14627:1 19005:2 30420:1 30421:1 30422:3 30423:1 30424:2 30425:2 30426:1 #
-0.01975574049991775 3:1 4:6 8:1 9:2 10:1 12:3 36:1 41:1 58:3 78:1 175:1 197:1 233:1 234:1 287:1 423:2 435:1 497:1 523:1 602:1 615:1 630:2 1040:1 1047:2 1146:1 1189:1 1212:1 1262:4 1290:1 1309:1 1377:1 1473:1 1510:2 1835:1 2100:1 2116:1 2337:1 2841:1 2932:1 3850:2 4189:1 4323:1 4401:1 4533:1 4618:1 4915:1 6939:2 24447:1 97885:1 97886:2 97887:1 97888:1 97889:1 97890:1 97891:1 97892:1 #
-0.0081734509066943312 3:5 4:20 8:1 12:21 21:1 23:3 27:1 28:1 32:2 36:4 40:1 41:2 42:2 44:5 46:1 51:1 56:1 58:2 78:2 91:4 107:1 116:1 119:1 126:1 138:1 139:1 154:1 169:1 173:1 175:2 185:2 239:1 240:1 244:3 250:1 262:2 314:5 359:1 435:1 445:1 458:1 480:1 511:1 533:2 541:2 546:1 578:1 582:1 594:1 618:1 630:1 669:1 727:2 746:1 785:1 795:1 822:1 887:1 909:1 929:1 975:1 978:1 1006:1 1014:1 1042:1 1056:1 1091:3 1233:1 1281:1 1294:1 1408:2 1413:1 1439:1 1502:1 1507:1 1535:1 1537:2 1538:2 1837:1 2002:1 2049:1 2318:2 2374:1 2558:1 3223:1 3260:1 3610:1 3611:1 3760:2 3806:1 4273:1 4426:1 4799:2 4826:1 4858:1 5039:1 5341:1 5355:1 6512:1 6515:1 6667:1 7943:2 8203:2 10842:4 12112:2 12564:1 12914:1 14901:1 15151:1 17203:1 17463:1 18560:4 18591:1 20181:3 20183:1 20184:3 20188:1 20192:1 20193:1 25221:2 38685:1 48277:1 97114:1 #
-0.010657686049541188 3:4 4:5 7:2 8:1 12:7 17:1 39:1 41:2 44:1 90:1 91:2 95:1 107:1 243:1 244:1 327:1 455:1 530:3 560:1 591:1 602:1 905:1 1485:1 2295:1 2397:1 3094:1 3259:1 3722:1 4223:1 14281:1 16307:1 20531:1 34408:3 34409:1 34410:2 34411:1 34412:1 34413:1 #
0.010235401863056598 3:3 4:5 7:1 8:1 12:5 21:1 23:1 27:4 36:1 41:1 51:4 58:2 63:1 90:3 91:4 95:1 108:2 173:2 175:1 189:1 233:1 236:2 240:2 244:1 258:1 282:1 301:1 314:1 318:1 327:1 339:1 345:2 353:1 383:1 390:2 406:1 426:1 448:1 452:1 477:1 541:1 563:1 591:2 612:1 630:2 647:1 723:1 727:1 781:1 877:1 904:2 929:1 972:1 973:1 990:1 1027:1 1244:1 1270:1 1511:1 1549:1 1700:1 1910:1 2072:1 2095:1 2245:2 2867:1 3112:1 3150:1 3157:1 3308:1 3634:2 3700:1 3863:1 3952:1 4055:1 4293:2 4308:1 4325:1 4889:1 5035:1 5562:1 6040:1 6431:1 16068:1 17080:1 20235:1 20807:1 27188:1 72391:1 72392:1 72393:1 #
0.047645722559757672 3:3 4:10 8:1 9:1 12:11 21:2 23:1 31:2 36:2 41:2 46:1 51:1 56:6 58:1 74:1 83:1 91:3 138:1 164:1 167:2 169:1 175:1 185:1 196:2 210:1 234:1 242:2 244:1 293:1 302:2 314:2 321:1 330:6 331:6 335:1 403:1 473:4 480:1 498:1 524:1 541:1 569:1 605:1 620:1 669:1 698:1 723:2 803:1 921:1 993:1 1042:1 1060:1 1109:1 1119:1 1139:1 1327:1 1503:1 1595:1 1601:1 1648:1 1657:1 1702:1 1807:1 1955:1 1959:1 2075:1 2202:2 2250:1 2443:1 2563:3 3357:1 3517:1 3594:1 3656:2 3990:1 4211:2 4574:2 4756:1 4992:1 6323:1 6324:1 6333:2 6906:1 9714:1 10211:1 10239:1 12570:2 14909:1 16132:2 20863:1 31269:1 43762:1 43763:1 43764:1 43765:1 43766:1 43767:1 43768:1 43769:1 43770:1 43771:1 #
-0.046530345215437474 3:2 4:6 8:1 9:2 12:1 27:1 36:3 40:1 44:1 51:4 56:1 91:2 97:1 120:1 196:2 214:1 325:1 330:1 337:1 346:3 406:1 450:1 477:1 555:1 556:1 567:1 570:1 600:1 723:1 728:1 1119:1 1252:1 1347:3 1648:1 1808:1 1844:1 1968:1 2097:1 3406:1 3634:3 4372:1 4767:1 6558:2 52055:1 #
0.098628221098515129 3:5 4:21 7:2 8:1 9:2 12:7 21:2 22:2 23:7 26:1 27:1 36:3 41:3 44:6 46:1 47:2 51:4 56:1 58:2 60:1 78:1 90:4 91:6 94:1 95:2 97:1 107:3 108:2 119:2 120:1 131:2 154:1 185:1 197:1 219:1 256:2 313:1 320:1 327:2 346:2 383:1 431:1 452:1 457:2 467:1 482:1 567:1 617:1 659:1 664:2 674:1 681:1 682:2 695:3 710:1 722:1 870:1 920:1 964:1 1008:2 1014:1 1025:1 1110:1 1172:1 1189:1 1244:1 1245:1 1285:1 1325:1 1346:2 1347:1 1411:1 1560:1 1595:10 1618:1 1624:1 1638:1 1731:1 1795:1 1899:1 1923:1 1998:1 2011:2 2020:2 2029:1 2225:1 2250:1 2310:1 2420:1 2532:1 2612:1 2801:5 2803:1 3114:1 3247:1 3454:2 3830:1 3881:1 4366:1 4459:1 4462:1 4711:1 5034:1 5114:1 5250:6 5295:2 6038:2 6039:2 6044:1 6820:1 8645:2 9206:1 10357:1 10617:2 11397:4 22947:3 31400:1 61926:1 61927:1 61928:1 #
-0.0040136241517012986 3:2 4:4 7:1 8:1 9:1 12:5 17:1 23:1 27:2 36:1 41:1 44:1 47:1 59:1 91:4 97:1 101:1 115:1 242:1 247:1 428:1 454:1 457:2 482:1 565:1 567:1 630:1 723:2 727:2 926:3 929:2 1243:1 1269:1 1485:1 1737:3 1828:1 2116:1 2504:3 2778:1 3082:1 3992:1 4145:1 4151:1 4218:1 5223:1 5630:2 8286:2 88251:2 #
0.0056847388217634376 3:6 4:11 8:1 12:9 23:4 36:3 91:3 107:1 142:1 167:2 169:1 185:3 206:1 222:1 236:1 243:1 249:1 279:1 308:2 477:1 503:1 504:1 509:1 524:1 541:2 543:1 674:1 709:1 728:1 782:1 843:1 904:1 1062:1 1174:2 1187:1 1189:1 1193:1 1254:1 1520:1 1675:1 1676:1 1846:5 1904:1 1923:1 1966:1 2545:1 2648:1 2676:1 2794:1 2980:1 3082:1 3328:1 3608:1 3896:2 3897:1 4311:2 4662:1 4755:1 4818:5 4823:1 4828:1 7908:1 8245:1 8388:1 9102:1 10710:1 11377:1 12956:1 13441:1 43150:1 #
0.0050036042254902775 3:3 4:2 7:1 8:1 9:1 12:1 36:1 91:4 185:1 242:2 277:2 445:1 464:2 524:1 541:1 590:1 600:1 669:1 1009:2 1536:2 1637:2 1678:2 2224:1 2793:1 3304:1 8554:1 9461:1 27963:2 28314:2 #
-0.010399625657104665 3:3 4:7 8:1 9:3 12:9 23:3 27:1 36:3 39:1 41:3 44:3 51:1 56:2 58:1 76:1 91:1 97:2 107:1 119:3 154:1 157:1 172:1 177:2 197:1 236:1 306:1 314:3 325:1 327:1 335:1 345:1 358:1 386:3 390:1 395:1 406:1 435:1 452:2 473:1 477:1 511:1 559:1 607:1 630:1 659:1 723:1 735:1 736:1 775:1 782:2 916:4 946:1 1373:1 1458:1 1474:1 1485:1 1628:1 1760:1 1828:1 1899:2 2015:1 2056:1 2245:1 2971:1 2986:1 3125:1 3323:1 3496:1 3534:1 4217:1 4218:1 4367:1 4425:1 4924:1 5010:1 5599:1 6247:1 6461:1 7176:1 8029:1 8034:1 8398:1 8886:2 10723:1 14503:3 17020:1 18023:2 19847:1 31147:1 31148:1 31149:1 31150:1 31151:1 31152:1 #
0.023696533348008267 3:3 4:7 8:1 9:1 12:1 17:1 19:1 21:1 23:1 27:1 36:2 44:2 51:1 56:1 58:2 63:1 69:1 78:1 90:2 91:2 95:1 107:2 120:1 141:1 173:1 175:3 184:1 185:2 233:1 244:2 255:4 262:2 289:1 333:7 335:1 359:1 385:1 406:1 477:1 480:2 504:1 541:2 663:1 723:1 843:1 859:1 994:2 1068:1 1246:1 1311:1 1346:2 1547:2 1571:1 1670:1 1834:1 1893:1 2072:1 2305:3 2446:1 2449:1 2486:1 2649:1 2907:1 3116:2 3330:1 3357:1 3563:1 3788:1 4381:2 4424:1 4596:1 5047:1 5829:1 7137:1 7909:1 9043:1 9077:1 12487:2 13558:2 15423:1 20036:1 20298:2 21205:2 40157:1 72237:1 72238:1 #
0.003503916273611326 3:5 4:3 8:1 9:1 12:3 17:1 23:3 30:2 36:6 41:2 51:1 56:1 60:1 70:2 91:2 97:1 114:1 142:1 143:1 155:1 156:1 159:1 165:1 167:1 175:1 188:1 206:1 244:1 247:1 328:1 346:2 390:1 449:1 450:1 452:3 456:1 478:1 546:1 560:1 681:1 695:4 859:1 1003:1 1184:1 1524:1 1572:1 1731:1 2006:1 2015:1 2072:1 2172:1 2176:1 2250:1 2316:1 2369:2 2763:2 2971:1 3156:1 3165:1 3401:1 3504:1 4974:1 5058:1 6126:1 6384:1 6869:1 8388:1 8422:1 8825:1 9436:1 9561:1 10348:1 11792:1 15610:1 16556:1 19271:1 20068:1 21020:1 21148:1 21384:1 22733:1 28077:1 34210:1 34722:1 36367:1 44297:1 44842:1 44843:1 44844:1 44845:1 44846:1 44847:1 44848:1 44849:1 44850:1 44851:1 44852:1 #
-0.02601461149762797 3:4 4:7 8:1 12:3 17:1 21:1 23:2 36:3 44:1 56:2 57:1 58:3 71:1 90:2 91:1 121:1 138:1 139:1 159:1 196:1 199:1 219:1 234:1 236:1 287:1 342:1 350:1 383:1 390:2 401:3 406:1 503:1 570:1 578:1 652:1 702:1 710:1 723:1 728:1 1107:1 1190:2 1377:1 1408:1 1834:1 1886:1 1899:2 2278:1 2286:2 2348:1 2637:1 2876:2 3047:3 3128:1 3178:1 3706:3 4332:1 4551:1 5001:2 5049:1 5122:1 5365:1 5757:1 6053:1 15541:2 20094:1 35551:1 66509:1 #
0.027326028523894649 3:12 4:35 7:12 8:1 9:4 12:16 21:3 23:5 36:9 41:3 44:1 46:1 51:3 56:2 58:1 68:2 78:1 87:1 91:9 96:1 97:2 106:1 107:2 113:1 115:1 119:5 120:1 138:2 141:1 150:1 154:3 175:1 177:1 185:2 188:2 196:2 197:1 206:1 219:1 234:1 242:2 243:1 277:5 287:1 289:3 336:1 337:1 340:1 345:2 365:3 383:2 390:2 406:1 435:1 438:1 462:1 467:1 483:2 504:4 509:2 517:1 524:1 556:1 560:2 600:1 603:1 625:1 630:1 638:1 648:1 681:1 715:1 795:1 859:1 860:1 946:1 978:1 1035:1 1211:1 1246:1 1289:1 1361:1 1411:1 1508:1 1521:1 1667:3 1791:1 1834:1 1846:1 1899:1 1966:3 1972:1 1998:1 2014:3 2052:1 2126:2 2199:2 2238:1 2250:2 2305:1 2393:1 2416:1 2568:2 2631:1 2768:1 2834:1 2851:1 2864:1 2980:1 3062:1 3411:1 3561:1 3754:1 4102:1 4170:1 4240:3 4276:1 4319:1 4363:1 4364:1 4381:2 4417:1 4507:1 4588:1 4717:1 5305:1 5559:1 5840:1 6261:1 6518:1 6531:1 7280:1 7565:1 8656:1 9403:1 9404:1 9592:3 10561:1 11662:1 11692:1 11985:1 13712:1 15331:1 16960:1 17676:1 18127:1 18464:1 18685:3 20965:1 26276:1 26277:1 26278:1 26279:1 26280:1 26281:1 26282:1 26283:1 #
0.027537413039240802 3:3 4:11 7:2 8:1 12:7 17:1 23:1 24:1 27:1 28:1 29:1 30:1 33:1 36:2 44:1 46:1 58:2 69:1 90:1 91:1 95:2 107:1 119:1 138:2 173:1 175:1 177:1 230:1 242:1 244:1 255:2 258:1 274:1 327:1 328:1 333:1 365:1 395:1 411:1 450:1 451:1 464:1 466:1 482:1 484:1 494:2 582:1 755:1 864:1 1121:1 1167:1 1168:2 1193:1 1287:1 1311:1 1412:1 1460:1 1485:1 1546:1 1555:1 1685:1 1695:1 1885:1 2072:1 2978:1 3002:1 3007:1 3043:1 3357:1 4128:1 4207:1 4835:2 5047:1 7020:3 7468:1 7923:1 11049:1 11802:1 22505:1 #
-0.009810136874575489 3:5 4:16 8:1 9:2 10:1 12:10 23:3 36:5 46:1 56:2 58:1 70:1 91:2 97:1 119:1 121:1 179:1 188:2 197:1 200:1 243:1 244:1 258:2 311:1 314:2 318:1 321:9 340:1 346:1 426:4 445:2 591:1 647:1 702:1 727:1 728:1 787:1 875:1 916:1 1145:1 1252:3 1260:2 1269:1 1271:1 1285:1 1362:1 1411:1 1460:2 1463:2 1464:1 1507:1 1653:1 1837:1 2021:2 2121:1 2152:1 2250:1 2357:2 2387:1 2579:4 2740:1 2991:1 3047:1 3237:1 3357:3 3855:1 4032:1 4071:2 4107:2 4627:1 5114:1 5374:1 7505:1 7623:1 7905:1 8856:1 12362:1 12913:2 #
0.031145951364737069 3:1 4:8 8:1 9:2 12:6 44:1 51:1 91:1 185:1 242:1 243:1 248:1 272:1 277:1 328:1 574:1 604:1 647:1 872:1 877:1 1083:1 1193:1 1241:1 1425:1 1625:1 1716:1 1777:1 1969:1 2165:1 2177:1 2184:1 2214:1 2862:1 3454:1 3653:1 4403:1 4472:1 4870:2 6098:1 7024:1 7064:1 7731:1 8574:1 23152:1 35075:1 41273:2 45402:1 58843:1 68348:1 74829:1 74830:1 #
-0.093832637944931505 3:5 4:6 8:1 9:1 12:2 23:1 27:2 51:1 66:1 70:2 107:1 214:1 390:1 449:1 450:2 464:2 480:1 715:1 1072:1 1408:1 1507:1 1966:1 2031:1 2373:1 2424:1 2673:1 4199:2 8855:1 10399:1 36629:1 43809:1 49682:1 52077:1 #
0.20460440543424652 4:1 8:1 9:1 12:2 44:1 120:1 173:1 330:3 331:3 383:1 402:1 692:2 1110:1 1638:1 1648:1 3211:1 3634:1 4718:1 5373:1 5493:1 6558:3 9986:1 15975:3 #
-0.074754053316691951 3:1 4:2 8:1 9:2 12:1 23:1 36:1 46:1 145:1 233:1 244:1 450:1 523:1 526:1 622:2 878:2 1658:1 1937:1 2012:2 2532:1 2795:2 3443:1 3564:2 4055:1 5124:2 5217:1 8839:1 8840:1 38114:1 38115:1 #
0.27586828380525702 3:1 4:1 8:1 12:2 23:1 27:1 36:1 41:2 44:2 46:1 51:1 56:1 58:1 64:1 90:1 106:1 119:1 154:1 185:2 214:1 404:3 533:1 577:1 594:1 795:1 1045:1 1098:1 1285:1 1381:3 2016:1 2534:1 2626:1 3159:1 3309:1 3702:1 4995:1 5663:1 6221:1 6934:1 20095:1 33703:2 94490:1 #
0.0032638232019943864 3:5 4:21 8:1 9:3 12:8 21:1 22:3 23:9 27:2 36:7 41:4 44:2 46:3 51:3 56:1 58:1 60:1 90:1 91:6 97:2 122:2 168:1 177:2 211:3 219:1 226:3 231:3 238:1 244:5 256:2 308:5 314:4 315:1 385:1 390:1 456:1 478:1 507:1 541:2 546:1 548:1 573:3 659:1 669:1 682:1 706:1 723:3 834:1 839:1 870:1 871:1 873:3 923:1 964:1 975:2 1061:1 1146:1 1157:1 1212:1 1289:1 1294:2 1308:2 1408:1 1439:1 1538:1 1618:1 1943:1 2245:1 2250:1 2264:1 2367:1 2421:1 2423:2 2513:5 2568:1 2582:1 3059:1 3180:1 3621:5 3653:3 3671:1 4055:1 4926:1 5037:1 5246:1 5455:1 6103:2 6105:1 6150:1 6207:1 6315:1 6381:1 7168:1 7392:1 8425:1 8557:1 9092:1 9777:1 9954:1 12347:1 12737:1 13046:1 16753:1 18058:2 18602:2 18944:1 19303:1 27081:1 34668:10 40561:8 65991:1 85255:1 87614:1 87615:1 #
0.013144611976252772 3:2 4:18 8:1 12:18 17:2 23:3 36:4 41:2 44:2 48:1 51:4 56:1 58:7 64:2 66:2 69:1 80:1 90:3 91:3 97:1 99:1 121:1 175:1 177:2 185:2 208:1 222:1 236:5 239:2 240:2 289:2 308:1 315:1 327:1 344:1 351:2 354:1 394:1 403:1 412:1 452:1 465:1 477:1 541:4 568:1 570:1 578:1 605:1 610:1 626:1 647:1 672:1 683:2 776:1 865:2 877:1 975:1 1016:1 1189:2 1237:1 1252:2 1270:7 1294:1 1308:1 1327:1 1379:1 1388:1 1408:2 1425:1 1439:1 1557:1 1568:1 1675:1 1731:2 1775:1 1836:1 1898:2 1913:1 2108:1 2348:4 2443:1 2544:1 2720:9 2725:2 2762:1 2822:1 3044:1 3109:9 3116:1 3140:1 3180:1 3218:1 3324:1 3620:1 3768:1 3771:5 4238:2 4434:3 4609:1 4889:2 5038:1 6229:2 6549:1 6619:1 6736:1 6867:8 8364:1 8610:1 9807:1 10275:1 11989:1 12601:5 16060:1 17155:1 22427:1 22962:1 22963:1 22964:1 22965:1 22966:1 22967:1 22968:1 22969:1 22970:1 22971:1 22972:1 22973:1 #
0.22150893932261373 3:4 4:9 8:1 12:3 17:2 23:2 33:1 36:1 41:1 44:1 51:2 58:2 78:1 80:2 84:1 90:1 91:3 95:3 103:1 107:2 126:1 136:1 144:1 145:1 148:1 174:1 175:1 179:1 196:1 197:1 236:2 247:1 289:3 314:2 337:3 497:1 523:1 694:1 975:1 1102:2 1110:1 1168:1 1399:1 1408:1 1462:1 1546:2 1591:1 1592:1 1647:1 1751:2 2119:2 2568:2 2874:1 3395:2 3573:1 3641:1 4281:2 5665:1 6219:2 6531:1 10315:1 13176:1 14673:1 16204:1 39657:1 45252:1 45253:1 45254:1 #
-0.048014390491600202 3:1 4:5 7:1 8:1 9:1 12:4 17:1 21:1 23:2 36:2 46:1 58:1 66:1 68:1 90:1 104:2 121:1 145:1 175:1 209:1 214:1 216:1 265:1 277:1 327:1 339:1 365:1 394:1 404:2 406:1 588:1 647:1 840:2 963:1 1193:1 1346:1 1408:1 1590:1 1659:2 1742:1 2020:1 2071:1 2122:2 2199:1 2514:1 3279:1 4859:1 6792:1 10349:1 11321:1 #
-0.12013972502057145 4:5 7:1 8:1 12:3 36:2 97:1 110:1 126:1 244:2 289:2 308:1 345:2 451:1 456:1 1079:1 1400:1 1546:2 2240:2 2423:2 2731:1 2907:1 4588:1 41512:1 56723:2 #
-0.013208602125682168 3:5 4:6 8:1 9:1 12:5 36:4 41:1 44:2 46:1 51:1 56:1 58:3 60:2 78:1 91:1 94:2 97:1 106:1 116:1 117:1 167:1 177:1 185:1 203:1 208:2 244:1 265:2 319:1 327:1 335:1 390:1 439:2 450:4 452:1 602:1 648:1 659:1 706:1 710:2 799:2 930:1 935:1 1137:2 1381:1 1690:1 1731:1 1934:1 2072:1 2256:1 2298:1 2416:1 3383:1 3403:1 3722:1 3881:1 4370:1 4605:4 5305:2 5352:1 5820:1 10008:1 10009:1 10466:4 14364:1 62658:1 #
-0.0085910601712629667 3:4 4:6 8:1 10:1 12:6 36:1 44:2 46:1 48:1 73:1 91:2 97:1 99:1 113:1 116:1 123:1 126:1 244:1 256:1 302:1 346:2 410:1 411:1 565:1 577:1 591:1 681:1 692:3 695:3 699:1 873:1 895:1 1104:1 1282:2 1285:1 1348:2 1352:1 1391:1 1400:2 1408:1 1642:1 1667:1 1753:1 1760:1 1779:2 2250:1 2259:1 2261:2 2371:1 2534:1 4858:1 6170:1 8926:2 82378:1 #
0.21237417464228456 3:2 4:1 8:1 12:1 36:1 185:1 196:1 269:1 1371:1 2109:1 2267:1 2322:1 3309:1 4522:1 15925:1 17035:1 43892:1 97657:1 97658:1 97659:1 #
-0.0087533166522632978 4:7 7:3 8:1 9:1 12:1 17:2 21:1 36:3 41:1 44:2 51:3 74:1 80:1 107:1 119:1 120:1 126:4 132:2 196:1 199:1 248:1 302:1 383:1 404:1 416:1 454:3 692:1 840:1 994:1 1346:1 1557:2 1648:1 1659:1 2013:3 3788:1 4247:1 4462:3 4805:1 5137:1 5503:1 5951:2 8750:1 29560:1 #
-0.010580137590410932 3:5 4:12 8:1 12:6 17:1 23:1 24:1 27:1 36:1 41:1 44:2 46:1 51:1 90:1 91:5 107:1 175:2 255:1 257:1 341:1 344:1 398:1 411:1 452:1 482:1 533:1 592:2 630:4 694:1 718:1 795:2 842:1 916:2 933:1 1097:1 1119:1 1239:1 1251:1 1267:1 1311:1 1318:3 1391:2 1413:1 1554:1 1672:2 1733:1 1740:1 1741:1 1764:1 1766:1 2040:1 2176:1 3167:1 4263:1 4302:1 4630:1 4725:1 5221:1 5305:1 7983:1 16424:1 28478:1 28877:1 71380:1 71381:1 #
-0.10715895559063486 8:1 9:1 17:1 23:1 27:1 58:1 121:1 126:1 152:1 173:1 188:1 233:1 243:2 244:1 293:1 404:1 434:1 709:2 714:1 840:1 894:1 1294:1 2003:1 2234:2 4181:1 5062:2 #
-0.010606059436693821 3:2 4:3 8:1 12:5 23:2 44:2 58:1 91:4 188:1 302:2 391:1 392:1 533:1 630:1 709:1 840:2 865:4 881:1 894:1 1145:1 1181:1 1408:1 1471:3 2011:1 2443:1 3125:1 3631:1 3651:1 4323:2 4883:1 9173:1 61878:1 #
0.047040941675983543 3:5 4:21 8:1 9:6 10:2 12:5 21:1 23:4 27:2 36:4 41:1 44:2 46:1 51:5 58:1 69:1 91:1 97:1 113:1 126:1 145:1 175:3 185:1 219:1 234:1 242:1 255:1 256:1 258:1 259:1 289:1 293:2 296:1 333:1 408:2 420:1 428:1 458:7 465:1 466:1 480:1 494:1 496:1 497:1 504:1 519:1 560:1 565:1 701:1 721:1 726:1 810:1 870:2 871:1 908:6 927:1 994:1 1294:1 1359:1 1396:1 1407:1 1505:1 1598:1 1638:1 1658:1 1768:1 1855:2 2072:1 2199:1 2560:1 2718:1 2720:1 2728:1 2781:1 2965:1 3009:5 3083:1 3658:2 3755:1 3865:3 4131:1 4273:1 4515:1 5047:1 5333:1 5938:3 6202:2 6872:1 7285:1 9227:3 10072:1 10136:1 11672:1 13303:1 15241:3 #
-0.014317977541757154 3:4 4:6 7:1 8:1 12:3 23:1 36:1 42:1 44:4 68:1 91:5 97:3 131:1 139:1 154:1 169:1 175:1 189:1 259:2 296:1 436:1 452:1 594:1 728:1 1031:1 1072:1 1327:1 1546:2 1592:1 1621:2 1625:2 1667:3 1844:1 1998:1 2126:1 2202:2 3518:1 3884:2 3959:1 4042:1 5026:2 8393:1 9533:1 9776:1 10336:1 18102:1 29102:1 79329:1 #
0.2186026430977781 4:1 8:1 12:2 44:1 932:1 1522:1 4219:2 6619:2 6952:1 32047:2 #
-0.33245571038081234 4:2 8:1 23:1 24:1 46:1 51:2 90:1 244:1 252:1 274:1 289:1 330:1 450:3 464:4 564:1 638:1 698:1 904:2 927:1 1009:1 1119:1 1885:1 2039:3 3031:1 3357:1 5488:1 6030:1 6187:1 6438:1 8508:1 42188:1 #
-0.054215971843495872 3:2 4:2 7:1 8:1 9:2 12:1 17:1 41:1 46:2 91:2 107:1 197:1 457:2 481:2 798:1 840:2 1254:2 1844:1 1846:2 2122:2 2369:1 2375:1 2762:2 3100:2 5930:1 6836:1 9557:1 57633:1 #
0.068447828653428286 3:2 4:14 8:1 11:1 12:6 17:2 23:4 27:2 36:2 41:1 51:1 58:1 69:1 70:1 78:1 90:2 91:2 107:1 121:1 196:1 219:1 236:2 244:2 319:1 336:1 345:3 346:1 383:1 406:1 431:1 451:1 454:1 477:1 480:1 482:3 486:1 509:1 573:1 592:1 618:1 909:4 1150:1 1173:1 1175:1 1212:4 1347:1 1808:1 1874:1 1896:1 1912:1 2041:1 2072:1 2088:2 2189:1 2305:1 2359:1 2532:1 2568:1 2676:1 2722:1 3222:1 4071:1 4173:1 4381:1 4382:1 4713:1 4749:2 5047:1 6247:1 6765:1 6793:1 7192:1 9241:1 9243:1 11643:1 11943:1 14481:1 15587:1 27667:1 30217:1 74553:1 #
0.078894502900817107 3:5 4:14 8:1 12:10 17:1 23:6 27:3 28:1 29:2 36:7 39:1 41:5 44:3 46:1 51:3 56:1 70:2 87:1 90:3 91:4 97:1 107:2 119:2 121:1 126:5 140:1 164:1 166:1 173:1 175:2 185:1 188:6 214:2 244:3 330:1 365:2 395:2 482:1 593:1 594:1 654:3 681:1 709:1 723:1 731:1 815:2 927:1 929:2 1107:1 1118:1 1119:1 1189:1 1205:1 1235:2 1255:1 1339:1 1344:1 1391:1 1443:1 1527:1 1592:1 1631:1 1653:1 1723:3 1828:3 1844:1 2036:1 2105:2 2189:1 2202:1 2301:1 2360:1 2375:2 2541:1 2566:3 2624:2 2642:2 2834:1 2965:1 3010:1 3332:1 3372:1 3400:2 3546:1 3656:5 4009:1 4224:1 4491:1 4535:1 5346:1 5373:4 6081:1 6490:1 6811:1 8379:1 8413:1 8637:1 8993:1 9052:1 11377:1 13076:1 15688:1 22714:1 23114:3 25593:3 29932:2 33209:1 33210:1 #
-0.012089904772584833 3:5 4:7 8:1 9:2 10:1 12:4 17:1 21:1 23:1 36:1 41:1 56:1 58:2 59:1 91:1 119:1 146:1 173:1 175:1 188:1 197:1 203:1 211:1 233:1 359:1 384:1 422:1 523:2 533:1 704:1 705:2 716:1 756:1 799:1 856:1 1061:1 1109:1 1282:2 1318:1 1549:2 1590:1 1635:1 1671:1 1751:1 1764:1 2041:1 2123:1 2409:1 2886:2 2961:2 3234:1 3260:1 4128:2 4574:2 5272:4 6625:1 7134:1 7178:1 16310:1 16311:1 #
-0.026834721852393016 3:3 4:4 7:2 8:1 9:5 12:4 21:2 23:1 36:2 40:1 41:4 44:1 51:1 56:1 58:1 63:1 71:1 91:2 104:1 107:1 196:1 244:1 248:1 289:1 307:1 331:1 422:1 477:1 541:1 551:2 591:1 592:1 636:1 695:2 717:1 718:1 784:1 795:1 858:1 889:1 911:1 920:1 930:1 938:1 1027:2 1145:1 1187:1 1318:1 1320:1 1352:1 1668:1 1727:1 1779:1 1822:1 1846:1 2268:1 2532:1 2723:1 2745:1 3060:4 3134:1 3463:1 3700:1 4420:1 4858:1 5307:1 5555:1 5996:1 6780:2 6831:1 9074:1 #
0.014052722349072819 3:2 4:14 7:1 8:1 9:1 12:3 23:3 36:4 39:1 41:1 56:5 74:2 91:1 107:1 136:1 185:2 189:3 239:4 240:3 244:4 248:1 259:1 270:1 272:1 289:1 346:1 390:1 396:1 412:1 426:3 452:1 456:1 458:3 497:1 517:1 519:1 555:1 630:1 695:1 698:1 706:1 716:1 721:1 723:1 785:2 799:1 828:1 904:1 908:5 1079:3 1085:1 1107:1 1110:1 1269:1 1271:1 1346:1 1371:1 1408:1 1534:1 1737:1 1760:1 1899:2 2205:1 2253:1 2424:2 2832:1 3237:1 3357:1 3727:1 4413:1 4889:1 5354:1 5807:1 6198:1 7157:1 8023:1 8029:1 9051:4 9177:1 9682:1 21506:2 21507:2 21508:2 21509:1 21510:1 21511:1 21512:1 #
-0.00077252629483477362 3:1 8:1 9:1 12:2 28:1 41:1 51:1 80:1 91:1 97:1 98:2 107:1 185:1 197:1 231:1 327:1 438:1 467:1 623:1 665:1 824:1 1184:1 1846:1 2223:1 4861:1 8197:1 9303:1 9814:1 10907:1 12693:1 15342:1 24586:1 26956:1 30116:1 65703:1 96747:1 96748:1 96749:1 #
-0.028378214389276801 3:1 4:6 7:1 8:1 9:1 12:5 21:1 23:1 33:1 36:5 41:1 44:1 46:2 51:1 56:2 58:2 64:1 91:2 106:1 118:1 141:1 167:1 197:1 244:1 327:1 328:1 353:2 354:1 365:1 428:1 482:3 533:1 544:1 582:1 647:1 649:1 682:1 705:1 792:1 795:1 904:1 935:2 963:1 1002:1 1045:1 1287:1 1318:1 1320:3 1913:1 1992:1 2056:1 2105:1 2172:1 2296:1 2304:1 2543:1 2992:4 3047:1 3050:2 3128:1 3308:1 3309:2 3578:1 4150:1 4217:1 4265:1 4425:1 4723:1 5384:1 5660:2 6599:1 11792:1 14233:1 17957:1 #
0.017216799781064007 4:10 8:1 9:1 12:5 17:1 21:1 23:4 36:5 44:2 51:1 58:4 59:2 63:1 90:1 119:2 120:1 121:1 145:1 177:1 185:1 214:1 234:1 242:1 277:1 290:1 308:1 327:1 332:1 346:4 385:1 477:1 497:1 524:1 548:1 706:1 787:1 795:1 813:1 1015:2 1096:1 1294:1 1362:1 1442:1 1505:1 1536:2 1569:1 1645:1 1741:5 1892:2 1924:1 2087:4 2879:2 3185:2 3402:1 3861:1 4002:1 4474:3 5561:1 5592:1 5693:2 5956:2 6378:1 6469:1 6742:1 7171:1 10249:1 11913:1 12909:1 14511:1 24725:1 28170:2 37831:1 79773:1 #
-0.12704727151222328 3:2 8:1 12:1 17:1 23:1 28:1 36:2 51:1 68:1 90:2 167:1 246:1 277:2 289:1 309:1 390:2 840:1 1259:3 1305:1 1405:1 1923:1 2301:1 2966:2 3407:1 4303:1 4372:1 4391:1 #
-0.017888537736386829 3:1 4:3 7:1 8:1 9:2 12:4 23:1 36:2 41:1 51:3 58:1 64:2 68:1 91:2 97:2 107:1 175:1 197:1 243:1 268:1 352:2 365:1 423:1 428:1 501:1 617:1 706:1 723:1 850:1 1145:1 1175:1 1363:1 1985:1 2012:3 2015:1 2030:1 2455:1 2547:1 2778:3 2838:1 3055:1 3178:1 4312:1 5324:1 5383:1 5423:1 7018:1 10168:1 11294:1 11543:1 12053:1 17990:1 19272:1 24189:1 27762:1 88855:1 88856:1 88857:1 #
-0.025192211116995669 3:1 8:1 9:1 12:1 36:1 91:1 173:1 185:3 242:1 243:1 244:2 293:2 401:1 414:1 426:1 489:1 590:1 723:1 840:2 964:1 1596:1 3307:2 7432:1 7600:1 8645:1 14728:1 15539:1 18712:1 80658:1 80659:1 #
-0.036903088005220894 3:5 4:3 7:4 8:1 9:1 12:2 23:1 27:1 36:1 39:1 41:2 56:1 64:1 74:1 90:3 107:1 145:3 197:1 256:1 289:1 302:2 365:4 450:4 451:1 452:1 464:4 467:1 478:1 560:1 626:1 682:1 698:1 838:1 904:3 1014:1 1026:1 1045:1 1281:1 1507:1 1591:1 1884:2 1912:1 1933:1 2122:1 2199:1 2264:1 2537:2 2671:1 2966:4 3788:2 4433:1 5894:1 6205:2 7128:1 49307:1 67127:1 #
-0.015617328874438589 3:2 4:5 7:2 8:1 9:3 12:2 27:1 36:4 46:2 58:1 69:1 70:2 86:1 91:4 104:1 138:1 141:1 188:1 197:1 247:1 321:4 345:1 370:1 406:1 659:1 681:1 695:2 717:1 723:1 1228:2 1275:1 1376:1 1465:1 1645:1 1648:1 1654:1 1920:1 1998:1 2004:1 2014:1 2357:2 2379:1 2632:1 3125:1 4522:1 5275:1 6928:1 8265:1 10760:1 11905:1 28836:2 36747:1 54144:1 54145:1 #
-0.0036063964477615357 3:2 4:3 8:1 9:1 12:5 17:2 21:1 36:2 41:1 44:2 46:1 51:1 56:1 59:2 63:1 90:2 91:5 97:1 107:3 120:1 123:2 126:1 164:1 175:1 185:2 216:1 219:1 231:3 236:1 256:1 346:2 454:1 458:1 467:2 481:1 507:1 514:2 560:1 592:1 615:2 630:1 638:1 695:3 781:1 789:1 935:1 1193:1 1325:1 1330:1 1485:1 1511:1 1760:1 1828:1 2015:1 2192:1 2247:1 2333:1 2617:1 2834:1 2936:1 3270:1 3516:1 3518:1 3701:2 4154:1 4170:1 4450:1 5108:2 5550:1 5589:1 7943:1 8199:1 9016:1 9131:2 15943:1 40573:2 49067:1 49068:1 49069:1 49070:1 49071:1 #
-0.0020365273104051376 8:1 133:5 513:5 749:1 753:3 905:1 3130:1 3189:2 3419:1 5418:2 6650:1 9089:1 11167:1 12443:1 13087:1 13882:1 16520:1 20549:1 21249:2 22039:2 22124:1 27893:1 29241:1 31952:3 39878:1 39879:1 39881:1 40350:1 43259:3 46328:1 48621:1 48633:1 54334:2 54335:2 54336:2 54337:3 60148:2 74724:1 77506:1 78216:2 78345:2 83203:1 85861:1 86166:1 89983:1 89984:1 89985:2 89986:1 89987:2 89988:1 89989:1 89990:1 89991:1 89992:1 89993:1 89994:1 89995:1 89996:1 89997:1 89998:1 89999:1 90000:1 90001:1 90002:1 90003:1 90004:2 90005:1 90006:2 90007:1 90008:1 90009:1 90010:1 90011:1 90012:1 90013:1 90014:1 #
-0.00080829087139513154 4:8 8:1 12:3 30:1 36:5 40:1 41:1 44:1 51:1 56:1 58:1 83:1 110:1 113:1 119:1 175:1 185:1 233:1 243:1 293:1 327:1 335:1 359:1 411:1 482:1 511:1 546:1 555:1 557:1 697:1 721:1 926:1 1102:1 1235:1 1269:1 1285:1 1408:1 1475:1 1846:2 2003:1 2087:2 2744:2 3444:1 3839:1 4032:1 4178:2 4218:1 5092:1 7056:2 11845:1 14490:2 19418:1 23667:4 30159:1 32949:1 #
-0.0025927543220793797 3:3 4:8 8:1 11:1 12:3 17:1 23:1 36:3 44:2 58:1 91:2 102:1 120:1 188:2 244:1 346:2 383:1 401:1 404:1 429:1 431:1 505:1 591:1 723:1 920:1 1170:1 1173:1 1215:3 1219:1 1464:1 3080:1 3307:1 4713:1 5305:1 5757:1 7511:3 7513:1 13526:1 16300:1 24626:1 #
-0.0014164752201330905 4:3 8:1 9:1 12:2 21:1 23:1 26:1 27:1 36:1 46:1 56:1 58:2 68:1 152:1 196:1 345:2 478:1 488:1 584:1 622:1 695:1 715:1 783:1 875:1 1098:1 1252:1 1316:1 1625:1 1914:1 2978:4 3260:1 3309:1 3338:1 3961:1 4401:1 4478:1 5363:2 6955:1 8029:1 8974:2 9995:1 10603:1 12035:1 12089:1 12632:1 20000:1 46811:1 73229:1 82810:1 82811:1 #
-0.025708331968942417 3:2 4:5 8:1 9:1 12:5 17:1 23:2 36:4 41:1 44:1 56:1 58:2 70:3 80:1 90:1 91:3 97:1 104:1 108:1 119:1 148:1 175:1 177:2 185:1 188:1 196:1 242:1 308:1 337:2 346:1 425:2 482:1 487:1 497:2 522:2 524:1 526:1 617:1 667:1 715:1 878:1 883:1 944:1 1055:1 1145:1 1596:1 1771:1 1823:1 1828:3 2566:6 2695:1 4375:2 4508:1 4510:1 4858:1 4876:1 5273:1 5307:1 7178:1 7411:1 9187:2 15538:1 17942:2 26483:1 76199:1 76200:1 #
-0.0075849269806149856 3:1 4:3 8:1 9:1 12:1 17:3 41:1 90:2 107:1 175:1 179:1 582:1 653:2 878:1 921:1 935:1 1301:1 1630:1 1667:1 1910:1 1917:1 2373:1 3167:1 3503:2 4212:1 6302:4 16180:4 20976:1 #
0.061282605429190867 3:7 4:9 8:1 9:3 10:1 12:5 17:5 21:1 23:5 27:4 28:2 33:2 36:5 41:2 44:5 46:1 47:1 51:3 58:1 59:1 86:1 90:3 91:7 94:2 97:2 107:1 119:1 120:1 122:1 126:2 164:1 172:1 173:1 175:3 179:1 185:2 203:1 242:1 244:2 248:1 289:4 295:1 308:2 314:1 320:1 346:1 352:1 353:1 354:1 385:1 390:1 406:1 420:1 428:6 439:2 452:2 466:1 477:3 481:1 503:1 592:1 594:1 630:2 672:2 721:1 723:1 777:1 840:1 842:2 1036:1 1061:1 1120:3 1146:2 1259:1 1285:2 1301:3 1309:2 1507:2 1511:1 1523:1 1667:1 1701:1 1716:1 1923:1 2022:1 2069:1 2097:1 2125:1 2258:1 2265:3 2270:1 2276:1 2297:1 2534:1 2561:1 2834:1 2978:2 2987:1 3099:1 3133:1 3178:1 3228:1 3259:1 3325:1 3407:1 3480:1 3990:2 4032:1 4159:1 4269:1 4352:1 4367:1 4462:2 4507:1 4578:2 4592:1 4749:2 4790:1 4797:1 4858:1 4912:1 5379:1 5384:1 5442:1 5609:1 7796:1 8509:1 8585:1 9132:2 9175:1 9725:1 9726:1 10074:1 10732:3 11122:1 11653:1 11672:1 13425:1 14875:1 16260:1 19446:1 22673:1 23080:1 23391:1 41241:1 46337:1 46338:1 #
0.030341955853242748 2:1 3:4 4:2 8:1 9:3 12:3 17:2 23:4 27:1 28:1 36:2 51:3 56:3 97:3 115:1 122:1 139:1 165:1 175:2 214:1 219:1 243:1 244:1 248:1 277:1 293:1 296:3 319:4 327:1 375:2 390:1 450:1 454:1 477:2 502:1 579:1 622:1 630:4 647:1 681:1 683:1 709:1 735:1 796:1 908:1 909:1 935:1 946:1 997:1 1003:1 1014:1 1118:1 1328:2 1451:3 1511:1 1618:1 1672:3 1731:1 1795:1 1825:1 1866:2 1924:1 1969:1 2116:1 2199:2 2260:2 2314:1 2469:1 2567:1 2620:1 3037:1 3060:1 3082:2 3634:1 3755:3 3797:2 3876:1 4481:1 4515:1 4831:1 8875:1 13196:1 20618:1 93405:1 93406:1 93407:1 #
0.019541288490753015 4:9 8:1 9:7 12:7 23:4 27:2 36:5 39:2 41:4 44:5 51:1 58:2 60:1 80:1 91:4 97:1 107:2 115:1 123:2 126:1 139:1 143:1 145:4 154:1 175:4 177:1 185:3 196:1 197:1 239:1 244:1 246:1 248:2 284:1 296:2 320:2 321:2 328:1 403:1 458:1 494:1 524:1 546:1 610:1 625:1 630:1 634:1 669:1 716:1 721:1 724:1 782:1 828:1 871:1 875:1 913:1 916:2 1052:1 1107:1 1177:1 1184:1 1255:1 1260:2 1320:2 1330:1 1622:1 1623:2 1624:1 1691:1 1797:1 1835:1 1944:1 2639:1 2811:1 3144:1 3259:1 3357:1 3807:1 3841:1 3884:1 4069:2 4070:1 4071:1 4072:1 4073:1 4074:1 4075:1 4076:2 4077:2 4078:1 4079:2 4080:1 4081:1 4082:1 4083:2 4084:1 4085:2 4086:1 4087:1 4088:1 4089:1 4090:1 4091:1 4092:2 4093:1 4094:1 4095:1 4096:1 4097:1 4098:1 4099:1 4100:1 4101:1 4102:1 4103:1 4104:1 4105:1 4106:1 4107:1 4108:1 4109:1 4110:1 4111:1 4112:1 4113:1 4114:1 4115:1 4116:1 #
0.0023738121149157227 3:3 4:11 8:1 9:2 12:12 14:1 23:3 24:1 27:4 36:4 44:6 46:2 56:1 63:1 64:1 66:1 70:2 90:1 91:8 97:3 107:1 119:1 131:1 152:1 173:1 175:3 177:3 185:1 206:2 218:1 234:1 244:2 282:1 293:1 296:1 327:1 346:2 359:3 365:1 396:1 428:1 430:1 457:1 460:2 482:1 519:1 524:1 541:3 543:2 711:1 727:1 728:1 741:1 795:6 881:1 889:1 924:1 990:1 1014:1 1016:1 1060:3 1144:1 1237:1 1242:1 1377:1 1466:1 1471:1 1502:3 1568:1 1569:1 1709:1 1731:1 1818:1 1866:1 1916:1 1985:2 2003:1 2019:1 2072:1 2108:1 2305:2 2316:1 2375:2 2443:1 2532:2 2801:1 2843:1 3130:1 3178:1 3550:2 3607:1 3755:1 3845:1 4009:1 4159:1 4270:1 4348:1 4660:1 4932:1 4964:1 5017:1 5589:1 5666:1 5693:1 6246:1 7137:2 7151:1 7173:1 7547:1 7750:3 8650:1 9002:2 10989:1 12204:1 14967:1 15144:1 16120:1 20298:1 20309:1 21115:1 23981:1 24514:1 27465:1 51462:1 51463:1 51464:1 #
-0.0033058920955080688 3:2 4:4 8:1 9:1 12:4 17:1 36:1 40:1 90:1 97:1 121:1 159:1 175:1 197:1 233:1 482:2 1586:1 1742:1 3897:1 4533:1 5680:2 5751:2 6650:1 8189:1 8190:2 10446:1 16040:1 27554:2 27555:2 #
-0.0003547573455281028 3:3 4:7 8:1 9:2 10:1 18:3 23:2 36:1 41:1 44:4 51:1 66:1 72:1 75:1 107:1 116:1 119:1 150:1 167:1 175:1 185:1 189:1 203:1 208:1 214:1 244:2 272:1 302:1 320:1 339:1 353:1 378:1 396:1 452:1 548:1 582:1 669:1 690:1 935:2 1041:1 1125:1 1259:1 1371:2 1479:1 1591:1 1716:1 1824:1 2030:1 2122:1 2125:1 3500:1 3634:2 4001:1 5272:1 5384:1 6135:1 6558:2 7227:1 7392:1 7721:1 9488:1 9660:1 9865:2 34629:1 39647:1 58710:1 #
-0.0042685065794837822 3:4 4:8 8:1 9:2 12:4 21:1 23:1 29:1 36:2 40:1 41:2 44:2 46:2 51:1 56:1 58:1 59:1 90:1 107:1 113:2 138:1 167:2 206:1 231:1 243:1 244:1 256:1 295:1 302:1 303:1 314:1 320:1 337:2 341:2 345:1 383:1 401:1 411:3 422:2 426:1 431:1 434:1 477:1 590:1 606:1 625:1 669:1 815:1 832:1 840:2 852:1 904:1 918:3 1014:3 1035:1 1249:1 1731:3 1997:1 2061:1 2199:1 2411:1 2560:1 2969:2 3061:1 3088:1 3307:1 3347:1 4262:1 4304:1 5757:1 6154:1 6667:2 6803:1 6818:1 7357:1 7475:2 10672:1 21821:2 21822:1 21823:1 #
0.057970424341954027 3:1 4:11 7:1 8:1 9:2 10:1 12:5 21:2 23:3 36:4 41:2 44:4 46:1 51:4 58:1 70:1 74:1 91:11 94:3 107:1 115:1 154:1 185:1 210:1 231:1 244:2 287:1 289:2 295:1 302:1 314:3 325:1 346:1 385:1 403:1 409:1 431:4 442:1 451:2 467:2 486:1 504:2 524:1 590:3 592:1 630:3 649:1 659:1 668:1 717:1 723:1 736:2 795:2 818:1 901:1 903:1 1193:2 1285:1 1338:1 1347:1 1412:1 1554:1 1605:1 1653:1 1667:1 1899:1 1923:1 1941:1 2029:1 2116:1 2233:1 2265:2 2585:2 2980:2 3710:1 3722:1 4157:1 4302:1 4307:1 4416:1 4763:1 5026:1 5170:1 5311:1 5348:1 8177:1 11422:1 11534:1 12866:1 17019:1 19700:1 20600:1 29914:1 95156:1 95157:2 95158:2 95159:1 95160:1 #
0.032097833009176575 3:1 4:3 8:1 12:3 23:2 27:1 36:3 44:1 51:1 56:1 63:1 90:2 91:2 97:1 107:2 131:1 147:2 177:1 212:1 236:1 242:1 395:1 403:2 428:1 450:1 467:1 513:2 514:2 569:1 578:1 616:1 682:1 698:1 728:1 795:1 807:1 846:1 848:2 915:1 1098:1 1125:1 1244:1 1252:1 1536:2 2409:1 2561:1 3304:1 3662:1 3826:1 3914:1 4336:1 4554:2 4741:1 6013:1 6326:1 9313:1 12248:2 14324:1 34449:1 56307:2 56308:1 56309:1 56310:1 #
-0.017860692156221613 3:3 8:1 9:2 10:1 51:1 91:1 242:1 289:1 330:2 331:1 1110:1 1119:1 1285:1 1347:3 1648:2 3634:2 4096:2 4718:2 6041:1 77314:1 #
0.028771870125551734 3:5 4:7 8:1 9:2 12:7 17:1 23:1 27:2 28:1 36:3 41:1 44:2 51:1 56:3 58:3 59:1 64:2 66:1 67:3 91:3 95:1 106:1 107:1 117:1 118:1 145:1 172:1 175:2 179:1 203:1 207:1 219:1 244:1 248:1 259:2 289:2 308:1 317:1 327:2 354:1 390:1 428:1 445:1 450:3 457:1 464:3 481:1 486:1 585:2 630:2 681:1 692:1 706:1 814:1 840:1 904:1 933:1 935:4 990:1 1085:1 1095:1 1169:1 1254:1 1327:1 1354:1 1363:2 1371:1 1402:2 1742:1 1918:1 1933:1 2039:1 2045:1 2061:1 2064:4 2079:1 2109:2 2189:1 2530:1 2581:1 2810:1 2864:1 2964:1 2966:1 3052:1 3094:1 3136:1 3332:1 3372:1 3563:1 3822:1 3863:1 3887:1 4063:1 4120:1 4889:1 4987:2 5120:1 5124:2 5833:1 5840:1 5930:1 6125:1 6150:1 6205:1 6505:1 7414:1 7742:1 9984:1 10236:1 14848:1 19917:1 19918:1 19919:1 19920:1 19921:1 #
0.11847405197664192 3:1 4:4 8:1 9:2 10:1 12:7 17:1 23:3 27:2 36:1 41:2 44:1 56:1 60:1 72:1 75:1 90:1 91:5 97:1 107:1 244:1 321:3 345:3 396:1 452:1 602:1 654:1 721:1 840:1 860:1 894:1 929:1 935:2 990:1 1014:1 1096:1 1214:1 1236:1 1301:1 1320:1 1511:1 1742:1 1786:1 2072:1 2122:1 2393:1 2646:1 2746:1 2770:1 2858:1 3089:1 3212:1 3634:3 3992:2 4433:1 4468:1 4924:1 5003:1 5384:1 6020:1 6143:1 7888:1 8085:1 8290:1 8322:1 8732:1 15372:1 34064:1 #
-0.019482453827519196 3:2 4:1 8:1 46:1 59:3 86:1 95:1 147:1 185:1 211:1 231:1 289:1 339:1 341:1 401:2 403:1 815:1 1329:1 1348:1 1439:1 2367:1 3755:3 4715:1 5121:1 5310:1 7264:1 7904:1 10324:1 62981:1 62982:1 62983:1 62984:1 #
-0.35636773985380804 4:1 8:1 12:2 36:3 41:1 44:1 51:1 56:2 119:1 131:1 145:1 240:2 433:1 721:1 782:2 1175:2 1235:1 1255:2 1270:2 1727:1 3988:2 5599:1 13325:1 17627:1 #
-0.0013341258160094059 4:2 8:1 23:2 44:1 91:3 107:1 185:2 785:2 3310:1 4289:1 38854:1 80529:2 80530:1 80531:1 #
-0.072569478471976034 4:3 8:1 12:2 44:1 97:1 119:1 120:1 121:1 185:2 244:1 426:1 451:1 473:1 541:1 1500:1 1715:1 2295:1 2818:1 3507:2 3864:1 6948:1 8815:1 8846:1 74434:1 #
-0.0054281486840147717 3:6 4:14 8:1 11:1 12:8 23:1 36:1 41:1 44:2 51:4 56:3 58:2 83:1 94:3 116:1 119:1 131:1 189:1 196:1 203:1 287:1 345:2 383:1 401:2 404:1 405:2 407:3 412:1 458:1 497:1 586:1 702:1 780:2 1067:1 1107:1 1125:1 1259:1 1341:2 1637:1 1823:1 1885:1 2261:3 2687:3 3125:1 3167:1 3385:1 3849:2 3850:2 4206:1 6460:3 7701:3 9832:1 11443:3 14619:3 70666:1 70667:1 #
0.1339728983511102 4:3 8:1 12:1 21:1 23:1 27:1 36:1 39:1 41:1 91:1 107:1 177:1 197:1 199:1 236:1 244:1 307:2 319:1 330:2 410:2 838:1 904:1 927:1 1047:1 1119:2 1190:1 1340:1 1425:1 1545:2 1581:2 1808:1 2810:1 3151:1 4767:1 6393:1 6736:1 9732:1 12068:1 16433:1 16434:1 85505:1 #
-0.075576319143057985 8:1 12:2 44:1 46:1 67:1 68:1 91:1 107:1 236:1 327:1 390:1 450:2 509:2 591:1 780:2 1035:2 1703:1 3993:1 4214:1 27462:1 94353:1 #
0.0080735287820341579 3:3 4:7 8:1 9:2 10:1 12:5 14:1 23:5 27:1 36:2 41:1 44:2 48:1 51:2 58:1 59:1 91:1 107:2 121:1 138:1 142:1 177:1 232:1 248:1 259:1 265:1 327:2 394:1 398:1 403:3 428:1 433:1 452:1 497:2 506:1 541:1 615:1 706:1 922:1 1091:2 1118:1 1150:1 1328:1 1342:1 1346:1 1441:1 1753:1 1835:2 1923:2 1998:2 2122:4 2125:2 2264:1 2500:1 2693:1 2822:1 2856:1 3023:1 3191:1 3461:1 3631:1 3723:2 4247:1 5076:1 6150:1 6266:1 6297:1 6301:1 7094:1 8679:1 10351:1 10410:1 12955:1 15372:1 16534:1 19506:1 22896:1 32533:1 33317:1 33554:1 34004:1 35648:1 44788:3 57237:1 57238:1 57239:1 57240:3 57241:2 57242:1 57243:1 #
-0.41157633510004465 8:1 12:1 44:1 91:1 107:1 185:1 188:1 277:1 330:2 331:1 509:1 590:1 638:1 654:1 1119:1 3992:1 12570:1 12571:1 #
0.019321271301200815 3:1 4:11 8:1 12:7 19:1 23:4 36:2 44:2 56:1 66:1 91:3 153:1 159:1 172:1 175:1 185:2 197:1 277:1 335:1 343:1 392:1 418:1 465:1 480:1 482:1 506:1 519:1 524:1 541:5 570:1 583:1 591:1 708:1 709:1 715:1 728:1 735:1 782:1 842:1 935:1 1014:1 1502:1 1828:1 1968:1 2374:1 2632:1 2644:1 2739:1 2907:1 3060:2 3122:1 3578:1 3620:1 3865:2 4248:1 4372:1 4436:1 4660:2 5244:1 6057:2 6793:3 6812:1 8820:1 12459:1 #
0.0056551453163563963 3:2 4:5 8:1 9:1 12:5 17:1 23:5 27:2 36:1 41:2 44:2 63:1 64:1 67:1 81:1 90:1 91:3 97:1 120:1 175:1 240:3 244:1 314:1 327:1 345:1 383:1 396:2 452:1 454:1 486:1 570:1 625:1 630:7 682:1 685:1 719:1 721:1 724:3 781:1 1175:1 1215:1 1270:2 1323:1 1377:1 1413:1 1427:1 1438:1 1519:2 1630:1 1705:1 1997:1 2072:1 2560:1 2587:1 2637:1 3083:1 3100:1 3138:4 3480:1 3529:1 3586:1 3634:1 3700:1 3807:1 3988:1 4248:1 4311:2 4332:2 4889:1 5074:1 7559:1 8348:1 8729:1 13241:1 #
-0.023503231644306698 4:9 8:1 9:1 12:5 21:1 23:2 36:5 44:3 51:1 56:2 58:1 64:1 69:1 70:1 91:3 95:1 120:1 154:1 175:1 188:1 242:1 307:1 314:1 321:1 325:2 335:1 337:1 350:1 390:1 429:1 451:2 504:2 630:1 669:1 723:1 815:1 1015:1 1110:3 1400:2 1638:1 1648:5 1649:1 1709:2 1808:1 1839:2 1846:1 1899:1 1998:1 2006:1 2105:2 2357:1 2563:1 2568:1 2572:1 2672:1 2955:1 3055:1 3060:4 3178:1 3211:1 3279:1 3594:1 3842:1 4159:1 4178:1 4540:1 5158:2 5373:1 5595:1 5802:1 6558:2 7280:1 7841:1 9223:1 9228:1 9986:1 14316:1 38271:1 #
-0.055765069030705577 3:1 4:1 8:1 12:1 36:2 46:1 75:1 107:1 177:1 234:1 236:1 282:2 622:1 889:1 1451:2 1923:1 1942:2 2924:1 2925:1 2926:1 #
-0.034303146860035244 3:1 4:3 8:1 9:1 12:2 21:1 95:1 97:1 147:1 242:1 270:1 452:1 530:1 650:1 2435:1 3178:1 8034:1 8047:1 8825:1 94505:1 #
0.014733226967447399 3:4 4:5 8:1 9:3 12:3 23:3 27:2 36:12 41:2 44:2 46:3 56:1 58:5 60:1 64:1 91:2 139:1 175:1 244:1 248:1 256:1 300:1 327:1 328:1 344:1 433:1 450:1 482:1 513:1 514:1 522:2 533:5 575:1 719:2 776:1 839:1 964:1 973:1 1042:1 1045:1 1113:1 1234:1 1254:1 1267:3 1282:3 1318:8 1326:10 1354:2 1361:1 1590:1 1671:2 2002:1 2030:1 2040:2 2122:3 2267:1 2310:1 2401:2 2482:1 2528:1 2561:1 2587:1 2966:2 2986:1 3036:2 3053:1 3136:1 3150:2 3896:2 3906:1 3919:3 4151:1 4302:1 4322:2 4591:1 5129:1 5144:1 6662:1 8679:1 11387:2 11388:2 12362:1 18335:3 29237:1 33127:1 33128:1 33129:1 33130:1 33131:1 33132:1 33133:1 33134:1 33135:1 #
-0.00059772458804221735 3:2 4:9 8:1 12:4 23:1 27:1 36:3 38:1 39:1 41:1 44:3 46:2 50:1 56:1 91:1 113:1 119:1 164:1 185:1 578:1 602:1 694:1 709:2 935:1 1006:1 1061:1 1130:2 1231:2 1254:2 1672:4 1955:1 2267:3 2291:1 2866:1 3192:3 3372:1 3444:1 5076:1 5659:1 10149:1 10695:4 22559:1 27809:1 27810:1 34569:1 36669:1 36670:1 36671:1 36672:1 #
0.12477293606493718 3:2 4:9 8:1 12:6 19:2 21:1 23:2 27:2 30:1 36:2 41:2 46:2 58:2 90:1 91:3 121:1 142:1 145:1 167:2 173:1 236:3 314:2 319:1 330:6 331:1 383:1 402:4 406:1 411:1 426:1 430:1 483:1 497:1 509:1 511:1 594:1 672:1 706:1 726:1 905:1 929:1 1119:4 1175:1 1235:1 1310:1 1490:1 1510:1 1569:1 1592:1 1920:1 1955:1 2109:1 2170:1 2250:1 2544:1 2647:1 2948:1 3094:1 3438:1 3616:1 4382:2 4466:1 4936:1 5376:1 6081:1 7623:1 7905:1 7921:1 12021:1 23116:1 33226:1 45915:1 83386:1 #
0.067322372618677642 3:4 4:13 8:1 9:1 12:6 14:1 21:1 27:5 36:7 44:4 45:1 56:1 58:4 67:1 71:1 91:6 108:1 123:1 126:2 138:1 140:1 145:1 157:1 172:1 185:1 231:3 233:1 234:1 242:1 308:1 344:1 345:1 346:3 350:1 375:1 428:2 439:1 482:1 494:1 524:1 533:1 557:1 565:1 570:1 592:1 594:1 625:1 695:4 715:1 717:1 719:3 724:1 728:1 774:1 815:1 951:1 964:1 1042:1 1108:1 1243:2 1349:1 1412:1 1413:1 1475:1 1502:1 1569:1 1604:1 1675:1 1709:1 1771:1 1835:1 1844:1 1896:1 2088:1 2105:1 2224:1 2262:1 2298:2 2632:1 2721:1 2992:1 3125:1 3839:2 4077:1 4248:1 5260:1 5858:1 6681:1 10223:4 12714:1 17662:1 22745:1 29247:1 37706:1 46538:3 63788:1 #
-0.028671179836076744 3:3 4:10 7:1 8:1 9:1 12:8 17:1 23:3 27:1 36:2 39:1 51:2 56:1 90:1 91:3 95:2 107:1 120:1 126:1 147:1 175:1 185:1 189:1 273:3 302:1 314:2 342:1 375:1 383:1 390:1 392:1 425:1 451:1 504:2 659:1 668:1 1008:1 1233:1 1338:1 1624:1 1635:1 1731:3 1788:2 1823:1 1835:1 1874:1 1946:1 1998:1 2300:1 2409:1 2532:1 2822:1 3551:1 3634:2 3709:1 3992:1 4391:1 4606:1 5272:1 6040:1 6625:1 6839:2 8839:1 8840:1 10220:1 13049:1 27119:1 #
-0.0056177263971811109 3:1 8:1 9:1 12:1 17:1 36:1 41:2 51:1 56:1 91:1 95:1 167:1 182:2 185:1 197:1 203:1 420:2 501:1 623:1 1052:2 2097:1 2134:1 4180:1 7232:1 7233:1 9403:1 16736:1 20299:2 56267:2 56270:1 #
0.21286680463691127 3:6 4:5 8:1 9:1 12:2 27:1 36:3 41:1 44:2 56:1 58:1 83:2 91:2 119:1 131:1 141:2 296:1 346:1 358:1 359:1 411:1 412:1 431:1 828:1 842:1 1115:1 1259:1 1260:2 1318:1 1359:1 1399:1 1451:1 1735:1 1760:1 2006:1 2040:2 2056:3 2267:1 2276:1 2421:1 4223:1 4805:1 5156:1 6587:1 34519:1 36012:1 36300:1 #
-0.40730704446412941 8:1 12:2 23:1 41:1 44:2 46:1 64:1 90:1 119:1 154:1 214:1 404:3 450:1 695:1 1045:1 1285:1 1381:2 2016:1 2534:1 2626:1 3159:1 3702:1 4403:1 5663:1 #
-0.0014159586610726701 4:3 8:1 12:2 23:1 36:1 41:1 44:1 46:2 97:1 107:1 108:1 114:1 119:1 390:1 452:1 489:1 653:1 832:1 873:1 1086:1 1115:1 1269:1 2924:2 3827:1 3992:1 4189:1 4611:1 5403:1 5561:1 5628:1 6649:1 8203:1 13386:1 14620:1 15437:1 20808:1 21252:1 27482:1 29206:1 45367:1 72469:1 73433:1 73434:1 #
0.061982163183010114 3:3 4:12 8:1 12:9 17:1 23:6 27:2 36:1 41:5 44:13 46:1 51:2 56:2 60:2 68:1 76:1 78:1 85:1 89:1 90:1 91:5 97:2 107:4 116:2 119:2 122:1 126:1 138:1 139:1 157:1 167:1 185:2 203:4 244:1 256:1 315:1 342:1 345:1 365:1 380:1 390:1 436:1 452:2 458:2 497:2 504:3 507:1 509:2 570:1 592:1 594:1 630:11 685:1 694:1 698:1 715:1 727:1 728:1 782:1 842:1 852:1 1014:3 1070:1 1085:1 1118:1 1172:1 1193:1 1241:1 1255:2 1289:1 1359:1 1377:1 1445:1 1522:1 1523:1 1667:9 1828:1 1844:1 1874:2 1888:1 1998:1 2134:1 2300:1 2566:1 2626:1 2980:3 3230:1 3422:1 3500:2 3569:1 3727:1 3788:1 3808:1 4095:1 4717:2 4726:1 5804:1 7320:1 8413:1 8961:1 10276:1 10371:1 10958:1 34116:1 58881:1 84999:1 #
-0.17579797233962918 3:1 4:5 8:1 9:1 12:2 23:2 24:1 27:1 36:2 41:1 44:1 58:2 74:1 91:1 97:1 107:1 119:1 248:1 279:2 389:1 529:1 704:1 755:2 832:1 865:1 904:1 1085:1 1130:1 1282:1 1318:1 1320:1 1370:1 1846:1 1915:1 1923:1 2122:4 2267:2 2328:1 2548:1 2762:1 2770:1 2986:1 3048:1 3284:1 3416:2 3517:1 4306:2 4522:2 4684:1 5349:1 7277:1 10074:1 62806:1 #
0.22860194553937641 3:6 4:11 7:1 8:1 9:2 12:7 17:1 36:8 56:1 58:1 68:1 74:1 80:1 90:1 91:1 104:1 106:1 121:1 147:1 185:1 208:1 210:1 242:1 243:1 302:2 352:1 361:1 365:1 383:1 387:1 403:1 406:1 422:1 450:1 541:1 591:1 598:1 782:1 840:2 935:1 1091:2 1259:1 1301:4 1503:1 1659:1 1667:1 1716:1 1835:1 1910:1 1920:1 2109:1 2122:11 2583:1 2830:1 2856:1 2966:2 3092:1 3244:1 3343:1 4056:1 4316:1 4398:1 4459:1 4460:1 4715:1 4859:1 4950:1 5324:1 6220:1 7227:1 8604:1 8717:1 9557:1 9865:1 10182:1 10351:1 28129:1 30208:1 47569:1 #
-0.0058061343341739213 4:5 8:1 12:3 19:1 23:1 44:2 56:2 90:1 91:1 120:1 210:1 244:2 528:1 541:1 894:1 922:1 1035:1 1308:4 1376:1 1933:1 2971:1 3387:3 4413:1 4461:1 4914:1 5365:1 6251:2 8557:1 10434:5 10706:1 12485:1 16572:1 19205:1 19238:1 19239:1 19240:1 19241:1 #
-0.0011924868799917496 3:2 4:8 8:1 12:2 36:2 44:2 47:1 58:2 91:1 117:1 138:1 208:1 256:1 265:1 314:1 325:1 346:1 602:1 695:1 795:2 1695:1 1915:1 2253:2 2455:1 2626:1 2686:1 3120:2 3159:1 3841:3 4603:1 4915:1 5039:1 9366:1 11209:1 30082:1 30083:1 30084:2 #
-0.22435647361169134 3:2 8:1 9:1 41:1 56:1 69:1 70:1 91:1 197:1 346:1 565:1 695:2 1318:1 1393:1 2122:2 2585:1 2913:1 2961:1 #
-0.015132266330515686 3:3 4:22 8:1 9:6 12:11 23:2 27:5 36:13 42:2 44:1 51:1 58:4 91:3 95:1 138:1 150:1 185:2 206:2 231:1 234:1 242:1 243:1 244:4 255:1 262:4 337:1 344:1 383:1 394:1 398:1 423:1 428:2 431:1 450:1 497:2 533:1 541:8 545:1 557:1 630:1 694:1 712:1 726:2 728:1 894:1 935:1 964:3 975:1 1060:1 1091:6 1144:1 1145:1 1193:3 1236:2 1301:3 1327:1 1328:1 1338:1 1342:2 1346:2 1371:1 1401:1 1464:1 1502:1 1658:1 1667:1 1690:1 1921:1 2011:1 2040:1 2121:1 2122:5 2125:2 2718:1 2830:6 2856:1 2859:1 4000:1 4055:2 4086:2 4248:1 4311:2 4316:2 4388:2 4501:1 4775:2 4922:1 5005:1 5176:1 5501:1 6988:1 7116:2 7291:1 7295:1 7775:1 8628:1 9659:1 11245:1 11325:1 12123:1 12297:1 15034:2 15462:1 16753:1 19970:1 23367:1 28028:1 28216:1 30208:2 32531:1 32532:1 32533:2 32538:1 43772:1 43773:1 43774:1 43775:1 43776:1 43777:1 43778:1 43779:1 43780:1 43781:1 43782:1 #
-0.02819216641209862 3:1 4:5 7:2 8:1 12:6 23:1 36:2 40:1 41:1 44:3 51:1 56:1 58:2 83:1 91:2 119:1 185:2 293:1 344:1 392:1 458:1 465:1 481:1 482:3 524:1 603:1 604:1 1011:3 1155:1 1352:1 1535:3 2310:2 2648:3 3144:1 3659:1 3815:1 4217:1 4218:1 4584:1 4713:1 4877:1 6216:3 11974:3 14146:1 15462:1 #
-0.012914251846168474 3:2 4:9 8:1 12:3 17:2 23:2 36:2 41:1 44:5 60:1 66:1 68:1 74:1 90:3 91:1 97:1 115:1 116:1 131:1 154:1 169:1 173:1 185:1 196:1 203:1 210:1 327:3 345:3 524:1 574:1 799:1 850:1 1118:1 1362:1 1371:1 1377:1 1490:1 1522:1 1929:3 2110:1 2126:1 3150:1 3165:1 3278:3 3452:1 3908:1 4103:1 4396:2 4551:1 5309:1 5522:1 7562:2 7921:1 8497:1 9691:1 9705:1 9977:1 10564:1 15044:1 15134:1 15916:1 16505:1 28658:1 29103:1 29468:2 37810:3 37811:1 37812:1 37813:1 37814:1 37815:1 #
-0.0074275252588344989 3:2 4:2 7:2 8:1 9:1 12:3 23:1 36:2 84:1 91:2 339:1 342:1 346:2 622:2 659:1 727:1 1294:1 1326:2 1375:1 1912:1 2116:2 2795:2 2986:1 3919:1 4150:2 5589:1 9481:1 29102:2 #
0.023812238496822614 3:2 4:7 7:1 8:1 12:3 23:1 36:1 39:1 40:2 41:1 56:4 58:5 70:1 74:1 88:2 90:3 91:2 107:3 124:3 130:1 188:1 212:1 219:2 243:1 244:1 247:2 277:1 287:1 289:2 320:2 325:1 346:2 365:1 383:2 477:1 504:1 556:1 596:1 647:1 654:1 702:1 723:3 790:1 1285:1 1347:3 1408:1 1586:2 1648:2 1905:1 2199:1 2358:1 2532:1 2559:1 3130:1 3136:2 3304:1 3529:1 3575:3 3726:1 4032:2 4391:1 4973:1 5757:3 6435:1 90129:1 #
-0.034096960112173599 3:5 4:4 8:1 9:1 12:6 17:1 21:2 23:1 27:4 44:3 56:3 58:1 68:1 78:1 90:1 91:3 95:1 96:3 107:1 119:1 121:1 157:1 197:1 219:1 233:2 262:1 346:1 396:1 428:1 666:1 669:1 735:1 1235:1 1361:1 1408:1 1472:4 1502:2 1507:1 1771:5 1946:1 2088:4 2105:1 2110:1 2357:1 2358:1 2834:1 3392:1 3653:1 5364:1 5763:1 7233:1 8469:1 20117:1 20551:4 20556:1 #
0.17868413614106299 3:1 4:7 8:1 9:3 12:3 21:1 23:2 27:2 36:1 41:2 42:2 44:1 48:1 51:3 58:3 59:1 60:1 91:3 97:1 107:1 115:1 167:1 189:1 248:1 302:5 330:3 331:1 344:1 659:1 675:1 682:1 717:2 886:1 887:1 1119:2 1143:2 1167:1 1334:1 1465:1 2130:1 2301:2 3222:1 3656:2 3959:1 4173:1 4718:1 4858:1 6038:2 6045:2 6046:3 6047:1 #
0.032118830176963771 3:1 4:3 7:1 8:1 9:2 12:3 14:1 17:1 21:1 23:3 36:2 41:3 56:1 58:1 90:1 91:5 119:1 175:1 185:1 188:2 196:1 320:1 346:3 425:2 477:1 547:1 681:1 695:1 697:1 736:1 776:1 795:1 796:1 838:2 897:1 1040:2 1228:1 1377:1 1451:1 1527:1 1571:1 1572:1 1618:2 1685:4 1760:1 1927:2 1928:4 1929:3 1930:1 1931:3 1932:2 1933:1 1934:1 1935:1 1936:1 1937:1 1938:1 1939:1 1940:1 1941:1 1942:1 1943:1 1944:1 1945:1 1946:1 1947:2 1948:1 1949:1 #
-0.030385946195750621 3:4 4:13 8:1 9:2 12:9 17:4 21:2 23:6 29:1 36:6 39:1 41:7 44:4 56:2 67:2 68:1 72:1 75:1 82:1 90:3 91:6 97:2 107:6 115:1 117:1 119:3 121:1 126:1 131:2 152:1 154:1 167:1 175:6 177:1 185:1 188:1 203:3 244:3 265:1 302:4 321:9 325:1 327:1 338:2 342:1 345:1 346:4 354:1 360:2 383:1 385:1 455:2 456:1 511:1 546:3 548:1 565:1 570:1 630:3 647:1 711:4 840:1 843:1 869:1 871:2 922:1 1055:1 1085:1 1130:1 1149:1 1193:1 1242:1 1246:1 1338:1 1359:1 1377:1 1394:2 1511:1 1631:1 1727:1 1828:1 2011:1 2014:1 2015:1 2105:3 2126:1 2200:1 2267:1 2359:1 2393:1 2443:1 2926:1 3329:1 3357:5 3634:1 4166:1 4173:1 5445:1 5510:1 5804:1 5965:1 6263:1 6497:1 6967:1 8290:2 8984:1 10706:1 11195:1 34195:2 36491:2 45871:1 45872:1 73866:1 #
-0.0049533304034956116 3:2 4:4 8:1 12:3 23:2 91:2 97:1 152:2 175:1 185:1 236:3 345:1 390:1 401:2 541:3 1001:1 1207:3 1294:1 1330:1 1359:2 1521:2 2031:1 2165:1 2581:1 5281:1 5517:1 6154:1 6947:1 7027:1 9787:1 16314:1 24714:1 30945:1 #
-0.047091792088449533 4:9 7:1 8:1 12:4 23:3 36:3 46:1 59:1 78:1 89:1 138:1 141:1 167:1 177:1 206:1 236:1 302:2 365:1 404:3 478:1 582:1 591:2 602:1 850:1 904:1 935:2 1157:1 1174:1 1175:1 1190:1 1619:1 1937:1 2059:1 2060:1 2061:1 2109:2 2270:1 2514:1 2530:1 2762:1 3073:1 3703:5 3897:1 4767:1 5365:1 8164:2 12909:1 13366:1 20328:1 38892:1 51585:1 #
0.083532052443658175 4:5 8:1 9:4 12:5 17:1 23:4 36:3 41:2 44:1 51:3 58:1 68:1 83:2 90:1 91:2 97:1 107:3 152:1 173:2 175:1 197:1 233:1 244:1 333:1 434:3 522:1 551:3 634:2 638:1 669:1 682:1 723:1 794:1 887:1 1027:1 1107:1 1257:1 1294:1 1361:1 1408:1 1464:1 1465:1 1527:2 1648:1 1731:1 1886:1 1998:3 2105:1 2543:1 3062:1 3279:2 3357:1 3403:3 3631:1 4131:1 4849:1 5452:1 5462:1 10126:1 10127:1 10128:1 10129:1 10130:1 10131:1 #
0.051095788085692678 3:2 4:5 8:1 9:4 12:4 17:1 21:1 23:3 27:1 36:2 41:4 44:4 56:2 59:1 90:1 91:2 94:1 95:3 97:1 107:2 119:1 126:1 131:1 133:4 170:1 173:1 175:3 179:2 197:1 330:4 331:4 345:1 458:1 650:1 682:1 776:1 843:1 881:1 916:1 944:1 1060:1 1259:1 1329:1 1339:1 1485:1 1633:4 1695:1 1769:1 1795:1 1899:2 2049:1 2052:1 2132:1 2171:1 2276:1 2301:1 2342:1 2379:1 3081:1 3169:1 3990:1 4077:1 4211:1 4458:1 4484:1 5363:1 8911:1 9186:1 9683:1 10333:1 11841:1 15239:2 19084:1 21746:1 23467:1 28844:1 43043:1 44444:1 58981:1 #
-0.0046239550256626126 3:7 4:5 8:3 12:11 17:2 21:1 23:4 36:1 39:1 41:3 44:3 46:1 56:3 58:1 68:1 90:2 91:5 107:4 121:1 125:1 126:1 150:1 172:1 175:1 179:1 185:2 188:1 196:1 197:1 214:1 216:1 219:1 247:2 344:1 390:1 456:3 497:1 721:1 728:1 831:1 1042:1 1170:4 1200:1 1294:1 1362:1 1373:1 1485:1 1507:1 1712:6 1726:1 1769:1 1822:2 1826:1 1868:2 1933:1 2086:1 2091:2 2197:1 2374:2 2603:1 3318:1 3873:1 4973:1 4978:3 5670:1 5769:1 6005:1 6614:1 8555:1 10066:1 10338:2 11030:1 11385:1 11943:1 14526:8 18736:1 36002:3 64017:3 64018:1 #
-0.055594371148703442 8:1 12:1 91:1 185:1 814:1 1844:1 4292:1 8045:1 22676:2 #
0.026700233909483083 4:3 7:2 8:1 17:1 23:3 27:1 44:2 46:1 51:1 56:1 58:1 90:2 91:4 97:1 107:2 110:1 115:2 150:1 175:1 179:1 203:1 219:1 233:1 244:1 375:1 450:2 451:3 486:2 630:3 710:1 795:1 832:1 1045:1 1267:1 1667:1 1707:1 1933:1 1966:1 3229:1 3575:1 4302:1 4749:1 4974:1 5022:1 5114:1 5170:1 5297:1 5508:1 5925:1 9091:1 9403:1 9404:1 14105:3 42487:1 44037:1 #
0.0056476575751663255 4:14 8:1 9:2 10:1 12:8 21:1 23:4 36:1 41:4 44:4 58:1 59:1 60:1 66:1 90:1 91:6 107:2 156:1 175:3 177:1 179:1 185:1 196:1 210:2 244:1 248:1 302:2 320:1 330:4 390:1 394:1 436:1 452:1 577:3 904:1 1026:1 1052:3 1091:3 1098:1 1119:4 1236:2 1255:3 1339:1 1344:1 1424:1 1462:1 1637:2 1731:1 1806:1 1846:3 1889:1 1899:3 2029:1 2218:1 2253:1 2812:1 3517:1 3631:1 4015:2 4173:1 4311:1 4756:1 6956:1 7160:1 8157:1 9258:1 9342:1 9563:2 9984:1 10149:1 11841:1 12932:1 12962:1 17847:3 20617:1 25965:1 34050:2 39329:1 39330:1 #
-0.045182094680179682 3:1 4:1 7:4 8:1 9:2 23:1 51:1 56:1 58:2 91:1 96:2 116:1 165:1 205:1 243:2 256:1 320:1 489:1 577:2 1207:2 1359:3 2113:1 3309:1 3446:1 4515:1 4659:1 14897:3 19067:1 #
-0.0051678765548763125 3:2 4:9 7:1 8:1 12:9 17:1 21:1 23:6 31:1 36:2 40:1 41:3 44:5 51:1 56:2 91:6 95:1 119:1 126:2 147:1 154:1 175:2 188:1 259:1 273:1 302:3 320:1 346:2 396:1 482:1 669:1 682:1 709:1 776:1 810:1 839:1 894:1 895:1 925:1 1008:1 1184:1 1327:2 1347:1 1408:1 1503:1 1505:2 1572:1 1587:4 1595:5 1618:1 1638:1 1752:1 1782:1 1788:1 1795:1 1835:2 1924:1 1998:1 2029:1 2443:1 2801:1 2911:1 3411:1 3564:1 3631:1 5250:2 5757:1 6839:3 8839:2 8840:2 18067:1 #
-0.030974129453813906 3:3 4:16 8:1 9:1 12:15 21:1 23:3 36:5 44:2 51:1 58:4 63:2 64:1 78:1 90:1 91:1 107:4 126:1 145:1 175:1 246:1 277:1 393:1 410:1 411:3 424:3 431:2 454:1 494:1 495:1 518:1 532:1 539:1 551:1 553:1 570:1 672:1 681:1 709:1 721:1 741:1 789:1 904:1 911:1 926:1 929:1 938:1 1014:2 1055:3 1144:1 1169:1 1207:1 1246:1 1269:1 1327:2 1346:1 1363:1 1408:1 1474:1 1569:1 1618:1 1671:1 1717:1 1844:3 1874:1 2118:1 2230:1 2258:1 2350:1 2558:1 3289:1 3329:1 3517:1 3608:1 3806:1 3823:1 4713:1 5092:1 5443:1 5560:1 6614:1 6956:1 6992:1 7902:1 8757:2 11030:1 13307:1 14789:1 17433:1 19525:1 30781:1 35190:1 36896:1 44008:1 44040:1 97557:1 97558:1 97559:1 97560:1 97561:1 97562:1 97563:1 97564:1 97565:1 #
0.10747426664423461 3:2 4:4 8:1 12:3 17:3 21:1 23:2 29:1 31:1 36:2 41:1 44:2 46:1 51:5 56:1 64:1 75:1 86:1 91:5 97:2 98:2 104:2 107:2 119:1 126:3 175:1 179:1 196:1 207:1 289:1 320:1 321:1 339:1 346:3 359:1 383:1 466:1 594:1 596:1 625:1 630:1 706:2 723:2 727:1 1109:1 1112:1 1114:1 1184:1 1189:1 1217:1 1254:2 1285:2 1546:3 1657:1 1846:1 2097:1 2110:1 2295:1 2874:1 2879:1 2987:3 3055:1 3082:1 3178:1 3372:1 3480:1 3550:1 4032:1 4055:1 4381:1 4749:2 4898:1 6135:1 6581:1 7845:1 8585:1 11211:1 24028:2 90430:1 #
-0.0037520452983476893 3:5 4:10 8:1 9:2 12:5 23:3 36:3 40:1 44:2 67:1 90:3 91:1 95:2 97:1 107:1 119:1 121:1 152:1 156:1 179:1 196:1 214:4 233:3 244:1 246:1 314:2 342:1 344:4 360:1 396:1 457:1 465:3 522:1 580:2 601:1 704:2 776:1 904:3 1008:3 1055:1 1252:4 1569:2 1828:1 2006:1 2176:1 2521:4 2547:1 2624:2 2764:1 2971:1 3234:2 3386:1 4166:1 4574:1 5599:1 5769:1 5809:1 8105:2 8981:4 8982:1 8983:1 8984:1 #
0.078875106603258416 4:1 8:1 9:2 12:3 17:1 19:1 21:1 23:1 27:1 33:3 36:2 41:2 66:1 90:1 91:1 104:1 139:1 175:2 185:1 214:1 217:1 233:1 383:1 477:1 541:1 583:1 616:1 679:1 706:1 1009:1 1168:1 1257:1 1346:1 1347:1 1348:1 1377:1 1500:1 1505:1 1562:1 1751:1 2097:1 2305:1 2359:1 2725:1 2832:2 3361:1 3804:1 4547:1 4623:1 6535:1 6644:1 7440:2 8045:1 11070:1 15503:1 51115:1 51116:2 #
0.044513339221228 3:2 4:3 8:1 12:3 44:2 51:1 56:1 58:1 91:3 107:1 188:2 242:1 277:2 426:1 451:1 509:2 541:1 594:1 709:1 728:1 957:1 2014:2 2316:1 2671:1 2926:1 3385:1 3634:2 5561:1 7192:1 8428:1 31559:1 #
-0.014575547223240224 3:5 4:5 8:1 9:2 10:1 12:8 14:1 23:2 27:2 36:1 51:1 83:1 91:2 94:1 95:1 97:2 173:1 189:1 289:1 346:1 394:1 428:1 634:1 695:1 699:1 713:1 715:1 723:1 1014:1 1021:1 1036:1 1186:2 1196:1 1341:1 1464:1 1480:2 1505:1 1750:1 1805:1 1846:1 2241:1 2389:1 2549:1 2754:1 3358:1 3412:1 3713:1 4726:1 4993:1 5034:1 5075:1 5232:1 5665:1 6724:1 6849:1 6879:1 7816:1 8733:1 8820:1 9009:1 9132:1 9909:1 11655:1 13492:1 14327:1 19638:1 61241:1 61242:1 #
-0.025403377115789057 3:6 4:22 8:1 12:6 23:2 36:3 41:1 44:5 51:2 58:5 91:2 97:1 119:1 120:1 121:1 138:2 139:1 175:1 185:2 196:1 217:1 239:1 243:1 259:1 271:1 314:1 321:2 336:1 346:4 354:1 374:1 380:1 383:3 384:1 403:1 426:1 450:1 452:1 458:3 567:1 579:1 582:1 597:1 648:1 690:1 721:1 728:1 831:1 854:1 916:1 922:1 1098:1 1145:1 1209:1 1233:1 1244:1 1269:1 1305:1 1327:1 1347:3 1356:1 1359:1 1460:1 1467:1 1641:1 1653:1 1670:1 2131:1 2218:1 2313:1 2364:1 2374:1 2449:1 2455:1 2500:1 2580:1 2639:1 2872:2 2910:2 3047:2 3211:1 3576:3 3577:3 3634:2 3670:1 3695:1 4399:1 4853:1 4920:1 6207:1 6395:2 7540:1 7943:2 11432:1 12641:1 12642:1 12912:1 16639:1 17607:1 18287:1 21693:2 22075:1 35277:1 35278:1 35279:1 35280:1 #
-0.0035182223033831447 3:1 4:22 7:3 8:1 9:3 12:4 14:1 17:2 23:3 36:2 41:4 44:3 51:1 58:5 59:1 66:1 89:1 90:2 91:5 95:1 97:3 119:2 126:2 167:1 185:1 197:1 222:1 244:1 248:1 270:1 302:2 325:1 335:1 438:1 451:2 452:2 524:1 682:1 832:1 843:1 909:1 921:1 954:2 1040:1 1109:1 1217:2 1259:2 1285:1 1339:1 1353:1 1411:1 1458:1 1529:1 1638:1 1649:1 1667:1 1824:1 1998:4 2116:2 2161:3 2267:2 2532:1 2566:1 2582:1 3133:1 3392:1 3446:1 3480:1 3676:1 4278:1 4381:1 4647:1 4749:2 4858:1 6609:1 7034:1 7633:1 9438:1 11696:3 11985:1 13465:1 14105:3 20600:1 21633:4 27119:1 29733:3 30283:1 30284:1 #
0.14401474981718279 3:1 8:1 9:1 12:2 21:2 23:2 36:1 41:1 44:1 51:2 56:1 197:1 570:1 586:1 693:2 786:4 799:1 1035:1 1846:1 1885:1 1968:1 2680:2 2793:1 3284:1 3791:2 4403:2 5476:1 6948:1 8290:2 16050:1 45830:1 #
0.30403179164111777 4:3 8:1 12:1 36:1 41:1 46:2 56:2 58:2 91:1 96:2 196:1 236:1 312:1 313:2 569:1 610:1 1143:1 1215:1 1502:1 2131:1 2636:1 2910:2 3053:1 3416:2 4101:1 4399:1 4413:1 4992:1 10958:1 31556:1 62999:1 63000:1 #
-0.0053460091911729304 3:4 4:11 8:3 9:1 12:11 23:4 27:1 36:3 40:1 44:4 46:1 51:1 56:6 58:2 63:8 83:1 85:1 90:2 91:4 107:1 116:2 140:1 141:1 167:2 175:1 185:1 204:1 208:1 222:1 242:1 258:1 265:1 293:1 320:1 335:1 350:1 383:1 454:1 467:3 486:1 513:1 514:1 570:1 572:1 604:1 618:3 625:1 640:1 649:1 776:1 787:3 795:3 834:1 842:1 920:1 935:1 1021:1 1073:3 1079:1 1081:1 1187:2 1193:1 1254:1 1282:1 1354:1 1408:1 1622:1 1664:1 1738:1 1889:1 2040:1 2118:6 2250:2 2267:1 2522:1 2533:1 2986:1 3247:1 3252:6 3824:1 4218:1 4687:1 4912:1 5727:1 5965:1 6283:1 6421:1 6803:1 6820:1 7803:1 9676:1 10077:1 10275:1 11102:1 11752:6 11862:1 12859:3 13040:1 17230:2 19418:1 21117:1 25960:1 43043:1 49105:1 49106:1 63927:1 #
0.27551656562123988 3:3 4:6 7:1 8:1 23:1 44:1 56:1 107:1 113:1 140:1 346:2 404:5 427:1 591:1 610:2 715:1 1052:3 1372:1 4055:1 4721:1 5663:1 62378:1 #
0.15285871797950545 4:1 8:1 12:1 36:1 51:1 67:1 91:3 107:1 154:1 169:1 175:1 209:1 277:1 452:1 464:1 723:1 832:1 1305:1 1356:1 1507:1 4170:1 8961:1 9454:1 10482:1 35516:1 40349:1 52552:1 52553:1 68112:1 68113:1 #
-0.00037417554565726934 3:2 4:6 7:1 8:1 12:3 30:1 36:4 41:1 46:1 51:2 59:1 91:5 154:1 157:1 169:1 185:1 196:2 211:1 231:1 255:1 268:1 296:1 302:2 350:1 454:1 482:1 494:1 497:1 501:1 544:1 573:1 615:3 648:1 705:1 816:1 864:1 901:1 932:1 994:1 1001:1 1015:1 1047:1 1239:1 1267:1 1270:1 1320:3 1373:2 1506:1 1724:1 1913:1 2030:1 2105:1 2397:1 2402:4 2421:1 2755:1 2913:1 2961:1 3138:1 3706:1 4591:1 4676:1 6133:1 9263:1 9449:1 10302:1 10327:1 10333:1 12561:1 12564:1 16371:1 38271:1 46878:1 49673:2 49674:1 49675:1 49676:1 49677:2 #
0.070520805780511134 3:4 4:7 7:1 8:1 9:3 12:7 23:4 36:1 41:1 56:1 58:4 68:1 78:1 90:1 91:3 97:2 107:2 117:1 138:1 165:1 170:1 185:1 206:3 222:2 233:1 242:1 243:2 244:2 245:1 247:1 277:1 307:1 313:1 314:2 321:2 323:1 330:5 331:2 332:1 359:2 393:2 477:1 596:1 598:1 607:1 702:1 706:2 709:1 715:3 723:1 869:2 881:1 916:1 920:1 927:1 929:1 964:1 1109:1 1119:3 1174:2 1184:1 1294:1 1442:1 1462:1 1571:1 1702:1 1835:2 1858:1 1912:1 1923:1 2011:1 2126:1 2212:1 2357:2 2725:1 2869:1 3054:1 3122:1 3136:1 3169:1 4574:2 4960:1 7618:1 8425:1 10713:1 14411:1 16738:1 18517:1 19293:1 34670:1 54209:1 83880:1 #
0.088947215568678559 3:1 4:11 8:1 12:3 23:4 41:1 44:2 56:2 58:2 59:1 89:1 90:1 107:1 188:1 222:1 256:1 291:1 292:1 445:2 497:1 502:1 647:2 832:1 865:4 1008:1 1109:1 1242:1 1248:1 1271:1 1282:2 1359:2 1394:1 1415:1 1555:1 2072:1 2122:2 2176:1 2245:1 2830:1 2886:1 2913:1 2961:2 2966:1 3047:1 3380:2 3700:1 3807:1 4433:1 5270:1 5277:1 5663:1 7707:1 12550:1 16375:1 17148:1 19722:1 25622:1 75318:1 #
0.099435635775038111 3:1 4:10 8:1 9:1 12:5 21:1 36:4 44:1 46:1 58:2 59:1 90:1 91:3 97:1 131:1 142:1 143:1 147:1 154:1 167:1 173:1 231:1 245:1 336:1 384:1 429:1 450:1 464:1 526:2 585:1 615:1 1377:1 1379:2 1387:2 1401:2 1923:1 1991:2 2064:1 2122:4 2125:1 2172:1 2560:2 2871:1 4051:1 5281:1 5770:1 6016:1 6150:1 6619:1 12196:2 19092:1 63665:2 63666:1 63667:1 63668:1 63669:1 #
-0.003453079051175255 3:2 4:12 7:4 8:2 10:1 12:11 23:2 36:7 41:1 44:6 46:2 51:4 56:1 67:1 91:2 107:3 119:2 121:1 131:2 150:1 185:2 196:1 208:1 231:2 243:1 250:2 308:1 315:1 371:3 403:1 433:1 435:1 454:4 486:1 501:1 509:2 570:1 630:1 704:1 719:2 727:1 728:1 842:1 865:1 908:1 994:1 1098:1 1110:1 1190:1 1211:1 1231:1 1239:1 1257:1 1269:1 1394:2 1451:1 1505:1 1523:1 1557:1 1652:1 1742:1 1771:1 2040:1 2305:1 2445:1 2647:2 2694:1 3132:1 3138:1 3234:1 3325:1 3346:1 3389:1 3700:1 3797:1 4225:1 4537:1 4574:1 5379:2 6134:1 6363:1 6882:1 8980:1 10276:1 11102:1 11582:1 11759:1 12844:1 14148:3 14149:3 14150:3 14154:2 76357:1 76358:1 #
-0.017044155862600073 4:1 8:1 23:1 41:1 44:1 90:1 91:4 107:1 175:1 185:1 205:1 264:1 345:1 456:1 488:1 594:1 690:2 702:1 1072:1 1219:1 1453:1 1590:1 1752:1 1923:1 2374:1 3504:1 3545:1 5363:1 9718:1 24562:1 #
-0.009029056202096911 3:2 4:8 7:4 8:1 12:3 21:1 23:1 36:1 41:1 44:2 58:3 91:4 97:2 113:1 119:1 136:1 165:1 175:1 186:1 244:1 273:1 345:2 365:1 392:2 465:3 483:1 672:1 994:2 1156:1 1184:1 1257:1 1327:1 1391:2 1590:2 2116:1 2612:1 2721:2 2874:1 4145:1 4824:1 4835:1 4920:1 5320:1 5749:1 6139:1 6529:2 6667:1 7883:1 8286:1 12329:1 13956:1 15002:1 20111:1 73954:1 #
-0.002170781050484133 3:6 4:10 8:1 9:1 12:6 17:1 21:1 23:2 27:1 36:4 41:2 44:4 51:2 68:2 76:1 83:1 86:1 90:1 91:6 95:2 97:1 107:1 119:2 122:1 167:1 175:1 188:1 218:3 308:1 312:2 314:2 321:2 346:2 390:1 430:1 484:1 504:3 522:1 563:1 578:1 584:1 625:1 630:1 723:1 832:1 843:1 855:1 1029:1 1107:1 1143:1 1186:1 1217:1 1375:1 1488:2 1591:1 1902:1 2126:5 2446:1 2949:1 2970:1 2980:3 3141:1 3393:1 3634:1 3828:1 3940:1 3942:1 4096:1 4292:1 4311:1 5203:1 5307:1 6583:1 6780:1 7277:2 7607:1 10434:1 25764:4 65888:1 #
0.010005041935716125 4:9 8:1 9:2 12:7 23:1 31:1 36:2 44:1 46:3 51:1 56:1 58:1 91:3 147:2 167:1 172:1 175:1 206:1 244:1 284:1 380:1 403:1 458:1 513:1 514:1 544:1 565:1 580:1 591:1 612:2 615:5 669:1 894:1 1047:2 1252:1 1318:1 1325:1 1406:1 1485:1 1505:1 1534:3 1828:1 2049:1 2176:1 2477:1 2562:1 2577:2 2598:1 2690:1 2697:2 2699:1 2879:1 2954:3 3759:1 5208:1 5713:1 5818:1 5824:1 6206:1 7806:1 8345:1 8346:1 8347:3 8348:1 8349:1 8350:2 8351:1 8352:1 8353:1 8354:1 8355:1 8356:1 8357:2 8358:1 8359:1 8360:2 8361:1 8362:1 8363:1 8364:1 8365:1 8366:1 #
-0.003776408487007909 4:1 8:1 9:2 12:4 17:1 21:2 27:1 29:1 41:1 44:1 56:2 58:2 68:1 71:1 90:1 91:4 113:1 165:1 167:1 197:1 214:1 236:1 243:1 383:1 387:1 390:1 442:2 456:1 477:1 482:2 526:1 586:2 828:1 1023:1 1771:5 2110:1 2131:1 3053:1 3055:1 3386:1 4466:1 4961:1 12090:1 14367:3 15383:1 #
-0.036323845291505751 3:3 4:7 8:1 12:2 22:1 23:1 36:1 41:1 44:2 46:1 48:1 51:7 56:1 65:1 91:4 124:1 173:2 175:1 177:1 185:1 196:1 230:1 234:1 242:2 244:1 302:2 325:1 390:1 398:1 477:1 481:1 501:1 503:1 533:1 541:3 647:1 676:1 694:1 727:1 840:1 994:1 1014:1 1091:2 1110:1 1259:1 1293:1 1301:1 1356:1 1427:1 1478:1 1509:1 1571:1 1586:1 1700:1 1716:1 1727:1 2012:1 2071:1 2116:1 2122:8 2302:1 2305:1 2411:1 2966:2 3372:1 3395:1 3563:1 4270:1 4919:1 4922:1 6650:1 6717:1 6871:1 7227:1 8128:1 9562:1 9660:1 10074:1 15964:1 19885:1 30208:1 37959:1 41810:1 42039:1 42040:1 42041:1 42042:1 42043:1 #
0.4006094152663196 4:3 8:1 12:1 23:1 58:1 91:1 107:1 255:1 302:1 840:1 2122:2 2223:1 4189:1 6220:1 7623:1 20235:1 45173:1 80443:1 #
-0.020506843339098826 3:3 4:5 8:1 9:2 12:8 17:1 21:1 23:3 36:2 41:2 44:2 51:1 56:2 58:1 90:1 91:3 103:1 119:1 173:1 185:1 197:1 214:1 308:1 332:1 345:2 428:1 452:2 478:1 486:1 715:1 799:2 1096:1 1241:4 1294:1 1447:1 1488:1 1490:1 1591:1 1622:1 1923:1 1966:2 2123:2 2440:1 2837:1 2949:3 3062:1 3082:1 3178:1 3788:1 4293:2 4373:1 4487:1 4974:1 4992:2 6020:1 6247:1 6934:1 7680:2 8824:1 9800:1 10031:1 12192:1 13468:1 13956:1 20970:1 #
0.022248076071740265 3:5 4:15 7:1 8:1 9:5 12:5 17:1 21:2 23:3 27:1 36:10 58:8 90:1 91:1 131:1 132:1 175:3 206:1 242:1 244:1 248:1 250:1 275:4 307:1 325:1 383:1 426:1 438:1 454:2 457:1 465:1 467:2 468:1 477:2 500:1 609:1 635:1 682:2 721:1 865:1 932:1 991:1 1003:2 1057:1 1060:1 1061:2 1092:2 1189:1 1190:1 1242:1 1269:1 1318:1 1327:1 1338:2 1346:2 1505:6 1638:1 1892:1 1913:6 2004:1 2116:1 2318:1 2424:1 2469:1 2493:1 2494:1 2516:1 2519:2 2524:1 2525:1 2582:1 2620:1 2707:1 2770:1 2778:1 2789:2 2874:1 3444:1 3763:1 4055:1 4194:1 4398:1 4402:1 4494:1 5047:1 6158:1 6207:1 6543:1 7717:3 7720:2 7820:1 9463:1 10982:1 14262:1 15013:1 18027:1 18149:1 24024:1 32318:1 36967:2 53306:2 53783:1 57038:1 88553:1 88554:1 88555:1 88556:1 #
-0.030364156286468734 3:3 4:16 8:1 12:9 17:1 19:1 21:1 23:5 27:3 28:1 36:7 41:1 44:5 51:2 56:5 58:8 60:1 63:1 64:1 90:1 91:14 95:1 107:1 123:2 138:1 139:1 165:1 179:1 185:4 197:1 231:2 243:2 244:3 264:1 302:3 314:1 321:4 325:1 327:1 330:2 408:1 428:1 452:1 454:1 467:1 477:4 480:1 494:1 502:1 524:2 565:2 569:1 573:1 594:1 615:1 728:2 799:1 802:1 814:1 873:2 875:1 905:1 916:2 1011:2 1015:1 1047:1 1052:2 1119:2 1189:1 1190:1 1320:1 1340:2 1361:1 1407:1 1424:1 1502:1 1536:2 1563:1 1568:2 1584:1 1618:1 1637:1 1641:1 1771:2 1899:1 1910:1 1958:1 1991:1 2040:1 2218:3 2322:1 2357:4 2409:1 2511:1 2581:1 2649:1 2750:1 2910:1 2969:2 2973:1 3047:1 3217:1 3332:1 3569:1 3579:1 3670:1 3695:3 4364:1 4424:1 4461:1 4694:1 4931:1 5026:1 5198:1 5208:1 5650:3 5722:2 5807:1 5811:2 5821:2 5840:1 6206:1 6241:1 7192:1 7943:1 7964:1 8221:1 9335:1 9474:1 9816:1 10260:1 11212:1 11217:1 13704:1 20328:1 20715:1 21075:1 23116:1 24678:2 24985:1 35943:1 43839:1 56876:1 65666:1 96511:1 96512:1 96513:1 96514:1 #
0.056224138041913792 4:4 8:2 12:4 23:1 36:3 44:2 56:1 58:2 94:1 97:1 185:1 212:1 309:1 361:1 381:1 398:1 408:1 454:1 541:1 591:1 929:2 991:1 1054:1 1092:1 1231:1 1269:2 1325:3 1346:1 1408:1 2316:1 2458:1 3092:1 3160:1 3385:1 3618:1 3695:1 3771:1 4754:1 5039:1 5919:1 6421:1 6709:1 14003:1 21907:1 26232:1 55334:1 55335:1 #
0.096264676248779435 3:2 4:6 8:1 9:2 12:1 23:3 46:1 56:1 58:1 91:2 97:1 152:1 175:1 185:1 244:1 314:1 344:1 465:2 513:1 514:1 709:1 716:1 721:1 723:1 1091:2 1193:1 1235:1 1260:1 1294:1 1451:1 1507:1 1632:1 1677:1 1685:2 2040:1 2289:1 2310:1 2948:1 3309:1 3531:1 4611:1 5380:1 9543:1 46223:1 50102:1 50103:1 50104:1 #
-0.092970974087205727 3:5 4:23 7:1 8:1 9:10 12:15 14:1 21:2 23:6 29:1 36:2 41:5 44:4 46:1 51:3 58:3 60:1 66:1 67:3 68:2 90:1 91:7 103:1 107:3 119:1 121:2 136:1 138:1 139:1 165:1 167:2 170:1 175:1 185:2 189:1 197:1 233:1 242:2 243:2 272:1 287:1 289:1 295:1 302:1 314:1 321:2 328:3 335:2 346:1 383:2 406:1 426:1 452:3 456:2 467:1 524:1 541:2 548:1 560:1 586:3 592:1 611:1 636:1 659:1 682:1 709:2 711:1 721:2 723:3 777:1 881:3 916:1 927:1 1052:2 1073:1 1107:2 1175:1 1184:1 1254:1 1269:2 1275:2 1294:1 1301:6 1305:1 1320:5 1340:1 1346:1 1361:1 1377:1 1407:1 1553:1 1649:1 1664:1 1675:1 1742:1 1844:1 1899:4 1944:1 2126:1 2165:3 2202:1 2322:3 2357:1 2548:1 2581:1 2585:1 2602:1 2725:1 2910:1 3053:1 3407:1 3653:1 3868:1 3990:1 4189:1 4403:2 4515:1 4858:1 4932:1 5559:1 5722:1 6965:1 7034:1 7505:1 8479:3 9323:1 9592:1 9682:1 10158:1 10450:1 10833:2 11113:1 12159:1 14966:1 15288:1 17861:1 18668:1 20722:1 21642:3 26265:1 27845:1 #
-0.098949072023396645 3:2 4:4 8:1 9:3 12:5 23:1 36:1 39:1 41:1 44:2 58:1 66:1 91:3 107:2 133:1 136:1 175:1 177:1 185:1 188:2 189:1 197:1 214:1 256:1 277:1 321:3 346:1 389:1 390:1 392:1 396:1 426:1 717:1 921:1 1011:3 1146:1 1475:1 2015:1 2357:3 2532:1 2579:1 2926:1 3229:1 4718:1 5364:1 6928:1 8640:1 9682:1 10305:1 27718:1 27719:1 27720:1 27721:1 27722:1 #
-0.050299132576126941 3:2 4:18 7:2 8:1 9:5 12:15 21:1 23:6 36:8 41:6 44:2 46:2 51:1 63:1 67:3 70:1 91:9 97:3 107:2 126:1 130:1 175:1 177:1 185:1 197:2 206:1 219:1 242:2 244:1 277:2 287:4 302:3 314:2 345:1 346:2 365:1 383:1 392:1 393:1 431:2 450:1 451:4 452:2 467:1 504:5 541:1 567:1 592:4 596:2 603:1 630:1 648:1 682:1 723:2 727:1 739:1 795:1 799:1 834:2 838:2 1143:1 1149:1 1157:1 1168:3 1282:2 1305:1 1327:1 1347:3 1377:1 1411:1 1546:1 1622:1 1637:1 1639:1 1667:4 1732:1 1846:1 1855:2 1874:1 1920:1 1998:3 2014:1 2024:1 2029:1 2030:1 2165:1 2199:1 2217:1 2250:2 2373:1 2560:1 2575:1 2631:1 2671:1 2834:1 2948:1 2980:2 3030:2 3053:1 3082:1 3357:1 3771:1 3896:1 3992:1 4173:1 4524:1 4714:3 4818:1 5170:1 5595:1 6948:1 9930:1 10236:1 12970:1 14801:1 14802:1 15029:1 15134:1 16217:1 26393:1 38846:1 55761:2 55762:1 #
-0.012833154169580582 3:3 4:12 8:1 10:1 12:2 21:1 23:4 36:4 40:2 41:2 44:6 51:2 58:1 59:1 90:1 91:4 107:2 119:1 120:1 126:1 138:1 147:2 154:1 169:1 177:1 189:1 289:1 314:1 337:1 348:1 350:1 397:1 403:1 420:1 428:1 432:1 482:1 507:1 541:1 546:2 580:1 684:1 756:1 791:1 815:1 842:2 975:1 1033:1 1241:1 1257:1 1269:1 1405:1 1408:3 1545:1 1574:1 1664:2 1797:1 2242:1 2362:1 2626:1 2647:1 2867:1 3653:1 3726:1 3999:1 4914:1 11418:1 12107:1 12110:1 12112:2 12114:2 29730:6 35291:1 71929:1 88164:1 88165:1 #
0.069294032481889936 3:2 4:5 7:2 8:1 9:1 12:2 23:1 36:3 44:1 56:1 90:1 91:1 121:1 165:1 185:1 188:1 244:1 256:1 289:1 321:1 365:1 383:1 390:1 406:1 433:1 477:1 570:1 626:1 668:1 681:1 699:1 723:1 834:1 870:2 903:1 904:1 1479:1 1556:1 1876:1 1968:1 2072:1 2122:1 2298:2 2494:1 2535:1 2966:1 2980:1 3504:1 3575:1 3842:1 5289:1 5554:1 7565:1 13204:1 17060:2 #
-0.010671130305719386 3:3 4:5 7:1 8:1 9:1 12:3 17:1 21:1 23:3 36:2 41:1 48:1 58:1 59:1 90:1 91:1 97:1 107:1 124:1 139:2 179:2 185:1 197:1 231:1 244:1 256:1 302:1 352:1 353:1 356:1 365:1 407:1 456:1 570:1 588:1 638:2 840:1 856:1 993:1 1079:1 1150:1 1170:1 1350:4 1399:1 1447:1 1510:1 1555:1 2012:1 2049:1 2058:1 2068:1 2176:1 2486:2 2543:1 2718:1 2751:1 2856:1 2874:1 2986:1 3100:1 3372:1 3710:1 3939:1 5153:2 5154:1 5324:1 5550:1 6840:1 8602:1 8666:2 11294:2 14351:1 27835:1 37753:1 37754:1 37755:1 37756:1 37757:1 37758:1 37759:1 #
-0.074661271296520518 3:10 4:19 8:1 9:7 10:1 12:8 17:1 21:2 23:5 24:1 27:1 28:1 36:7 40:1 41:2 44:6 48:1 51:2 56:3 58:6 68:3 88:1 91:4 107:4 116:1 119:2 138:1 165:1 167:1 175:2 185:4 189:1 215:1 219:1 233:2 256:2 277:2 287:2 293:2 302:4 319:1 320:2 321:1 327:1 328:5 330:4 331:2 335:1 346:1 409:2 435:1 452:1 458:1 494:2 592:1 611:2 615:2 636:1 643:1 658:1 659:1 681:1 713:1 724:2 727:1 776:1 784:2 795:1 828:1 843:1 881:2 899:1 961:1 964:3 1016:2 1072:2 1107:1 1108:1 1119:2 1140:1 1141:1 1157:1 1193:1 1211:1 1327:1 1328:1 1415:1 1451:1 1507:2 1555:2 1649:1 1669:1 1809:1 1828:2 1924:1 2003:1 2126:3 2131:2 2202:3 2289:1 2322:1 2409:1 2471:4 2566:1 2581:1 2585:1 2612:1 2623:3 2693:2 2834:1 2969:2 2980:1 3211:1 3411:1 3872:1 4173:1 4302:5 4316:2 4752:1 4858:1 4992:2 5467:1 5493:3 6005:3 6239:1 6332:1 6407:1 6820:1 7042:2 7045:3 7892:1 8690:1 8771:2 8943:1 9185:1 9463:1 11953:1 12514:1 13727:1 17118:1 25134:1 25135:1 25136:1 25137:1 25138:1 25139:1 25140:1 #
-0.0021619620731066136 3:1 4:7 7:1 8:1 10:1 12:4 23:2 31:1 36:1 44:1 46:2 56:1 58:1 86:2 88:1 98:2 120:1 185:1 196:1 242:1 243:1 291:1 292:1 365:1 374:1 375:1 416:4 541:1 647:1 723:2 815:4 1275:1 1282:1 1408:1 1822:1 2021:1 2359:1 2986:3 3545:1 4372:2 5278:1 5578:1 5930:1 6127:2 6336:1 6722:1 11592:1 #
0.021473681084732049 4:6 7:1 8:1 9:2 10:1 12:3 23:1 27:2 36:2 41:2 44:1 46:4 51:2 56:2 58:1 66:1 91:5 107:1 138:1 139:2 175:1 185:1 188:2 206:1 233:1 243:1 262:1 321:1 335:1 354:1 359:1 383:1 408:2 425:2 436:2 450:1 467:1 481:2 504:2 506:1 567:1 594:1 615:1 652:1 654:1 668:1 714:2 727:1 795:3 843:1 876:1 880:1 881:1 909:1 929:1 1011:4 1172:1 1235:1 1346:1 1604:1 1742:1 1797:1 2282:1 2513:1 2535:1 2565:1 2834:1 2870:1 2872:1 2955:2 3083:2 3169:6 4046:1 4047:1 4181:1 4238:1 4308:1 4515:1 4662:1 4833:1 4981:1 5107:1 7151:1 8690:1 13392:1 16343:1 49051:1 72269:1 72270:1 72271:1 72272:1 #
0.019151507621335641 4:2 8:1 9:1 12:4 17:1 23:1 24:1 36:1 41:1 51:1 59:1 90:2 91:2 97:1 107:1 124:1 142:1 167:1 185:2 197:1 233:1 244:2 272:1 327:1 426:1 477:1 508:1 618:2 623:1 904:2 1001:2 1033:1 1052:1 1118:1 1231:2 1260:1 1358:1 1840:1 1899:2 1957:1 2250:1 2370:1 2596:1 3139:1 3253:1 3528:1 3585:2 4218:2 4302:2 4756:1 4945:1 5230:1 5554:1 7943:2 8815:1 9306:1 9999:1 13401:1 14094:1 17679:2 23274:1 35575:1 #
-0.034219699427493366 8:1 12:1 97:1 147:1 148:1 185:1 814:1 2223:1 2409:1 4874:2 6871:2 14410:1 #
-0.003418895141993302 3:1 4:5 8:1 9:4 12:6 23:1 27:1 36:3 51:2 58:3 91:1 97:1 107:1 108:2 126:1 136:4 152:1 175:2 189:1 219:1 231:1 243:1 320:1 383:1 392:1 495:2 594:1 666:5 1207:1 1294:1 1517:1 1672:3 1768:1 1819:1 2114:1 2218:2 2610:1 2612:1 3398:1 3504:1 3714:1 3738:1 4063:6 4104:1 5212:1 5707:5 6095:1 6512:1 7116:1 8258:1 8666:1 12258:2 18680:1 26647:2 38241:3 39368:1 53123:2 74025:1 81111:1 #
0.036285755181088133 3:7 4:9 7:4 8:1 9:1 12:9 23:6 27:2 36:11 46:1 51:2 58:1 64:1 67:7 108:1 145:1 177:1 196:2 208:1 220:1 244:1 262:1 302:1 342:1 344:2 345:1 371:1 428:1 477:1 506:1 509:1 625:1 630:1 704:2 710:1 716:1 726:2 775:1 782:1 803:1 805:1 836:1 895:1 905:1 916:1 919:1 1014:1 1055:2 1252:1 1267:1 1301:1 1361:2 1373:1 1407:1 1478:1 1771:1 1804:1 1998:1 2055:1 2109:1 2261:1 2310:1 2322:1 2333:1 2469:1 2647:1 2648:5 2784:1 2818:1 3047:1 3052:1 3100:1 3210:2 3211:2 3212:4 3234:2 3661:1 3738:2 4071:2 4262:2 4412:1 4574:3 4725:1 4946:1 5278:1 5699:1 5991:1 6226:2 6619:1 6736:2 6952:1 7529:1 14622:1 18664:1 18665:1 18838:1 19178:1 20597:1 22862:1 25974:1 27848:1 27849:1 27850:3 27851:3 27852:1 27853:1 27854:1 27855:1 27856:2 #
0.0067799122517497807 3:9 4:17 8:1 9:4 10:1 12:14 21:3 23:4 24:1 27:2 29:1 36:7 41:1 44:5 46:1 51:2 56:3 58:2 59:1 60:1 63:2 64:1 90:2 91:3 95:5 97:2 107:1 126:2 145:1 153:3 185:5 196:1 218:1 233:2 234:1 248:1 255:1 256:3 270:1 296:1 308:2 327:1 333:1 337:1 383:1 403:1 408:1 438:2 449:3 452:2 456:1 474:1 482:1 497:1 500:2 524:1 565:1 591:1 610:1 615:1 626:1 674:1 721:1 735:2 784:1 795:4 814:2 901:2 1009:3 1033:2 1045:5 1060:2 1117:1 1144:1 1184:2 1257:2 1408:1 1476:1 1505:2 1555:2 1826:2 1855:3 1922:1 2003:1 2092:2 2109:1 2245:1 2264:1 2289:1 2585:1 2798:1 2813:8 3160:1 3162:1 3329:1 3398:1 3684:1 3755:1 4461:1 4515:1 4822:1 4877:1 4932:5 5004:1 5497:1 5513:1 6544:1 6867:2 7151:1 8045:1 10618:1 12302:3 38877:1 48415:1 51389:1 55493:1 94272:1 94273:1 94274:1 #
-0.037965624355475826 3:1 4:8 8:1 9:2 12:2 17:1 23:2 36:2 46:1 58:3 63:1 91:4 97:1 107:2 142:2 154:1 167:1 169:1 175:2 208:1 232:1 245:1 313:1 314:1 401:1 404:1 410:2 502:1 563:1 598:1 603:1 630:2 672:1 801:2 871:1 997:1 1557:1 1685:1 1923:1 2112:1 2279:1 2617:1 2799:1 2971:2 3080:1 3142:1 3309:1 3480:1 3608:1 4574:1 4611:1 5231:1 5278:1 5996:1 6249:1 7496:1 8245:1 8818:1 19203:1 22330:1 59166:1 #
-0.0084563143968800977 3:4 4:15 8:4 10:1 12:15 21:3 23:4 24:1 36:11 41:1 44:2 51:2 56:5 58:1 63:1 91:3 97:2 102:1 103:1 107:1 136:1 153:1 164:1 175:2 183:1 185:2 196:2 233:4 234:1 243:1 289:2 293:1 314:1 321:1 327:1 337:2 341:2 350:1 383:1 392:1 393:2 429:3 477:1 481:1 504:1 543:2 555:1 591:1 593:1 601:1 654:1 679:1 682:1 728:1 785:1 828:1 842:1 881:7 893:1 895:1 929:1 1001:2 1107:5 1217:1 1290:1 1362:1 1450:1 1462:1 1648:3 1667:1 1675:1 1808:2 1844:2 1899:2 1990:1 1998:1 2002:1 2003:1 2087:1 2111:1 2126:1 2130:1 2238:1 2247:1 2248:1 2253:2 2305:1 2357:1 2416:1 2563:1 2829:1 3060:2 3169:1 3211:3 3386:1 3438:1 3594:1 4225:1 4270:1 4292:1 4364:1 4558:1 4772:1 5013:1 5104:1 5562:1 5609:1 5666:1 5804:1 6325:1 7045:1 7280:3 9458:1 9459:1 10728:1 11204:1 14966:2 15671:1 16132:1 26136:1 32753:1 37592:1 92882:1 92883:1 92884:1 92885:1 92886:1 92887:1 #
0.0105597346220693 3:7 4:9 8:2 9:1 12:5 23:4 29:1 36:4 41:1 42:1 44:2 58:1 59:1 63:1 107:1 119:1 139:1 167:2 185:1 272:1 277:1 309:1 323:1 430:1 452:1 486:1 489:1 630:1 721:1 781:1 842:1 845:1 889:1 1016:1 1241:1 1282:3 1305:2 1352:3 1408:1 1524:2 1828:1 1844:1 2003:1 2612:1 2636:1 2749:1 2986:1 3115:1 3544:1 3597:1 3919:3 4390:1 4725:1 5002:4 5406:2 7699:4 8557:1 9065:1 9659:3 28533:3 83040:1 #
0.09157986811389543 3:1 4:4 8:1 12:4 17:1 23:1 41:1 44:2 56:1 58:1 90:1 91:1 97:1 107:1 119:1 131:1 185:1 247:1 287:4 338:1 669:1 756:1 880:1 901:1 1145:1 1217:1 1327:1 1471:1 1771:1 2347:1 2358:1 4352:1 5273:1 5462:1 10560:1 10841:1 12094:1 16283:1 28618:2 28619:1 28620:1 28621:1 28622:1 28623:1 #
-0.0053316308302197345 3:3 4:25 7:2 8:1 9:2 12:7 17:2 21:3 23:5 27:1 36:7 41:2 44:5 46:7 48:1 51:8 56:7 59:3 60:3 68:2 78:3 87:3 90:2 91:7 97:2 116:1 126:2 136:2 138:1 150:1 154:1 167:1 173:1 175:1 189:3 196:1 197:1 203:1 231:1 234:1 244:2 247:1 287:1 289:6 314:1 327:2 330:3 338:1 403:1 429:1 430:3 436:2 452:1 456:1 473:1 477:1 504:2 548:1 556:1 592:1 630:1 679:1 904:1 978:2 991:4 1008:1 1107:2 1119:3 1221:1 1242:1 1327:2 1346:1 1412:2 1424:1 1546:1 1599:1 1621:2 1625:1 1648:5 1672:2 1761:2 1868:1 1958:1 1996:1 1998:3 2054:1 2110:1 2172:1 2192:1 2300:2 2363:1 2572:7 2739:1 3060:2 3150:1 3162:1 3259:1 3396:1 3573:3 3594:2 3656:2 3884:1 4216:1 4486:1 4718:1 4870:1 5158:1 5171:1 5284:1 5804:1 6063:1 6350:1 7470:1 8374:1 8457:1 8681:1 9403:3 9404:2 9553:2 9681:1 9682:2 10249:4 11100:1 11778:1 11779:1 12303:1 14705:1 14786:1 16671:1 17947:1 19634:1 23754:2 29258:1 33039:3 33354:2 57072:3 69230:1 71846:1 74705:1 77069:2 84045:1 84046:1 90694:2 90695:1 90696:1 90697:1 90698:1 90699:1 90700:1 #
-0.014760436558235038 4:1 7:1 8:1 9:2 12:3 21:1 23:1 41:1 56:1 86:1 91:1 98:3 186:1 197:1 243:1 289:1 339:1 654:1 723:2 894:1 1462:1 1637:1 1731:1 5324:1 6358:1 8742:1 10371:1 24142:2 37887:2 #
-0.0069276528592076749 3:2 4:4 7:2 8:1 9:2 12:6 23:3 27:1 36:1 41:2 51:1 59:1 67:1 91:6 97:1 154:2 169:1 177:1 208:1 210:1 233:1 255:1 293:1 345:2 481:1 482:1 501:1 541:1 591:1 597:1 881:1 927:1 1169:1 1294:1 1490:2 1681:1 1695:1 1833:1 1835:1 2134:1 2276:1 2305:1 2329:1 2469:1 2549:1 2558:1 3094:1 3194:1 3648:1 4922:1 4924:1 5462:2 6686:1 6963:1 8664:1 8665:1 8666:1 8667:1 8668:1 8669:1 8670:1 8671:1 #
0.017792564204310902 3:6 4:8 7:2 8:1 12:7 21:1 23:3 36:3 44:2 51:1 56:2 58:2 64:1 83:2 90:2 91:2 97:1 113:1 153:3 175:1 197:1 208:1 222:2 243:1 244:1 258:1 277:1 297:2 302:1 321:1 328:1 330:1 331:1 359:1 429:1 445:1 506:1 541:1 548:1 659:1 666:1 669:1 699:1 803:1 845:1 869:1 875:2 921:1 924:1 935:1 1252:2 1320:1 1346:1 1377:1 1407:1 1568:1 1611:1 1846:1 1868:1 1923:1 2357:1 2409:1 2671:1 2780:1 3620:1 3757:1 4007:1 4926:1 5349:1 5511:1 5513:1 8288:1 9330:1 12914:1 13834:1 14901:1 22427:1 22477:1 25011:1 28297:1 48227:1 86014:2 #
0.2467223736098953 3:5 4:6 7:2 8:1 9:2 12:5 17:1 21:1 23:5 36:2 41:1 42:1 44:1 56:1 58:1 66:1 68:1 80:1 90:2 91:5 97:1 185:1 189:1 203:1 205:1 206:1 214:1 217:1 233:1 277:1 319:1 396:1 414:1 428:1 458:1 518:1 605:1 654:1 668:2 694:1 727:1 732:1 799:1 803:2 842:1 864:1 881:1 1340:1 1350:2 1359:1 1505:1 1590:1 1621:1 1946:1 2123:2 2130:1 2399:1 2415:1 2544:1 2568:1 2639:2 2834:2 2910:2 3168:1 3574:1 3727:1 4718:1 5364:1 6473:1 12819:1 38294:1 #
-0.032637209845302731 3:3 4:23 8:3 12:12 21:3 23:13 26:1 27:2 36:8 41:5 44:4 51:1 58:4 59:1 68:1 90:1 91:2 97:2 119:1 126:1 138:1 145:2 154:5 159:1 165:1 167:1 169:2 175:2 177:2 188:1 200:1 209:1 277:2 325:1 358:1 390:1 394:1 395:2 396:1 397:1 451:3 452:2 458:1 481:1 482:1 504:2 506:1 541:1 548:2 556:1 569:4 630:1 638:1 668:3 698:1 711:1 728:1 815:1 1025:1 1061:1 1107:1 1117:1 1219:1 1242:1 1251:1 1259:2 1557:1 1630:3 1846:1 1855:1 1888:1 1924:1 1966:1 2002:1 2014:1 2015:1 2029:1 2041:1 2072:1 2192:1 2253:1 2326:1 2370:1 2371:1 2374:1 2416:1 2464:2 2559:1 2623:1 2676:1 2794:1 2810:1 2838:1 2874:3 2962:1 2980:1 3385:1 3575:1 3621:1 3771:1 3841:1 3896:1 4373:3 4466:1 4479:1 4507:1 4818:1 4936:1 5107:1 5170:2 5333:1 5509:1 5804:1 5963:1 6928:4 6948:1 7240:1 7547:1 7699:1 7943:1 9530:1 9741:1 10621:1 10959:1 11358:1 11663:1 13662:1 15151:1 15702:1 18053:2 27856:1 40895:1 41764:1 45073:1 47144:4 72986:1 80953:1 88976:1 93714:4 93715:1 93716:1 93717:1 93718:1 93719:1 93720:1 93721:1 #
0.21410475764066203 3:2 4:3 8:1 9:1 12:2 23:3 36:2 56:1 59:2 63:1 67:1 91:2 95:1 245:1 309:4 342:1 346:1 477:1 528:1 556:1 630:1 695:1 793:1 933:1 946:1 1015:1 1175:1 1273:1 1294:1 1377:1 1611:1 1944:1 2329:1 2459:1 2827:1 2830:2 2966:1 3007:1 3167:1 3357:1 3471:1 3589:1 3619:1 4043:1 4756:1 5054:1 7943:1 9065:1 14143:1 17354:1 41466:1 #
-0.0010414839790002508 3:1 4:9 8:1 9:2 12:8 21:1 23:4 29:1 36:3 39:1 41:2 44:2 56:2 64:2 68:1 72:1 75:1 82:1 91:2 97:2 107:2 117:1 119:1 126:1 154:1 167:2 175:3 177:1 185:1 188:1 197:1 203:1 208:1 273:2 296:2 302:4 321:4 325:1 345:1 346:1 354:1 385:1 456:1 570:1 647:1 711:1 727:1 840:1 842:1 843:1 871:1 875:1 1055:1 1193:1 1246:1 1359:1 1631:1 1727:1 2011:1 2014:1 2126:1 2359:1 2393:1 2443:1 2926:1 3357:3 5445:1 5640:1 5804:1 5965:1 6497:1 7381:1 8290:2 10706:1 34195:1 36045:1 45871:1 45872:1 45873:1 #
0.096836825647259941 4:7 8:1 9:1 12:3 21:1 23:1 36:2 41:1 48:1 51:2 56:3 91:4 97:1 116:1 165:1 175:1 185:3 196:2 256:1 277:2 320:1 330:2 331:2 335:2 393:1 460:1 477:1 494:1 522:1 524:2 541:1 717:1 724:2 732:2 842:1 881:1 929:1 1107:1 1294:1 1371:1 1462:1 1473:1 1546:1 1569:1 1648:2 1700:1 1835:2 1944:1 1966:1 2123:1 2238:1 2566:1 3411:1 3590:1 4189:1 4416:1 6323:1 6324:1 6325:2 6326:1 6327:1 6328:1 6329:1 6330:1 6331:1 6332:1 6333:1 6334:1 6335:1 #
-0.08158202794278914 8:1 12:1 91:1 107:1 154:1 169:1 175:1 185:1 515:1 530:1 1167:1 1507:1 2313:1 3865:1 4484:1 8990:1 10975:1 14347:1 14348:1 #
-0.034808923668291747 3:2 4:5 8:1 12:4 23:1 29:1 36:5 41:2 44:1 46:3 51:3 56:3 67:1 78:1 91:1 119:1 123:1 131:1 154:1 169:1 185:3 219:1 231:1 243:3 244:1 272:1 277:1 289:1 302:1 309:1 342:1 356:1 403:1 404:1 426:1 454:1 455:1 477:1 524:1 555:1 728:1 935:1 997:1 1042:1 1096:1 1181:2 1282:5 1401:1 1412:1 1702:1 2040:1 2176:1 2286:1 2804:1 2829:1 3080:2 3343:1 3480:1 3666:2 3671:1 4136:1 4391:1 4585:1 4592:1 6007:2 6127:4 6859:1 7905:1 8602:1 11833:1 14150:1 14608:1 18283:1 38563:1 #
-0.078558945286151663 3:6 4:23 8:1 9:3 10:2 12:8 17:3 21:2 23:2 36:9 41:3 44:3 46:2 58:1 69:2 78:1 81:1 90:3 91:4 97:1 107:1 116:1 119:1 138:1 147:1 159:1 175:1 177:1 231:1 244:2 248:1 252:2 307:4 314:4 327:1 328:4 330:1 331:1 333:2 346:1 356:1 423:1 426:1 456:1 477:1 564:1 570:4 622:1 659:1 690:1 703:1 721:1 781:1 794:1 795:1 799:4 873:1 895:1 916:2 1016:2 1022:1 1026:1 1047:1 1052:4 1121:2 1168:2 1259:1 1285:2 1293:1 1311:1 1320:6 1334:1 1335:1 1347:1 1407:1 1411:1 1547:2 1760:1 1858:1 1996:1 1999:1 2021:2 2123:1 2130:2 2132:1 2189:2 2305:1 2357:1 2359:1 2613:1 2672:3 3002:1 3030:1 3071:2 3407:1 3480:1 4035:1 4071:1 4107:2 4248:2 4522:1 4816:1 4835:1 7700:1 9064:1 10296:1 10548:1 10644:1 11654:1 13875:1 14503:2 15961:1 19263:1 22643:1 23410:1 45631:1 69353:1 72389:2 92830:1 92831:4 92832:2 #
0.0064394857288030804 3:2 4:2 8:1 12:4 19:1 23:2 36:3 46:1 51:2 56:1 58:1 78:1 90:1 91:1 107:1 185:3 200:1 217:1 238:1 240:1 244:1 268:2 314:1 325:1 477:1 541:2 546:1 630:1 669:2 728:1 839:1 935:1 978:1 994:1 1270:2 1543:1 1545:1 1658:1 2040:1 2316:1 2544:1 3364:1 3401:1 3603:1 3988:1 4007:1 4136:1 4364:1 4413:1 5305:1 6383:1 6384:2 6752:1 6952:2 8547:1 10567:1 10696:1 10840:1 10848:1 10853:1 11938:1 13773:1 17587:1 19276:1 22309:1 29326:2 29327:1 29328:1 29329:1 29330:1 29331:1 29332:1 #
-0.011412855138424287 3:3 4:18 8:1 9:2 12:12 21:3 23:12 27:1 31:2 36:7 44:7 51:2 56:3 58:7 61:1 63:1 67:2 91:7 97:3 107:1 119:2 120:1 164:1 167:1 169:1 173:1 185:1 196:2 206:2 233:1 236:1 242:1 243:1 244:6 256:1 261:2 269:2 277:1 327:2 342:1 359:1 391:1 406:1 428:1 431:1 435:1 452:1 457:1 460:1 465:1 477:2 494:3 540:2 544:1 548:1 570:1 582:1 598:1 624:1 630:1 638:1 642:1 666:1 692:3 706:1 715:1 716:1 721:1 723:1 727:1 728:1 791:6 843:1 896:1 913:1 993:1 1001:3 1011:1 1015:1 1107:1 1125:1 1184:2 1237:1 1267:1 1285:1 1300:1 1325:1 1327:1 1346:1 1362:1 1408:2 1486:1 1505:1 1648:1 1681:1 1695:1 1756:1 1823:1 1835:1 1905:1 2087:1 2097:1 2172:2 2398:1 2566:1 2862:1 2911:1 3321:1 3357:4 3368:1 3695:1 3910:3 4296:1 4413:1 4435:1 4480:1 4668:2 4798:1 4941:1 5103:1 5110:1 5264:1 5628:1 5820:1 5925:1 5927:5 6402:1 6583:1 6748:1 6779:2 7032:8 7354:1 10584:1 10617:1 10644:1 10746:1 11235:1 11982:2 14099:3 14199:1 14301:1 15560:1 16883:3 19151:1 19824:1 34472:1 35977:1 35978:1 35979:1 35980:1 35981:1 35982:1 #
0.09532985720972377 4:8 8:1 12:5 17:1 23:2 36:1 40:1 41:1 44:3 51:2 58:4 67:1 78:1 90:1 91:1 97:1 119:2 139:1 153:1 244:2 302:1 309:1 330:3 331:1 346:1 429:1 486:1 681:1 716:1 853:2 881:1 973:1 1042:2 1119:1 1347:1 1350:1 1362:1 1478:1 1572:1 1637:1 1769:1 2030:1 2132:3 2812:1 3357:2 3519:1 3608:1 4032:1 4208:1 4262:3 4398:1 5300:1 5363:1 5554:1 6038:1 8079:1 8125:3 11696:2 19449:1 54832:1 #
0.0049235128107693602 3:5 4:14 8:1 9:3 12:5 17:1 21:1 23:7 27:2 36:7 41:2 44:1 49:2 51:2 56:1 58:5 91:9 119:3 126:1 152:1 159:1 164:1 175:1 179:2 185:2 196:1 197:2 205:2 219:1 233:1 234:1 243:1 255:3 256:1 291:1 292:1 327:1 428:1 438:1 482:2 488:1 499:1 548:1 565:1 577:1 594:1 625:1 628:3 639:1 654:1 666:1 682:2 702:2 719:1 774:2 905:1 908:2 924:1 978:1 1035:2 1038:2 1039:2 1044:2 1045:2 1061:1 1076:2 1201:1 1267:1 1318:1 1361:1 1386:3 1399:1 1411:1 1451:1 1462:1 1555:1 1681:1 1695:1 1768:1 1897:1 1915:1 1968:1 2225:1 2365:1 2482:1 2625:1 2749:1 2777:1 2874:2 2940:1 3082:1 3715:1 3802:1 3940:1 5807:2 5873:1 6779:2 7037:1 7045:4 7170:1 7986:1 8157:1 8578:1 10035:1 10149:1 16602:1 18232:1 21027:1 21382:1 27008:1 33233:1 44207:1 44208:1 44209:1 44210:1 #
0.10973192408638817 3:3 4:15 8:1 9:2 10:1 12:10 17:1 21:1 27:4 36:3 39:1 41:2 44:1 46:1 86:1 90:1 91:2 95:3 97:1 107:2 115:1 116:1 138:1 154:1 197:1 203:1 314:4 320:1 335:1 344:1 374:1 428:1 473:1 507:1 541:1 630:2 703:1 777:1 832:1 843:1 887:1 904:1 1143:1 1145:1 1187:1 1212:1 1259:1 1373:1 1509:1 1635:2 1667:1 1869:1 1923:2 1955:1 2250:1 2363:1 2572:1 3656:1 4718:1 5082:1 5305:2 5498:2 5503:1 6325:1 6583:1 6625:2 6638:1 7633:7 8457:1 10249:2 11425:2 12534:1 13070:1 16132:2 31772:1 41681:1 62878:1 68550:1 68551:1 68552:1 68553:1 68554:1 #
0.19054163964213017 3:3 4:5 8:1 9:1 12:3 21:1 41:2 44:3 49:3 58:1 59:1 91:2 107:2 119:1 154:2 169:2 339:1 391:1 397:1 465:3 467:1 504:2 589:2 607:1 1014:1 1359:1 1377:1 1822:1 2015:1 2755:1 2980:3 4316:1 4433:1 15044:1 15499:2 16662:1 17450:1 #
0.24233113841694975 4:2 8:1 12:1 36:2 56:1 97:1 107:1 154:1 169:1 175:2 346:1 452:1 605:1 698:1 881:1 895:1 1330:1 1347:1 1353:1 1507:1 2200:1 3540:1 4763:1 7854:1 8588:1 10482:1 36480:1 36481:1 36482:1 36483:1 36484:1 #
-0.010871206867492022 3:3 4:4 7:2 8:1 12:3 31:1 36:5 40:1 44:2 51:1 54:1 56:1 67:1 83:2 91:3 97:1 107:1 113:1 126:2 139:1 175:3 188:1 255:1 307:1 337:1 346:3 359:1 387:1 402:1 412:1 497:1 610:3 628:1 702:1 777:1 881:2 887:2 938:1 1011:1 1055:2 1110:2 1207:1 1212:1 1327:1 1511:1 2003:1 3251:1 3727:1 4218:1 4230:1 4403:1 4481:1 7132:1 10401:1 10405:1 11777:1 14183:1 20390:1 25867:1 43766:1 72440:1 #
0.19261828285249824 3:3 4:10 8:1 9:2 12:2 21:1 27:1 36:2 41:1 44:1 46:4 50:1 64:1 68:1 70:1 91:3 113:1 175:1 196:1 386:1 394:1 410:1 411:5 456:1 471:1 577:1 592:1 629:1 692:1 777:1 799:1 842:3 959:1 1052:1 1104:2 1116:1 1231:1 1285:1 1672:1 1742:1 1760:1 1885:1 2192:1 2224:1 2260:1 2261:2 2262:1 2263:1 2264:1 2265:2 2266:1 2267:1 2268:1 2269:1 2270:1 2271:1 #
0.026464865874608449 3:1 4:3 8:1 9:2 12:2 17:1 23:2 41:2 44:1 51:1 90:1 91:2 97:1 141:2 185:1 281:1 339:1 546:2 605:1 638:1 706:1 828:1 999:1 1033:1 1305:1 1371:1 1923:1 2031:1 2109:1 2217:2 2278:1 2626:1 3052:1 3082:1 3569:1 4067:1 4173:1 4332:1 4491:1 4671:3 4713:1 5357:1 5837:1 6468:1 7379:1 13456:1 19020:1 20138:1 29376:1 32015:1 65388:1 65389:1 65390:1 65391:1 #
0.13464121924999614 3:1 4:10 7:2 8:1 9:2 12:5 17:1 23:4 36:2 41:1 44:1 48:1 51:1 58:2 65:1 90:1 91:1 107:2 159:1 186:1 208:1 214:1 248:1 314:2 358:1 401:2 450:1 451:1 452:1 482:1 486:1 555:1 565:2 567:2 601:1 795:1 881:1 1184:1 1346:1 1371:1 1622:1 1667:1 2253:1 2265:1 2618:1 2980:2 3003:1 3080:1 3473:1 3572:1 3581:1 4412:1 5643:1 5820:1 6554:2 7952:1 9955:1 11872:1 14237:2 23237:2 26822:1 26823:1 #
-0.046793102260317652 3:3 4:2 8:1 12:2 23:2 36:2 44:2 51:1 58:1 90:1 91:4 97:2 136:1 234:1 346:3 411:1 522:1 567:1 592:1 669:1 702:1 1143:1 1168:1 1325:1 1347:4 1637:1 1667:2 2123:1 2130:1 3406:1 4433:1 4718:1 9507:1 9682:1 16143:2 19782:1 19783:1 #
-0.020563563619930499 3:3 4:6 8:1 9:1 12:3 21:1 23:3 36:2 41:1 51:1 56:2 58:2 68:1 70:2 90:1 165:1 185:1 189:1 197:1 236:1 243:1 247:1 333:2 430:1 524:1 557:1 644:1 699:1 978:1 1061:1 1110:1 1294:1 1347:1 1546:1 1547:2 1648:3 1709:1 1839:1 1912:1 2130:2 2190:1 2399:1 2677:1 3573:1 3574:1 3886:1 4744:1 4749:2 4963:1 5483:1 5595:1 6219:1 6501:1 6803:1 7280:1 8509:1 9225:3 9724:1 22986:1 37002:1 45166:1 #
-0.0037539833280880635 3:5 4:30 8:1 9:3 12:9 21:1 23:3 36:5 40:2 41:7 44:8 48:3 51:2 58:1 63:3 90:1 93:1 107:2 116:1 119:4 126:1 131:1 142:3 175:2 203:1 232:2 244:2 262:1 289:1 301:1 327:1 333:1 383:1 390:1 403:1 419:1 454:1 465:8 476:1 477:1 482:2 570:1 610:3 612:3 672:2 776:1 815:1 831:1 843:1 1014:5 1055:1 1371:1 1457:1 1465:1 1538:1 1547:1 1690:1 1806:1 1933:1 2394:1 2445:1 2800:4 2834:3 2838:2 2950:1 3053:1 3224:1 3837:1 5628:1 5808:1 5952:1 8173:1 9067:2 10680:1 11538:1 12109:1 17275:2 20001:1 20348:1 21010:1 25062:1 29839:2 33501:1 34444:10 37066:1 37111:2 40178:1 52593:1 83141:1 83142:1 #
-0.024666572621963728 3:1 4:6 8:1 9:1 12:3 17:2 23:2 27:1 36:5 44:2 56:1 58:3 90:2 91:1 97:1 120:1 122:1 139:1 152:1 164:1 173:1 188:1 208:1 217:1 243:2 244:2 277:2 318:1 323:1 336:1 346:1 387:1 390:1 482:2 486:1 509:1 582:1 669:1 705:1 714:1 727:1 832:1 905:1 919:2 935:1 1205:1 1228:1 1254:1 1260:1 1287:1 1320:1 1388:1 1520:1 2021:1 2049:1 2069:1 2105:2 2109:1 2116:1 2172:1 2402:1 2405:1 2986:1 3309:3 3416:1 3886:1 4166:1 4265:1 4676:4 4853:1 5555:1 5562:1 18852:1 #
0.12698587789463803 3:1 4:8 8:1 9:1 12:4 17:1 18:1 23:7 36:2 56:1 58:1 59:1 91:1 95:1 117:1 123:1 175:1 196:1 234:1 236:1 244:2 259:1 352:1 365:1 383:2 401:3 435:1 450:1 464:1 477:1 497:1 503:1 506:1 567:2 596:2 625:1 638:1 716:1 801:1 871:1 935:1 1015:1 1042:1 1104:1 1189:1 1318:1 1326:1 1327:1 1329:2 1350:1 1910:1 1997:1 2012:1 2030:1 2035:1 2039:1 2041:1 2068:2 2261:1 3047:6 3347:1 4002:1 4312:1 4372:1 4462:2 4466:1 5153:1 8967:1 9517:1 10998:1 11582:1 13293:1 13526:1 39086:1 #
-0.0044638168706303862 3:1 4:12 8:1 10:1 11:1 12:4 18:1 23:1 36:3 44:3 46:1 58:1 145:1 175:1 185:2 189:1 196:2 262:1 344:1 570:2 573:1 623:1 723:1 724:1 795:1 842:1 1045:1 1301:1 1325:1 1408:2 1592:3 1645:1 2357:1 2511:1 3385:1 3407:2 3460:1 3500:1 3506:1 3527:2 4042:1 5028:1 6216:2 9224:2 10236:1 13477:1 20048:1 20524:1 #
-0.015511594021185692 3:2 4:11 8:1 9:1 12:4 17:1 21:1 36:9 41:2 44:1 51:3 56:3 58:5 60:1 68:1 78:1 90:1 119:1 126:1 131:1 145:2 189:2 206:1 233:1 243:2 244:1 248:1 302:2 363:3 387:3 404:3 432:1 452:1 456:1 497:1 513:2 514:2 681:1 701:1 706:1 722:1 756:1 796:1 815:4 828:1 840:1 935:1 1042:1 1107:1 1143:5 1145:1 1242:1 1357:1 1487:1 1613:1 1658:4 1828:1 2006:1 2116:1 2603:1 2721:1 2832:2 3416:2 3483:3 4316:1 4729:1 5120:1 5273:1 5858:1 5999:6 6839:1 10305:1 11672:1 11909:1 14413:1 23099:1 26110:1 44161:1 75027:1 #
-0.0033807231084637241 3:1 4:8 8:1 9:3 12:4 17:1 27:1 28:1 44:1 47:1 58:4 62:1 90:1 91:4 119:1 172:1 175:2 177:1 179:3 185:2 189:1 244:1 277:1 302:3 327:2 353:3 375:1 412:1 426:1 457:1 497:1 504:2 594:2 681:2 704:2 716:1 717:1 723:2 904:2 935:1 963:1 1061:1 1118:1 1143:2 1189:1 1259:4 1269:1 1371:2 1412:1 1761:1 2010:1 2012:1 2037:1 2122:7 2259:1 2652:1 2942:1 2966:1 2992:4 3053:1 3407:1 3503:1 3653:1 4001:1 4240:2 4316:1 4372:3 4522:4 4578:1 5384:1 5871:1 7381:1 7538:1 7988:1 9954:1 10357:2 11896:1 14037:1 70445:1 #
0.0009701233643236094 3:1 4:10 8:1 9:1 12:6 17:1 19:1 23:1 27:1 36:2 41:4 44:1 48:1 58:2 76:1 90:1 91:2 167:1 169:2 175:1 177:1 185:1 197:1 214:1 215:1 233:1 244:1 279:1 287:2 314:2 359:2 394:1 451:1 457:1 458:1 464:1 480:1 543:1 569:1 592:1 630:1 638:2 668:1 669:1 685:1 736:1 756:1 853:2 957:1 1032:1 1149:1 1443:1 1926:1 2064:1 2533:1 2738:1 3185:1 3755:1 6554:1 6748:1 10708:4 26931:1 52294:1 53468:1 53469:1 53470:1 53471:1 53472:1 #
-0.043075186198529167 3:4 4:12 8:1 12:6 21:1 23:3 36:2 40:1 41:1 44:3 46:1 51:1 56:1 58:1 69:1 70:1 79:1 91:3 97:1 107:2 167:1 185:1 273:1 321:1 330:1 331:1 337:1 390:1 429:1 450:1 486:1 594:1 602:1 605:1 622:2 651:1 690:1 815:1 838:1 1033:1 1145:1 1255:1 1257:1 1347:1 1554:1 1640:4 1731:1 1788:1 2559:1 2794:1 3047:1 3055:1 3185:1 3564:6 3634:2 3651:1 4189:1 4482:1 4649:1 5272:1 5638:1 5672:1 5757:1 6134:1 7128:2 7505:2 8839:1 8840:1 10272:1 10296:1 16301:1 85032:1 #
-0.023745240481900704 3:5 4:33 8:1 9:2 10:1 12:13 21:2 22:1 23:6 33:2 36:5 40:1 44:6 46:2 51:2 56:2 90:1 91:3 94:4 120:1 136:1 138:1 139:2 172:1 179:1 189:1 200:1 244:2 248:1 255:3 287:1 295:1 308:1 309:1 320:1 327:1 336:1 375:1 396:1 410:2 431:2 436:1 450:3 477:1 482:1 486:1 498:1 551:3 555:1 567:1 592:2 615:3 623:1 717:1 724:4 777:1 794:1 795:3 916:1 1042:4 1047:2 1097:2 1113:1 1184:1 1189:1 1239:1 1247:1 1400:1 1503:1 1509:1 1591:1 1628:1 1648:1 1760:3 1764:2 1931:1 2224:1 2259:2 2262:1 2265:4 2333:1 2561:2 2690:1 2778:3 2980:1 3060:4 3309:2 3411:1 3503:1 3611:1 4176:1 4600:2 4806:2 4871:1 5260:3 5550:2 5595:1 6096:1 6681:2 8301:1 8602:6 8953:1 9367:2 9497:1 9832:2 10872:1 12329:1 14129:1 16020:1 16493:1 16494:1 16495:1 16496:1 16497:1 #
0.3149470304335078 4:3 8:1 12:3 23:1 36:2 44:1 107:1 175:1 188:1 243:2 390:2 392:1 450:1 509:1 709:1 780:1 1520:1 2932:1 3157:1 4522:1 5357:1 7134:2 8963:1 59292:1 59293:1 59294:1 59295:1 #
0.027446085295757351 3:1 4:2 8:1 9:1 12:2 17:2 26:1 27:1 36:2 46:1 51:1 58:1 75:1 90:1 91:2 175:1 216:1 233:1 234:1 244:2 258:1 277:1 282:1 321:4 345:3 358:1 445:1 447:1 460:1 592:1 723:1 741:1 1026:1 1079:1 1453:1 1563:1 1568:2 1601:1 1727:1 2286:1 2357:4 2420:1 2505:1 3180:1 4351:1 4424:1 4426:2 4951:1 5055:1 5665:1 7000:1 9900:1 14079:1 16384:1 17853:2 20622:1 51657:1 53791:1 53792:1 #
-0.051541890895714336 3:2 4:7 8:1 9:3 12:5 17:1 23:2 28:1 36:5 41:2 47:1 56:1 58:1 90:1 91:1 95:1 121:1 122:1 150:1 175:1 189:1 197:1 242:1 244:1 248:1 256:1 289:1 309:1 327:1 383:1 392:1 454:1 486:2 834:1 854:1 904:1 989:1 1079:1 1301:2 1318:1 1327:1 1354:2 1407:2 1637:1 1839:1 1893:1 1910:1 1921:1 2039:1 2058:1 2122:2 2443:1 2528:1 2725:1 2917:1 2955:1 2960:1 2966:3 2967:2 2983:1 3054:1 3218:1 4176:1 4311:2 4474:1 5129:2 7943:1 8317:1 9659:2 10345:1 14143:1 30403:2 30404:1 #
-0.038032068037031797 3:2 4:7 8:1 9:2 12:5 21:1 23:5 27:1 36:5 44:1 51:1 58:1 68:1 89:1 90:1 91:7 131:1 175:1 185:1 188:1 239:1 242:1 313:3 411:1 431:1 438:2 486:1 570:1 618:1 632:2 643:1 647:1 693:1 694:2 706:1 1008:1 1043:3 1056:2 1214:1 1228:1 1273:1 1294:1 1415:1 1621:1 1727:1 2011:1 2322:1 2494:1 2543:2 2867:2 2991:1 3051:1 3706:1 3910:1 4217:1 4309:1 4574:1 4613:1 4915:2 5257:1 5305:1 6158:5 6543:1 6984:1 7039:1 7227:4 9099:1 14144:1 52752:1 52753:1 52754:1 #
-0.010063742969891711 3:2 4:7 8:1 9:1 12:3 36:1 95:1 107:1 185:2 222:1 244:1 314:1 481:1 511:1 721:1 920:1 1246:2 1507:3 2071:3 2240:1 3183:1 5510:1 5989:1 6221:1 7192:1 7835:2 8814:1 14683:1 36677:1 36678:1 36679:1 #
-0.023935804056377408 3:6 4:19 8:1 12:7 23:3 27:1 36:4 44:3 46:2 56:3 58:2 63:4 91:7 97:2 107:1 115:3 122:1 138:2 154:1 167:1 169:2 173:1 175:1 185:1 205:2 206:1 243:2 259:1 260:2 277:2 346:2 403:1 436:1 526:1 533:1 601:1 630:2 693:1 695:3 728:1 786:2 842:1 865:1 887:1 923:1 929:1 1001:1 1043:1 1114:1 1181:1 1237:3 1252:7 1255:1 1334:1 1390:1 1408:1 1462:1 1524:1 1555:1 1557:1 1685:4 1877:1 1910:1 1991:2 2165:1 2172:1 2289:1 2298:1 2379:1 2392:1 2477:1 2580:1 2598:1 2643:1 3075:1 3117:2 3194:1 3234:3 3283:1 3612:1 3701:1 3706:1 3862:1 4073:1 4317:1 4364:1 4590:1 4668:1 4789:1 4840:1 4915:1 5573:1 5578:1 5650:1 5665:1 6384:1 6455:1 6947:1 8103:1 8332:3 11655:1 14095:1 16132:1 16552:1 22933:1 26707:1 32802:1 34924:1 38052:1 46613:3 46614:1 46615:1 46616:1 46617:1 46618:1 46619:1 #
